encog,BasicNetwork,java,3.0.1,1,1394783730540
[BASIC]
[BASIC:PARAMS]
[BASIC:NETWORK]
beginTraining=0
connectionLimit=0
contextTargetOffset=0,0,0,0
contextTargetSize=0,0,0,0
endTraining=3
hasContext=f
inputCount=252
layerCounts=5,151,451,253
layerFeedCounts=5,150,450,252
layerContextCount=0,0,0,0
layerIndex=0,5,156,607
output=0,0,0,0,0,0,0,0,0,0,0,0,0,0,0,0,0,0,0,0,0,0,0,0,0,0,0,0,0,0,0,0,0,0,0,0,0,0,0,0,0,0,0,0,0,0,0,0,0,0,0,0,0,0,0,0,0,0,0,0,0,0,0,0,0,0,0,0,0,0,0,0,0,0,0,0,0,0,0,0,0,0,0,0,0,0,0,0,0,0,0,0,0,0,0,0,0,0,0,0,0,0,0,0,0,0,0,0,0,0,0,0,0,0,0,0,0,0,0,0,0,0,0,0,0,0,0,0,0,0,0,0,0,0,0,0,0,0,0,0,0,0,0,0,0,0,0,0,0,0,0,0,0,0,0,1,0,0,0,0,0,0,0,0,0,0,0,0,0,0,0,0,0,0,0,0,0,0,0,0,0,0,0,0,0,0,0,0,0,0,0,0,0,0,0,0,0,0,0,0,0,0,0,0,0,0,0,0,0,0,0,0,0,0,0,0,0,0,0,0,0,0,0,0,0,0,0,0,0,0,0,0,0,0,0,0,0,0,0,0,0,0,0,0,0,0,0,0,0,0,0,0,0,0,0,0,0,0,0,0,0,0,0,0,0,0,0,0,0,0,0,0,0,0,0,0,0,0,0,0,0,0,0,0,0,0,0,0,0,0,0,0,0,0,0,0,0,0,0,0,0,0,0,0,0,0,0,0,0,0,0,0,0,0,0,0,0,0,0,0,0,0,0,0,0,0,0,0,0,0,0,0,0,0,0,0,0,0,0,0,0,0,0,0,0,0,0,0,0,0,0,0,0,0,0,0,0,0,0,0,0,0,0,0,0,0,0,0,0,0,0,0,0,0,0,0,0,0,0,0,0,0,0,0,0,0,0,0,0,0,0,0,0,0,0,0,0,0,0,0,0,0,0,0,0,0,0,0,0,0,0,0,0,0,0,0,0,0,0,0,0,0,0,0,0,0,0,0,0,0,0,0,0,0,0,0,0,0,0,0,0,0,0,0,0,0,0,0,0,0,0,0,0,0,0,0,0,0,0,0,0,0,0,0,0,0,0,0,0,0,0,0,0,0,0,0,0,0,0,0,0,0,0,0,0,0,0,0,0,0,0,0,0,0,0,0,0,0,0,0,0,0,0,0,0,0,0,0,0,0,0,0,0,0,0,0,0,0,0,0,0,0,0,0,0,0,0,0,0,0,0,0,0,0,0,0,0,0,0,0,0,0,0,0,0,0,0,0,0,0,0,0,0,0,0,0,0,0,0,0,0,0,0,0,0,0,0,0,0,0,0,0,0,0,0,0,0,0,0,0,0,0,0,0,0,0,0,0,0,0,0,0,0,0,0,0,0,0,0,0,0,0,0,0,0,0,1,0,0,0,0,0,0,0,0,0,0,0,0,0,0,0,0,0,0,0,0,0,0,0,0,0,0,0,0,0,0,0,0,0,0,0,0,0,0,0,0,0,0,0,0,0,0,0,0,0,0,0,0,0,0,0,0,0,0,0,0,0,0,0,0,0,0,0,0,0,0,0,0,0,0,0,0,0,0,0,0,0,0,0,0,0,0,0,0,0,0,0,0,0,0,0,0,0,0,0,0,0,0,0,0,0,0,0,0,0,0,0,0,0,0,0,0,0,0,0,0,0,0,0,0,0,0,0,0,0,0,0,0,0,0,0,0,0,0,0,0,0,0,0,0,0,0,0,0,0,0,0,0,0,0,0,0,0,0,0,0,0,0,0,0,0,0,0,0,0,0,0,0,0,0,0,0,0,0,0,0,0,0,0,0,0,0,0,0,0,0,0,0,0,0,0,0,0,0,0,0,0,0,0,0,0,0,0,0,0,0,0,0,0,0,0,0,0,0,0,0,0,0,0,0,0,0,0,0,0,0,0,0,0,0,0,0,0,0,0,0,0,0,0,0,0,0,0,0,0,0,0,0,1
outputCount=5
weightIndex=0,755,68405,182255
weights=-0.24093079261102904,-0.020327106654398533,0.043160385758697024,-0.1825429980389883,0.006865706168267006,-0.036866658417409326,-0.04492315286356919,0.24926096294698477,0.1484446647138337,-0.07156381281861482,0.01521739288457548,-0.004298867209553005,0.07027228890834354,0.29938377133273025,0.10172124201740732,0.07310006017375704,-0.10197692050012389,-0.21058275409574798,0.1070538491866058,-0.20858959252165976,-0.06604985317562778,0.014241976916199628,0.2611175144250764,0.2277657824587955,-0.16210773527411743,-0.1839699383398468,0.2933223934738288,-0.13797461033944486,-0.05307956652001343,-0.09902490844952544,-0.036645785297116505,-0.15601619671136133,0.15017601284174645,0.15441049748351876,-0.06385177399614185,-0.15362128816318893,-0.06550413888442773,-0.10488699921063191,-0.01854937060127436,-0.12020293532660815,0.02179912132654893,0.20514023155902214,-0.16209977184433558,-0.15152033251731462,-0.1403814978021131,-0.20530999120817303,0.015069061802606407,-0.25849766057226314,-0.04909720241737317,0.25476327219742,-0.18578266246828593,0.25753565751475954,0.0006563101620027601,-0.041906928624532255,0.13929363327735372,0.20560624671657074,-0.05424156593997777,-0.047911107677772014,-0.03977568173910228,0.15676506316909083,-0.15364727290086042,-0.19143534950944677,0.029241711501700695,-0.0988817569613771,-0.17633979555844032,-0.2284219275683434,0.17949571361022026,0.08736421834858761,-0.1556183996348954,0.11927944782350264,-0.20258576211444296,0.004183724009992252,-0.1711206486452008,0.14369452046780293,-0.32115298061337405,-0.3394270342481375,0.2341298228328459,0.030490850057221627,0.14068945802732358,0.03544697703570514,-0.2364948599420226,-0.04830723867440292,0.04092857739830863,0.06368101796614489,-0.007703467873046718,0.04708832263871202,0.4737634814398217,-0.14173909549554103,0.10131389407189752,0.08382774009429114,0.0183411901368854,-0.23843352857650585,-0.10369843208180632,0.20247867184942583,0.07034526810351095,-0.31579053114690164,-0.021487928809427955,0.010514085373019164,-0.1506806774154456,-0.019379920258946807,0.11398266548768232,-0.054798187673804816,0.08735404300799995,-0.005776407445313296,0.2655280602178984,-0.22232522771610713,-0.22336873650113268,0.1548332890685705,0.25148519086695115,-0.20618954554925611,0.08635700938798434,0.16151269488360484,-0.16817393018311316,0.4226576485020224,-0.14433284126537854,-0.0018980544880388684,0.01722945805049066,-0.07656403066909975,0.07031976992467415,-0.14144060371394768,0.004399070158091817,0.4287278764203886,-0.4989373114710103,0.13786373145260322,-0.23190833083853532,-0.10100438656509027,0.10616420027308322,-0.31709659768127835,-0.02533913263723203,-0.11292366801856663,-0.1313803853837305,-0.15307934192095912,-0.038054733247258866,-0.176376493759576,-0.13798724980003468,0.06740709839293259,0.034400224223000105,-0.18051413466078559,0.21690775462344145,0.19597289648054872,-0.058860753211625504,-0.08331143161732955,-0.10534361822995894,-0.12154834468777598,0.20006777739581458,-0.020354903072326198,0.19014265094744204,0.4970606712784445,0.6582482013582068,0.06097637106480786,0.13228628220364486,0.04361793970655926,0.21736221691374044,0.03406039126338619,0.14340738389855268,-0.0619343344721607,-0.17588810907418495,-0.2829531326623725,-0.034813977554048164,-0.027271340124667587,-0.08550398847498997,-0.14648556397110257,0.06938391498162681,-0.0415789119790365,-0.061563181608126856,0.15054730697669294,0.15538303481670007,-0.056120385945961776,0.11808671073915825,0.05498048448689495,0.10859846844802792,-0.20532570070161615,-0.09187420533264624,-0.14620593950722222,0.04704601951234509,-0.25651521684488815,-0.0763337988327247,-0.03102761650567422,-0.09604058032195348,-0.024751102237249217,0.222428019045103,0.10685917528752373,0.11933383043962496,0.08666909172989229,-0.2587815934453038,-0.2000116606351664,-0.12085100727482721,0.19009875147346447,-0.03639582984741971,-0.22327823820493223,-0.0652582031048236,0.0889654697079814,-0.2968914805024583,0.02787192579877657,-0.16731552452044293,0.26575585699232523,-0.12028693185863934,-0.14260641067675553,-0.04971331417809716,0.02255133874980966,0.06047073129004655,-0.07980732084263116,-0.213853725375009,-0.03617857659044211,-0.04230616986329405,0.10597160429322702,-0.07706317559231789,0.08071793943949905,-0.06960581819710515,0.0456810022861012,0.04183305245481859,0.048319118932785524,0.038114629984968146,-0.18232645511927212,-0.03305685533587737,0.19098445575227285,0.4870283525294317,0.2600648953509282,0.02688746788574631,0.18525886631617108,0.012913565489749606,-0.1442631600622477,-0.23610558532876205,-0.02154685553635279,0.20676143924634666,0.4269014106835218,0.03204549587687681,-0.14488203608630112,-0.046164583749669544,0.1177275169939541,-0.18605050675362236,-0.020774783877762597,0.13730794390556297,0.11687757666501175,-0.011721986160843582,0.03824552890781017,0.2666754821177808,0.22155682922126596,0.20137750513114,-0.17068175225647703,0.2580146492017573,-0.22316825038209698,0.358480504723634,0.12485286981262816,-0.329377449987451,-0.01287466346239283,0.2296203874612168,-0.13605730051499673,-0.22980631143824423,0.3028653998511843,0.06762960848759159,-0.04073722016834448,0.05492954541687953,0.23576521584543012,0.04414794629783471,0.21565859918695363,-0.007528383996773626,0.09442879689605299,-0.03490305282911017,-0.17386144935212827,0.10845446053413439,-0.010481412889332064,0.3759032903652947,-0.11312791808066291,-0.20975280206634359,0.10538427291099355,0.02967980574261473,0.13993200719740614,0.2365004107815672,-0.2598041918681727,0.0016806204615445078,0.2807609628461563,-0.4630272234865232,0.08036816436524197,0.2540474244006009,-0.19934368952814666,-0.061936687860562716,0.12660677911499182,0.27547803529019727,0.09016549819941995,0.09242662119857231,-0.05157738183195154,-0.23495846584911906,-0.1748769494544488,-0.11453009564762874,0.08358780544924467,-0.048879132632348304,-0.01011695417892899,0.21330559219636125,-0.0021050819366811094,-0.08093797973030342,-0.17893883362980054,-0.26341502221826624,0.008295309508312086,-0.017974524090288827,-0.1618777842191886,0.04040789324022566,-0.1634588122391709,-0.3017399274940429,-0.3772362207492625,0.027241648296148106,-0.13074473142497328,0.4761613988764504,-0.42914841899371564,-0.19817528675314028,0.17566715016169657,-0.15807287496396455,0.05807076378487203,0.08288000900743829,-0.10348132395453996,-0.0013780384123668525,0.11215745182151995,0.23430227136503462,-0.08413834428246525,-0.02558447790692513,-0.27489089493306484,-0.0681705459708965,0.1831196696675494,0.017574097677455866,0.05562636437754547,-0.11363731717855642,0.17165946411565802,0.020136745612641296,0.011405919667982422,-0.24020005878745604,-0.3709243904483429,-0.052939450087665,0.01793686443989104,0.015156143729316729,-0.10234746057451516,0.11511006835301485,0.19048729899283934,0.20438356091397775,0.163414907150071,-0.2238612544359376,0.15844007469215546,0.030251903960049197,-0.2734791112626526,-0.2646109333073077,-0.16465910541080025,-0.12138256900230948,-0.05543104181577256,-0.014251981368577332,-0.08835535240255271,-0.018830794989120693,0.04494475814302729,-0.026934456927400652,0.0026017558122768095,-0.12962241730679105,-0.26307405779335363,0.21069635226016717,-0.2546826521326378,0.09341770973639965,-0.5832162366983373,0.1149501094139762,-0.12689623671040942,0.27349160411289636,0.11639527810090082,-0.03144335639716169,0.24334812753887616,-0.0805025569443412,-0.09943882498226296,0.11204867682237997,-0.06782419718837451,-0.11372007967372375,0.27835763779931516,0.11092926609795824,-0.011427166412256353,0.03445355949168463,0.29010827389510785,-0.14340792063523222,0.05860808375436692,-0.48141258325760855,-0.4686337447161923,-0.2762015715443546,0.10522221664463882,-0.015160365991102438,0.26846800712536717,0.042775157921138875,-0.014858510410141714,-0.033533629685909824,-0.2738084199275747,0.16081630575819436,-0.28754549304841376,0.10990640532101013,-0.20748309233764853,0.07757976610346486,0.01816590723989716,-0.059352044275747154,0.05148893650916522,0.061382964211244784,-0.10960325559945304,0.048512179232258555,-0.13459913904577586,-0.1525716897450546,-0.0038196279411004193,0.14361209348683995,-0.059523653905962974,-0.024725639959929536,-0.24717837347343125,0.0729946309576894,0.001588209492862337,-0.054223661902991716,-0.06211943361213825,-0.11508098934559091,-0.009651978744708458,-0.24148917020307106,-0.0011724762967121253,0.06097482180846869,-0.05398966637164906,-0.015003060669065723,-0.06797534048802638,-0.132708223613757,-0.12894286645561287,0.02806774078393457,-0.07219054286249284,0.055466643967198845,0.015803100323192328,-0.1308563379550402,0.05101633449523266,0.027334445654614053,0.023107889714975297,-0.3911144036567982,0.05959503594031232,0.21480848904873429,-0.027183842221805248,0.07444092094774252,0.17737596292379176,0.00576328187735109,-0.24140495916473576,-0.1602397907939769,-0.16130774853421395,0.45927380904645193,0.09698849911237363,0.13454248712954706,0.029835325723727744,0.048241683635054745,-0.061253715986724466,-0.05761062038401562,0.2780366643677538,0.06324719200679514,0.15296148068398285,0.048171123112786145,0.19325661076443312,0.13606535119120466,0.4658416271572749,-0.09777495840832003,-0.06450781119916645,-0.022704148308849925,-0.07508906224088975,0.011295294762378602,0.1001959196872342,0.14485622855477256,-0.1000988060440292,0.0973804964705631,0.08476295306595998,0.09394035226674952,0.009484537587303278,0.09778331104865563,0.3041489758515916,-0.1170384563878156,-0.074510090979591,-0.11638489260656186,-0.15381187275672023,0.08550472105672184,-0.06735708613088288,0.04670707039238127,-0.017932508825457785,-0.2204571811249633,0.26204474879609774,-0.09204112424543745,0.0870246501564588,0.14748564217355972,0.20855919826167144,0.12440446348736008,-0.024502068064978923,0.061573183890237256,0.4237809306558854,0.10832746493836765,-0.05927081462713184,0.10137456432456826,-0.10567579839836602,-0.3083818486883231,-0.11435995294271939,-0.0702101170041411,0.01700457423298505,0.047438153076014476,0.10154112650182918,0.20526410980912752,0.07611496512880839,0.031813506900471356,0.1462003284272561,0.15604731034864772,-0.047903225692355424,0.20371348151178714,0.09225842232332505,0.17608149156623132,-0.14112420562050035,0.15678383041701918,0.2104198033726863,0.2548237727089969,-0.015476649155841952,-0.1178255130306302,0.17705069454094702,0.052279296267693384,-0.029288472088530033,0.1842543305590745,-0.40466359268547236,-0.0024475584487413486,0.07417051933008705,-0.07782232817553067,0.07974976175643018,-0.05353105386546201,0.1429034863362474,0.10799778276456433,0.076424371901384,-0.018126747928968744,-0.15774994889806604,-0.11685631173501904,-0.3855741953976745,-0.2604192178517653,0.04172030977491063,-0.22266046685588106,0.0020346826579642962,0.4148154695594664,0.33147191052167657,-0.30797818276071665,-0.22067968068915716,0.1500894925216444,-0.1939412774256377,0.03061194980093383,-0.04540550937562139,0.1997205181587088,0.08785983919272689,0.1737525449330635,-0.14363163269514675,0.03653545960928915,-0.09514410110247362,-0.34137403631685326,0.01950050972864973,-0.11157593453215334,0.07488787743262235,-0.224375112108568,0.19680811203114076,0.12361795382732002,0.1249418672933607,0.15552479052009685,-0.08961431585687947,0.04814350181426838,0.2076010491205437,0.24795489956986633,-0.024954639073988826,-0.0337430857667028,0.0074688669306892325,-0.07518671207507117,-0.034171130179703885,-0.08968628192477453,0.0035461257324875778,0.180381807118492,0.0869823382802867,-0.02896445799457643,-0.08646856686950208,0.09915026318506465,0.06069101236334314,-0.046345902358208374,0.2612187461818348,-0.07610041288631769,0.07591236729058766,0.0677165536322802,-0.0683005033295933,-0.3496557613801497,0.1570885235088629,-0.04702575207975306,0.1189523001772839,-0.5101040192468067,-0.010170475941917119,-0.2507630763577409,0.279757009212086,0.07743243827636292,-0.02614726698246703,0.1575850851381189,-0.04196617176662576,0.043210906843763386,-0.2617914613823336,0.20727840519840657,0.02576599205797452,0.25138190383139447,-0.10639520838906097,0.11723789897575945,-0.13322120760761694,-0.134440748862417,-0.14150824667927764,-0.11690834203571618,0.13381598888081236,0.14224024588140138,0.07874371772584428,-0.24902774890714197,-0.020238547980250304,0.12146820626623775,0.06585186224743161,-0.043120649531908986,-0.15810282231383666,-0.04098819294295969,0.1021196732371524,-0.1548052811343894,0.15360505669060748,0.029757006445479257,-0.17691338287896283,0.13972399572991356,0.10200856390965339,-0.03183019403628015,-0.08002755318226352,-0.1052117145465812,0.01561942206568321,0.00744566607467658,-0.06965537472993805,0.023675664209430288,-0.0022199016836266378,-0.1152738704368,-0.238129545775888,-0.14243375441751094,0.13216739242405737,0.05818726821492812,-0.04937314283446009,0.0956333924505342,0.021079643892495267,0.08533349878295518,0.04507205273668206,0.033772080529648925,-0.0021444846794315318,-0.07786625643105222,0.04133260740947646,-0.04085104753149896,-0.06486281059293346,-0.06700916315002489,-0.1326970045941225,-0.04097124194967709,-0.10814954836104679,0.06302152993611658,0.29675453089624326,0.11763333309718116,0.15969307661914736,0.15791741138932433,-0.008891519808963154,-0.1887527448170145,-0.03375544957853373,0.16152505288059693,-0.00019908169174314582,-0.05201058418562278,0.13284515286032428,0.0787826300717777,0.2795373329658051,-0.09099853859722759,-0.09250877727880018,0.012312356899423017,0.46722817775067094,0.004493063066540778,0.04931560143545055,-0.08512145866461795,-0.2721449267808018,0.05167687960936533,-0.031377105866307556,0.1111943829191635,-0.01308756982442894,-0.09855766562985034,0.01234444677320308,0.1705523503122573,0.0711189053360281,0.0751247846140476,-0.0765609912359989,-0.09090101753423395,-0.11905214440645134,0.05329635720871634,0.023938383862874377,0.834598648241724,0.26231143221842407,0.12449564992113674,-0.14912118783364595,0.07116459031717684,-0.18302471783091329,0.03018065375443061,-0.02367185713200561,0.043040954379544034,0.09948391459562064,0.1315062262612169,0.07700279954890032,-0.09583018596787181,0.07812885961941328,0.0529316782407453,0.13596039319187414,-0.7117364992142559,0.03717219585128859,0.07873918288392374,-0.011686261929655198,0.08177294712639298,-0.07202684617371186,0.047502968572071466,0.051748882260158766,-0.05233321095200925,0.031226236731779634,0.08396232200748599,0.17751730432571064,-0.2338311104690365,-0.10254894745622634,0.09857379427218563,0.04486785160658945,-0.20317415370898598,0.03744741659854432,-0.1517100686758202,0.0025911442031596333,-0.00807828170588033,-0.03104678796469357,-0.05536453427158116,0.06938927140280697,-0.0015067216820662344,-0.3337497225303995,-0.04715436734884843,-0.16342141671056704,-0.03681815340210585,0.04450236526541321,0.0057155059594595535,0.03927321248318306,-0.04473445752646644,0.08697636447014576,-0.04385842069036358,0.44274445167142956,0.12440481829423891,-0.10866860537361875,0.12676561683772622,-0.06682907627072526,-0.30596591657556343,0.16006946177895598,0.059395748875693925,0.11885057396470257,-0.10242675893522635,-0.021981632256564593,0.14258573698604327,-0.06818538890623446,0.07688575802774494,-0.05283223347211406,0.029221926497902305,0.015568787223075607,-0.14641130290018123,-0.3079358618635454,0.1464492994471319,0.00018044672954271076,-0.11996265363255068,-0.026427446186462363,0.0545865288906441,0.0338300925745622,-0.009268733045900026,0.008469762085058348,-0.09217967132616978,-0.18101861136290312,0.2559956742226029,0.051710295068782865,0.04821842748761041,-0.048001594770595686,-0.019516201070387117,-0.002192910212129338,-0.025773111631868042,-0.05047725240750376,-0.01417725892063219,0.019883429036072837,-0.03863657255327076,-0.01780345449720133,0.010129247160866021,-0.04199807834230291,0.031686096201737866,-0.0215407946137868,0.09190221636609441,-0.06423360635535268,0.045467123748591645,-0.029990637220576745,0.09164727819692484,-0.01979402969879582,-0.023263326302561997,0.028410951034573736,0.025584360760378427,0.04666469833759967,-0.058344131811433116,0.09422644889515602,-0.2063558912230214,-0.02129742787831823,-0.043644514107460966,-0.02073498554215356,0.09651391700079286,-0.023346491684989912,-0.10086512082089945,-0.06561990098416787,0.0021363495548910694,0.02825608761258472,-0.031241149936741548,0.0350177345451366,-0.04758181756327614,-0.015071066334381206,0.009759494095143942,0.023717489542041923,0.0654450571049726,-0.020809556643177043,0.07981734923823545,0.07344476670904097,-0.03634479862053341,0.006626553370797773,0.06527489396905696,0.045007016298728636,-0.027402481803571827,-0.022766204176745398,0.06364216649703826,0.020708539290728613,0.05262739455850858,-0.03228173453083551,-0.03424664356011059,0.04705908613991551,-0.03516626836004107,0.08041859388962172,0.004046341340796497,0.01993177094153013,0.01587064245842878,-0.017406215461236944,-0.10888517174308744,0.002713523319895767,0.0213365870883176,-0.06438335758608266,-0.06872334067953088,-0.03417399570306411,0.11072082054166227,-0.05421550586681937,-0.008571445811128956,-0.007265406108792224,0.0942056924676624,-0.03894044555891866,-0.03260253660249958,-0.06461818419223792,0.013509800594185694,0.04535336044002415,-0.0536121808375105,-0.03253497352645141,0.0647101700616979,-0.05780214688701075,0.06181807881584363,-0.08402848489159172,0.0034043226178205174,0.020850734736079908,0.05724314003132604,-0.08145713065123597,-0.001796274051954053,-0.0030856327916341736,0.025816595873747083,0.08317017149754737,0.11464894902372094,-0.04025975587575212,-0.07048974065255768,-0.007803583323111067,0.017487652610200115,0.012165997343606471,0.035116503637328655,-0.07214886837138641,-0.023900470443616,0.04344143506887235,0.048256635901431214,-0.018329144168679607,0.006032715188507562,-0.017398155512744456,-0.010071039604897457,-0.020302867155963644,0.019082064348193383,-0.05718906614975397,0.014072259359081593,0.027813095784138056,0.006650127680225406,0.040268316009482316,-0.05866338688077818,0.084597568721695,0.028918476930559555,-0.030483778397417394,0.005364643813772793,-0.0942874624653337,0.01550107867391935,-0.004743905520607523,-0.024558979693805515,-0.07701084920640827,0.09598722225432064,-0.023166258098648192,0.08332057759738197,0.009977132717968714,-0.009089735551834694,0.02358736647905743,-0.025398359175132862,-0.030970016959825913,-0.014170149770109922,0.024375295562341307,-0.0000703097668749024,-0.0029001028242696745,-0.04107773758628519,-0.075349750608232,-0.0013929043612302373,0.08912389757077892,0.0075313850210768805,0.061626457491647225,0.031172714394508777,0.048172590981830236,-0.006328000877926939,0.012135559543364718,0.0014229537535222752,-0.02470423055028747,-0.08702892092586573,0.007678743892223385,-0.042465744155259846,-0.03448894229014232,0.08450454355797747,-0.07151225928659162,0.05935193975227885,0.04267995696927599,-0.03397057169413832,-0.03708380996310917,0.07775794142200321,0.0635829432437983,-0.02750297324799676,0.13701080968046367,0.0855121310527916,0.06074320556713672,0.003195455708799642,-0.11824443854422491,0.02909837315952942,-0.06283582288067406,0.02747388513085046,-0.010230094250844618,-0.03905293007019185,-0.02103333813387662,0.0037008294207972405,0.12541251376167914,-0.06966723580870414,0.02707655319886644,0.031517898859831105,-0.013953205530409398,0.17151602224186416,0.0033131029618245697,-0.1010238351407802,0.11879980356927776,0.05555742309130594,0.1263357884315073,0.08326905645704138,0.14881851543263286,0.043070856940743696,-0.06556698495236343,-0.02114424369940184,0.013413706794600886,-0.03611117861402914,-0.01267153453038579,0.091430666484704,0.10907933022789076,-0.022586694763459713,0.0690647057966916,0.08204451814937418,0.0055755686379986395,0.08935254635041254,0.027837280956713065,0.005007734512491074,-0.03578088906870283,-0.02369889967323967,-0.12536960184505336,-0.003859462153334772,-0.03952520657961452,-0.00447418883462607,-0.11773822721652935,-0.062201474714226726,0.046253064593142455,0.043178315918836675,0.029421631255110027,0.043759853258426504,-0.03999084598555743,0.028465960902676044,-0.0631197430413227,-0.0008582841292638474,-0.006814419444548443,0.043906112215268765,-0.06285886595792617,0.0011579232843803022,0.019236498507474928,-0.020204749403849427,-0.019425486131452424,0.034475028504791914,-0.024891626970082226,0.02320556636094333,-0.02599727959488496,0.08531389154765659,-0.0014416485331915931,0.04330495046550752,0.04146226287580428,0.06062230466015716,0.0031864557053340368,-0.09446350806571692,-0.015359462023233518,0.04690049652224323,-0.06811990698297837,-0.013986139045555113,-0.025069871101347025,-0.10611783646630742,-0.012720476046605523,-0.1354374564942042,-0.045493514371814196,0.100233229763854,0.013837185843996697,-0.05579954186914245,-0.02273968353492842,-0.017438399881714577,-0.028806484471318797,0.039254223806200396,0.17011614257414615,0.10676590285100879,0.12445090538730094,0.022277751212674394,0.021376344486849823,-0.10585608852183036,-0.03400401756237338,0.08584994923082549,-0.005887114524450582,0.024140755138457037,0.009694133076155468,-0.047490180582778645,0.06506498748333672,0.004153819835107992,0.042280737897333935,0.08957901589139106,-0.022458060854642865,-0.07184712598272247,-0.062473646444653703,-0.03387220004443494,0.020591205920087632,0.0009216492063160908,-0.06227949831083803,0.008038960029783809,-0.03604364088765204,0.025388282711719515,-0.013206608387109464,-0.07129793042715454,0.11367943954571878,-0.007971175139097389,-0.09915966252601557,-0.03483455897898284,0.002326973111537603,0.02554829554776839,0.01864958557042491,0.03758258604039678,-0.0843723597012353,0.041015128830857436,0.09841381322099169,-0.00653735198156788,-0.0005619241269878026,-0.09569335699248203,-0.08049812372659013,0.044333221201167776,0.025961396649363647,0.018710651861510715,0.03752994204668451,-0.11421910986341031,-0.11208048227797289,-0.0880244333537614,-0.030358546915776267,0.08548414670473928,0.09099003146058524,0.044409488343061694,-0.0845051231377298,-0.07398665394662256,-0.023619266451462857,-0.005553700562356541,0.04385440151095,-0.02627173805835839,-0.15813659986068243,0.055443751491448715,-0.07219693956043666,0.05531529747325802,-0.029261510392218325,0.05523848750115923,-0.005618230959711262,0.03403779915689261,-0.0014556568557227752,-0.037239410290234004,-0.016069093235801257,0.10712231013089488,-0.08293846618486617,0.007491308370561924,-0.006151953344101105,0.03448540435011243,-0.08589345599559516,0.14640304061655376,0.030763768973343014,0.032931263281044745,0.05118846096937438,-0.0051366796049506286,0.03792915588276288,0.07244161662268395,-0.1023124909620196,0.014163637114641912,0.1332610034734127,0.012483260151588162,0.05159475997896564,0.06723091002979585,-0.07089735859646326,0.14578150561925127,-0.03606830540396924,-0.06846295034362208,0.009127996366053315,0.007393899482133942,0.05853487973341057,-0.021920370414730536,0.08907984296814256,0.01785107293281946,0.04704725480622966,0.04558790620492159,0.0013313227211394617,0.0853132943606004,-0.06314599948319163,0.003184676953997485,0.027554981003765848,0.009335151487910708,-0.04723934765925943,0.027559529914401724,-0.022074911486540998,-0.016790174565077566,-0.04602407979372219,-0.006129698483837433,-0.0012060911402283067,-0.028904566222129988,-0.01011226058804677,0.0972500727847575,-0.01776984738781903,0.004546325465530193,-0.055958740094627,-0.09668390554112795,0.018073850888431796,-0.022323020711704746,0.01391424064378282,-0.12505169796051782,-0.1028496425314937,0.02089052625580629,-0.11201787294991934,0.053689077365905086,0.03966453865417135,0.013189006496125548,-0.012004995778769682,-0.049456200608702865,0.03431426069633539,-0.08939118075307521,-0.016386316245692634,-0.007869805363393486,-0.004457732323309994,-0.02830582873842953,-0.08696918288725351,-0.006968004521789221,0.09318045253021127,-0.02983258870669401,-0.005966009095277513,-0.15306670527817962,0.06363274959786726,0.02193295996757092,0.03886775377466062,0.028542572129060622,-0.010903849478786741,0.11314070229760301,0.12122217596479182,-0.10750609243355254,0.0869800849005606,-0.07324547224452345,0.055915887898229,-0.002375532752103733,-0.054154911522774594,-0.044732807144849,-0.01296971734528678,-0.02176833296194124,0.042040156274568204,0.06958046822058286,0.006723509309283566,0.030399303548906353,0.1283152866447587,0.05419172213084246,0.06931211607011388,-0.11161342387174276,0.03640726704939722,0.11433312822439821,-0.0040713356729719045,-0.06892953407535221,-0.07662235418897358,-0.09117557964053959,-0.06318741320640167,-0.05567038677074241,-0.05374427305130783,0.042776088349360974,0.055945905908163646,0.009459317734627904,-0.05339191923403021,-0.08821297516006447,-0.07315805858383663,-0.027193064285831348,-0.06347633817843122,0.025103509701666773,-0.01168287215323092,-0.09358094293361711,-0.1016828762924432,0.01747044363375086,0.021502613023822184,-0.09777325261068527,0.005654710628462519,-0.02828449513238381,0.11668645042819364,0.08318302234213636,0.009971642547896571,0.10707672969386056,-0.06182497255300623,0.01667926145423606,-0.05524445216022636,0.042689644350792394,0.01888775116117051,0.023612671588462288,0.02407822757399236,-0.008673853640435962,-0.05816323994866325,-0.0481202179144205,-0.0667990271435822,0.027550199784075743,-0.011197170448993852,0.07968756594690883,-0.13038258917848888,-0.01817661803559983,-0.11272354188687367,0.005707863017935996,0.01987722649664505,-0.017035488053631673,0.00018286442133549132,-0.07365797971845378,-0.06196101554035085,-0.03865595328292619,0.0501951567996224,0.042830173473953244,0.02479387353501439,-0.08532381533866544,-0.18424524443893583,0.06008813722689592,0.1125122602144329,-0.010601247740761545,-0.03669070645832842,0.01181879869596343,-0.02311448114534469,-0.02222696751591624,-0.05950248739055377,-0.018710040076084858,0.0195558580241416,0.04089136072641072,0.021999486955345912,-0.03209044753371696,0.06526439561118551,-0.058307664224354384,-0.03231228289551456,-0.01642398455228864,0.09458446794012702,0.004852262408991657,0.08737543339822626,-0.0018611670324901054,-0.07842441610074317,-0.011403511296264393,0.023242146579289115,-0.013888791138601595,0.022137797975340077,0.06750482553441474,-0.08757973219878529,0.0026875384305084307,0.019699474455985605,0.04106535869138951,-0.01147271554629043,-0.03399743115579656,0.006465957147544844,-0.033875748329067444,-0.057784344900937354,-0.041566614502919604,-0.026176752306101704,0.011731720514431634,-0.08966708475233366,0.023603008192214486,-0.02930853015292244,0.02976430303014086,0.025749549047860233,0.06369431771871653,0.0014990725411907274,-0.0031984269976653335,-0.028700829521582833,0.023541074830058767,0.0735517584711588,0.016817907624820033,-0.015452712801583869,-0.016728211348957717,-0.004226964042569943,-0.03833450928885513,0.025345910868811106,0.0577301787946805,-0.04067342970466437,-0.00952856826394915,-0.009456954249997152,0.018588837727896962,-0.04713174664318618,0.002498875256188043,-0.01885629963097296,0.004524968714871667,-0.015292885365375966,0.030947298705354783,0.019165831347058668,-0.026012257350808723,0.12520369386777216,-0.020537764173243073,0.10162767419920211,0.06174389903368606,0.046490058351774784,0.05241401010942594,-0.011603764800815618,0.0009603650220603389,-0.020900032843622338,-0.0179635593226291,0.02934671929006708,0.031604185274600904,0.019519366601800318,-0.07014887770658154,0.07942432967391151,0.00655601519455838,0.041979610620422346,-0.057115487044230334,-0.004682567515139987,-0.021656177465693895,0.023722008876176273,0.06359479915911571,0.019597971770778013,0.00994540457129258,-0.021518546511491866,0.014395835431716146,0.02018268818480216,-0.015016909250061336,0.007345794910681174,-0.04255968504183885,-0.04803546914417361,-0.03349523999320629,0.019267842903247876,-0.061887056978147045,-0.0027314826757499078,-0.063802806467706,-0.017331668911824395,0.06640082603975617,0.0024187764332974223,-0.004751227290685541,0.012549283804374324,-0.12037271200945916,-0.04333111785972316,-0.03706614423012919,0.03265423782817483,0.0006043525197886737,0.008800632054963014,0.020028837338686968,-0.027985326860365863,-0.002693430498166768,-0.0157202368378141,0.08235837364617318,-0.035666197436667206,-0.014730149860867691,-0.08263907987798336,-0.02941169401764176,-0.046818087588183885,-0.015252219041540553,0.0850210500203149,-0.02017360937656107,-0.0722559059680604,-0.034122557291420115,-0.018108273317279478,-0.049532881384256565,-0.04232595457995344,-0.007359056681203755,-0.02201489880036413,-0.010731222239914863,0.050011900245453156,0.04385330298921214,-0.00908928439055805,-0.08915537371062532,0.018100799524972844,0.07896466834322367,0.02856787018279799,0.08611865623332485,-0.02029044162496427,-0.009017771825081601,0.04150382433985471,0.07375296567773802,-0.1230896654747175,-0.05223496279335296,0.017482531413705066,0.006962259147631293,-0.01557616061932169,0.030099580795704507,-0.06458156685563252,-0.07670974210008251,0.0022009688712151844,0.05778631008151377,-0.006261542065530862,-0.033646276088981956,0.06440695277307638,-0.09158077026694694,-0.00024135607897732544,-0.0767548892320304,-0.08046330830247515,-0.03813013466437753,-0.016231662711635182,0.08199997482881634,0.035680000995461356,0.047182096884507266,-0.01639396551471026,0.006210855423003583,-0.007592889554124693,0.004229803796329796,0.024944432197685943,-0.07562947895886958,-0.1015667921475001,-0.01126778420578652,-0.0231525713627101,-0.002857331665198691,-0.0038506836974260316,0.0374987690571346,-0.0881613051961765,-0.004515179041458827,0.020474680448249405,-0.042924980733548564,0.03636861767421352,-0.053564349038434676,-0.06919953475098241,-0.01335859264628243,-0.0527495987752552,-0.015683622364398454,0.097396558501329,-0.05617889898756267,-0.07855153805554069,0.03329800415514792,-0.06685131281962699,-0.007872416688290957,-0.003911227087907628,0.08647288197840065,-0.00006405024640239851,-0.11344277805783398,0.04064962026159308,0.08218841409594423,-0.062451439540416445,0.01553358691734607,0.02696640655577663,0.049303461194067276,-0.011481172967148233,0.10382503022435915,0.04997096066630094,-0.04757696197634442,0.08150217817302237,0.04413037771250559,0.012994328387433755,-0.02787895826241416,-0.025161248488296505,-0.0845932251325503,0.0008043255961477875,0.04592525963941453,-0.02289809600896771,0.03715728986704925,-0.06336455743664599,-0.0869350822090389,-0.04788827637574635,-0.07380915402377916,0.009831263221865678,-0.014679020958948462,0.0058312958526406155,-0.00135097244368645,-0.08758800159199831,-0.012872410915600064,-0.05535259115837798,-0.01569041338162497,0.050163135899292124,-0.014280275997900825,0.05957285923015289,-0.022064699734128328,-0.03702722313779841,0.04789698800274475,-0.024816954806007725,-0.027703812615273733,0.0010647982018122495,0.07532489160256768,-0.04397275822827646,0.12358408330508457,0.07714832992764396,0.045724120921169585,-0.006963267472966257,-0.049756686499564634,0.08277188303346954,0.04598569440227976,-0.08718689460506322,-0.03900551822569242,0.006524622572665155,0.020680129263823985,-0.05416464630369827,0.02231049789260497,0.05774325447386904,-0.020368681525201663,0.035379463214240306,0.1352441756428549,-0.018624030107125433,0.047944398877168184,0.03326602191964719,-0.00001262799606859329,0.011626736000186958,0.004153429526556203,0.10977996188190246,-0.018266265606023756,-0.03358372060084212,0.06695709292048944,0.1321095779094095,-0.003298634740582972,0.000832333031333756,0.016446203893962584,0.007225179274335995,-0.08180064577730865,-0.07129313541697557,0.08865064230021642,-0.09682168761102061,0.012985203533538936,0.06574726594431318,0.015769552808572267,-0.007388808838568769,-0.004438537317727041,0.022854433846085563,-0.018697415072695945,0.042681120369968836,-0.062250099264829446,0.05362737201933385,-0.0361674525813717,-0.012337315749546392,0.024033028246258668,-0.005236431466199677,-0.021899782682370986,-0.002345693425771771,0.06715351495983586,-0.03916703070767284,-0.09389160003183396,0.045728777782648965,-0.04647608441581911,-0.052290015901112125,0.034114497736731836,0.006312063368369462,-0.021022989038471506,-0.09910544530057308,-0.06406403672639298,0.02061914392354516,-0.04516529986467249,-0.05617560808078936,-0.04384427214254195,-0.06337017466547742,0.01668217009253414,0.012320821245289475,-0.031192815750219087,-0.046766927652357855,-0.09094502010734565,-0.032580032258586494,0.03384238448104847,0.02534663823523852,-0.014506916440264833,-0.005700432541352375,-0.1309247059317588,0.06389239954120131,-0.04405692098446306,-0.008220625613163533,-0.06575722966334185,-0.04127966847893228,0.04832659488157873,-0.006464554824589327,0.029395282319779115,-0.07882856208609645,-0.06516483073212644,0.02034632695158629,0.05142725796645661,0.032505256094368835,-0.018273756464684168,0.009020953112728497,-0.030766659643795602,-0.0011069773815650678,0.04027423842436951,0.11120769222765019,-0.02037381813811988,0.010788180371420342,-0.06412483050534297,-0.012481915599617165,0.017647417446577846,-0.009350999245171082,0.08385913480970371,0.08753448667386593,-0.023652754862897103,-0.030618121417527202,-0.02765252581349189,-0.08318132120628727,-0.033528227195307625,-0.018625340860284684,-0.016473545805940844,0.023798272738071793,0.002404896433163708,0.031672308099839175,0.019478789695442093,-0.010642747300511231,0.025452305657145884,0.004498862730281368,-0.05910021662585537,0.032014537378658496,-0.12300020403173359,0.006672031338602199,-0.007423345803749123,-0.06149825589840754,0.0037254296926842088,-0.019470328448568244,-0.049066922613627266,-0.0013374715044282839,-0.03125668000962038,0.016356237758451613,0.09179391502455961,-0.01964353942145498,-0.02354973486733465,0.00037314935552269784,0.053149723846121925,-0.03227784698104278,0.014913175489347313,-0.001106059439198931,-0.03278605482942147,-0.005083361153525903,-0.08428823333788889,0.036733785990298286,-0.05713208547864636,-0.029509848521754832,-0.011659458697614282,-0.07058559433301952,0.06809135101381675,-0.0031681568815822127,0.05488869340708986,0.05712141656456843,-0.002341200762208927,0.04548607855170855,0.0828261489381593,0.063811721008747,0.027896493675887698,0.07127544565831775,-0.06423162401833447,-0.0981190879767406,0.0007122328249309725,-0.028512683049619993,-0.01639464922398364,-0.09677852747832616,0.005818211755663586,-0.019044968115111274,-0.08501661738747517,-0.05121508579587415,-0.0007420135170528776,0.031507655266280125,0.008841137909286277,-0.08891707854986856,-0.028625252274476147,0.08269432728973805,-0.0239361268538694,-0.050651175228920056,-0.06240056932791374,0.00491948483239203,-0.01835476290984984,0.029227376799435795,-0.029314198444218818,0.041841573975719956,0.05930438858972472,0.018829647284419288,-0.06857419811138774,0.015171202601430858,0.021334609431721004,0.05208272488000118,-0.0011531504781923,0.033897643084585115,0.047341122344327864,-0.006322505977812774,-0.08351318383371982,0.0058845162907471375,-0.03833806677663195,0.0006082967156068605,-0.02143267234567539,0.03038406623164521,-0.007930627848736384,0.07908498140840697,-0.02665823461498039,0.033637120518586756,0.021349055492616665,0.0647637022061621,0.0425137526979709,-0.025260031126766086,0.028888643252894856,-0.0327711763050477,0.004117747929868086,-0.04342639014708702,-0.04596755159342912,0.02476371808739709,-0.05557021798987156,0.004524398820747871,0.06723172930869475,-0.05148753149971941,-0.016245569482906622,0.03486410871885719,0.06877724991293492,0.007714176173456422,-0.025111138119152422,-0.04521150170460033,-0.009710446087384292,-0.045987153004319756,0.044673146948528225,-0.009894923095191275,-0.033724524143112826,-0.017541256957439324,0.003912310755079279,0.02811385305761316,0.016897223966597756,-0.029796698895439226,-0.02761802130313879,-0.0006498511400375101,-0.0032671506098882266,0.07402865309999189,-0.03258277573918786,-0.0001118038494149019,-0.029049750693128432,-0.08896608748525046,0.0038212069841337738,0.021269440716351708,0.04852375528170269,0.009125437591861477,-0.06217321096575274,-0.04094434913366803,-0.053260154543803215,-0.0006315948086271003,-0.043857015916380485,0.03154871483113172,-0.015157325377446252,-0.036919050015393806,0.04630252595520784,0.03310721821078515,0.06356058200186218,-0.022648231377939594,0.01022905036538483,-0.020008875469874548,-0.01371826693667122,-0.048544481549532774,0.05646482312173773,-0.03561998134279889,-0.031115640155306663,-0.011507092510671477,0.011505719701475741,-0.06874256622558052,0.023346673317340076,-0.022641690502939862,-0.016388410244767143,-0.018265089936879992,0.05788802588526184,-0.02515136237071324,-0.03645222980190563,-0.005298817076521562,0.017022037117480165,0.005225761625828571,-0.04937792744505952,-0.0351680902235196,0.016226734885496176,-0.03879620405835058,0.035716931282458175,-0.05035643348823073,0.040704796181056456,0.01473686139194975,0.012968293817373416,-0.03606922820757285,0.02884276252894352,0.018483694356984274,-0.0007213770772005783,-0.018063117040958636,0.04719239130462977,0.04768952681790575,-0.02843204802001547,0.0350228185986599,-0.010675953508379772,-0.011561742091152741,0.049025258598107246,-0.03885511731913613,-0.016782498120385708,0.053773580362719064,0.03482676557247827,0.006185672212049172,0.0511849508472194,-0.01727519588614409,0.01030749392088907,-0.03980951780655873,-0.021626304429165348,0.025130221900952463,0.038186824966073445,-0.03960984344015642,0.006759745778727028,0.02877299707894491,0.041750259176079156,-0.04129719954012661,-0.00234347995333616,0.015712417723183752,0.04914930280353101,0.0465680021706261,-0.03720777071568707,0.015521449207105648,-0.050335825251158914,0.019530683437288608,-0.01596148965884319,0.04831556875609688,0.007659664259274396,0.013621913981738083,0.0070930708908980315,-0.005385367902513082,0.03513314371715361,-0.04210881749357824,-0.0423604908475887,-0.02093674655147245,0.022670298029528843,-0.012535254131100317,0.03992390138161037,0.03938153532209653,0.03748487597050094,-0.03333781012960232,0.03965275018402441,0.014909090050587537,-0.015076918701686209,-0.01944543472742627,-0.050928416709697,-0.012851739225053168,-0.02927105437476114,-0.03914859696387765,0.05450304332847822,-0.013926250466894208,-0.034879406365342064,0.008936328178688122,-0.042307049826868254,-0.0030105227323502736,-0.0033053275353391543,0.025476489861243245,0.015654928316279383,-0.010549817923323386,0.023854820763697746,0.04174933130420167,0.021142344077218225,-0.01809687224367906,-0.01712776430889752,-0.06463512262419449,-0.033158194216054634,0.00930816789343008,0.059620910727745835,0.02419986555866503,0.00012980981669685683,-0.05007245939155186,-0.004038731842153916,0.016447219999175363,-0.03448380639244269,-0.01286205142005831,0.055992209755456226,-0.05196713581177146,0.010034867979712838,-0.05464848131738936,-0.006221797769036975,-0.05007246219200407,0.0028256626166658027,0.00092069208471265,-0.047954145236677466,-0.06961312644186679,0.05865596430155755,0.0024859329142449867,-0.0009165493557334343,-0.00551749210619006,-0.041467191346669895,0.008682466601955973,-0.01634858229945557,-0.010543474687153418,-0.06355740908080444,0.02316786657748143,0.0010042734269208227,0.008021361710078702,-0.021371756275568074,-0.015094796731818712,-0.08092999622596027,0.028709631559871232,-0.030470648651046303,0.02158776629151142,-0.03011880346358558,-0.02146452641005563,0.025172843601681295,0.03883597858028628,-0.03506723494390542,0.012715624952999818,0.0685955524579542,0.03774121940926582,0.018232988255429766,-0.010845573122475284,0.012810766607110734,-0.02220863712794459,0.00873201592886727,-0.0008680147947357543,0.0037068323899138757,-0.04988542246344513,0.010269623011783266,-0.059016057948777005,0.03131763068392591,0.01054608508980352,-0.05988106775783247,-0.01758442757217019,0.010737274024142296,-0.049582453199081514,-0.07397091308425101,-0.0012383045240629141,0.013557420848157878,0.00910645939140855,-0.02798746841388069,-0.008452389492082686,-0.005560528990032186,0.05712318664018605,-0.0256687011044415,-0.02923765909401203,0.06395653276022392,-0.04816939500181199,0.058891319995179665,0.05439508038539697,-0.0253636135222764,-0.02046531674493127,0.05253302641559864,0.03900219482642578,0.03637781276279798,0.02202028812104075,-0.04588350024197815,0.003614702368225902,0.05130267911212099,0.02419981335106552,0.042121031711949794,-0.04329629367043082,-0.04727909929857667,0.0033742424961129996,0.03173689070053202,0.024284302038765197,0.012241543950397305,0.03285658503809182,-0.032250351170042255,0.02094100355855738,-0.041388804856835736,-0.05887836129829987,-0.0960859888827868,-0.024833441091577074,-0.020182073480463417,0.06424744303302378,0.020721478324126297,0.059779680820882836,-0.006451560133147583,0.032248058544006454,0.07429322084857613,0.008541080039152197,-0.048980877747944206,0.033711278830721635,0.018395561652138837,0.023528690340443605,-0.04971153258767191,0.02387472580057894,-0.07003550768785524,0.05321040662497501,0.0015676764930679452,-0.08613272137617824,-0.006241149610236057,-0.002353060293195355,0.02599957545577195,0.04533329854494166,-0.03132094606098583,0.003590508241081207,0.015847551988203704,0.04024180282284947,-0.07036221283154154,-0.034278001682053694,-0.02218636404888558,0.02003431823056118,-0.05718098530891713,-0.021731012182113,0.026441761771946945,-0.024021874612207478,0.0442172114739719,-0.016138705420169756,-0.012970982208657219,-0.028765170924995268,0.024500479995745214,0.03295260405834048,-0.04081880132816329,0.009168437181274585,-0.025006237539763252,0.03487217580221591,0.025526971158382566,-0.04539096248230671,-0.0543261739890672,0.03368938613547281,0.06024424865449544,0.032589614507770794,-0.04914917863567771,-0.041924049066642786,0.044727420826303,-0.07269121037921557,-0.01784388179746358,-0.05791494966298746,-0.022388148606674152,-0.039164615228862235,-0.048780661217697925,0.040047831451443146,0.008348023459995102,-0.06046169225056446,-0.029871268645099314,-0.03430159402576888,-0.06674575314220257,0.00003378769581116261,-0.015067127262149213,0.03240962665321358,-0.053526650531052,-0.010600790315909632,0.00014216063591427356,0.049357377479372785,-0.010359784437096942,-0.0761743800973375,-0.026120699231393738,-0.0044002423141669255,0.022808546023826565,-0.022279523220060663,-0.007002082987909037,0.036864746837496645,-0.02494806048232916,0.00404562452721457,-0.013934154528601755,-0.05375471646076651,-0.06976231911134351,0.035148995940029966,0.020226276513160342,0.062161457197638895,-0.020762019742627764,0.021390533548580146,0.052023772666528606,-0.06480010229772383,0.03340452254460841,-0.007877320359227943,0.0012254919608126892,-0.04412650671973654,-0.029245880356274047,0.03580210268479208,-0.0692726053712466,-0.047342297082392494,-0.05839518669115874,0.041285247166379484,-0.0256878817469195,-0.009197397927528312,-0.03848811371955958,0.017307989632636876,-0.05545759473983972,0.06425041151567651,-0.047699523267401824,0.06419794951012649,0.04851123245912564,-0.048341519737663895,-0.033800513609520126,0.04128894277718377,0.0308434079749421,-0.03609270134499792,0.017132010700751613,0.07211387342465515,0.02378731796258843,0.028745034070565688,-0.04882166233568882,-0.012865346548905874,-0.017987130991217883,-0.09039361171893064,0.016939537277863754,-0.03599360972529874,0.07512224749474261,-0.020757138096911563,0.01876212566086924,0.0281137255863564,0.026191192761670836,-0.008850863887321227,0.05518981887944953,0.024122062909106477,0.04628833634690359,-0.03783604416174642,0.03230567848660002,-0.023350596709601157,0.0007178881765907083,-0.057019880206221896,-0.043715947412644375,-0.06959300007964674,-0.06003169088230284,-0.058145608734654596,0.011583192756956307,0.033266877722888145,0.04264817798138014,0.027811334534272675,0.03550860618192596,-0.03521099363183332,0.014711446084078702,0.008059881599490289,-0.03959062223352901,0.11638995496184763,-0.04755738454028403,0.0022554862485565704,-0.05000375036474797,0.005478421762237136,-0.048818781162699124,0.028809223219816264,0.0043171071189762825,0.04663999815147625,-0.01150513339474438,0.012883453443447638,0.15973211526308315,-0.02660328434110551,0.059146708643436234,0.04487592446573779,-0.010705974740285023,-0.04779240205877045,0.07131077573408531,0.02378955807929003,0.030904098953486517,0.0025055969513567765,-0.013857449528728813,0.0223989106599986,0.060464551431350384,-0.037900227070730146,0.029741788105728497,0.028674078197155162,0.026453476259533357,0.05184794547882103,0.008606122338404213,-0.0647610765849625,0.014553968804315361,-0.04532998203446811,0.057361319530561394,0.007730572486997203,0.07170413782540515,-0.0027055943259965266,0.01057000046843547,-0.05551185692106792,0.013669146198458037,-0.03581634112106192,0.0473107436172564,0.053484043200861364,0.009903102864786833,-0.0316694573636636,-0.052730115922939545,-0.017915614345428935,0.009992920219404993,0.03848841805081836,-0.008803872864253355,0.024951235134796787,-0.02021917546285895,0.037172528201347435,-0.0370337632827311,0.07841100140131266,-0.05300268787280917,0.08037715039298034,0.0660103961816307,0.02592398163753807,-0.07598657674824968,-0.01273300788002065,-0.052577604583492116,-0.0021204163550458443,0.005273279027315351,0.018105022053558014,0.021861368224973875,0.003609838823183467,-0.03300833242210113,-0.011111862058562223,-0.015420951823942718,0.04241173439830656,-0.012024579960516674,0.027738252668098866,0.028130132464945296,0.0025473870165467778,-0.00021121974072593825,0.0039177637386613815,0.01908702777752606,-0.0057890648764886985,0.04304087418023021,-0.012712404175030095,-0.040769301563721896,-0.08704367408104892,0.04652606541501947,0.05006362948951676,0.031938305945347786,-0.018471848435597935,0.05328190701631009,0.05326390904639443,-0.06355726833960687,-0.006799437045667916,0.0196965075987472,0.0005726443594895982,-0.024650056561738624,0.04010254833275069,-0.022884854350118083,-0.00861980724739164,0.032094151246171085,-0.01005813692159366,-0.026922721021255248,0.00005989055753408826,0.027139693792688498,0.010784490353504678,-0.08477471319821281,-0.04204938351867071,0.008603119845580504,0.03152418989231623,0.037085814927255975,0.046276905741776966,-0.04747803176019001,0.0025120738469503598,0.03428196218998659,0.0308216285541235,0.042049056543541165,-0.05167375804747716,-0.027620539157618283,-0.02921803968775668,0.03321178179183145,-0.042416377634506695,0.054177648149185555,-0.041831628381253406,0.07732781781203642,-0.05960460057081681,0.015692160700176948,0.011347603673912035,-0.03978982751730537,-0.034529331735804414,0.009927853807576655,0.06641574195081583,0.06137000062555246,-0.03280723970913747,-0.035822392265056256,-0.01865167740652253,0.010616717392758369,-0.015820517208092032,-0.023197398624505282,-0.03633706151158914,-0.040809394029230554,0.06258548653953708,0.03130632244021745,0.05574713854870301,0.007960182281313774,-0.018580147611473714,-0.07161420683997977,0.008128289445738667,0.035206842102406107,0.05610932664633389,-0.04794312574939152,-0.02739890476222469,-0.018665713464966406,-0.05957249765807921,-0.05933372430711885,-0.03410657086673856,-0.000733315994247741,0.001815921815305162,0.02637850960763621,-0.0347382187358832,0.057396084716051295,-0.022538423081650143,0.0037128153357223986,-0.024390748352378703,-0.03455767634016036,-0.03507410411722669,0.03680922712403579,0.0388667105483847,0.056969004784506325,0.023249433024754223,0.029203713436714372,-0.0011669264232037856,-0.03565907043710521,0.025072114118555883,0.023310158858579413,0.04567375420923381,-0.05558981983196591,0.0400955764386505,0.01927139317743617,-0.04653292047530648,-0.006775525971168061,0.020370438320253634,0.021043294887135307,0.033611592596724214,0.056664725379211314,-0.024519773490135365,-0.0041387291596630535,0.0655299980731367,0.052647776299670525,0.01883964794968697,0.04826681066142534,-0.002580520171970513,-0.004490701020484597,0.020059248235041446,-0.0036920652740680166,0.00655860284661087,-0.08571958945346893,0.02241333094127202,-0.029720833410560102,-0.004653379687562193,0.07041806537575251,0.010168330372321838,0.010452858009197692,-0.06683007157440268,0.022018979545360386,0.06589236546463204,0.047194345816952706,0.02557498943848093,-0.022303356623737128,-0.02114688903053508,0.004982771755780305,0.01920923274075475,-0.039131735321441485,0.025932040623596345,-0.03982670923200623,-0.027939094258550925,-0.06879961145198119,-0.03982415573147776,0.00017019278654160214,0.041003267118293114,-0.027366509503198234,-0.0609318826435069,0.05634479784831429,-0.004247219902182794,0.025662228698805776,0.01678169280851328,0.01016940257537779,-0.03958041524477275,-0.011159006681713192,0.03692765337605954,0.033155278936638756,-0.04008939572364582,0.008084532716584533,0.054862048693429005,0.043290684441430596,-0.0529404824393889,-0.058256128577874454,-0.010470010168345674,0.06754595228568974,0.0036015878602357753,-0.03231772905394125,0.0037926174330879608,-0.017219997358311617,0.05852818475756388,-0.030211808091508224,-0.07628388083101198,-0.0015025264241749516,0.049642778774507505,-0.033178670629962326,-0.03583035667029501,-0.023405066237861715,0.0003154239526474426,0.034675548559474086,-0.0032712363767983025,0.07000325155547324,0.056062568278838244,0.01927828849354083,0.012522329472967884,-0.054844580989048944,0.02524241495657286,0.03702839195333823,-0.05793974170988686,-0.023437296323792038,0.03196681325663333,0.005205979075267786,-0.022679804800283924,-0.05375877675549709,-0.03616468646857137,-0.023970281823565122,0.0711387943843457,-0.038209675864103704,0.04408837930139749,-0.0012273496239827728,-0.0838525277639172,-0.0061953115366809655,-0.03838075262811322,0.004799737068057235,0.07441259306823099,0.06568075147836303,-0.05322011158152913,0.012961840646700012,0.014282734097036906,-0.008491577774216368,-0.018478456172323826,0.04685429869090305,-0.03535162165136212,0.0822736483786522,0.003985294822790267,0.033995148527787546,-0.06035698123346275,-0.025967001670171113,-0.03589390451407859,-0.02833182331979363,-0.053196619679020764,-0.031320632863212135,-0.06268901239186728,-0.03277143948737299,0.046390196761420435,0.02525161752030199,0.00801767045004029,-0.04376322115670845,0.0451511549344268,0.02387369750193948,-0.04561371099172673,0.007521996513762205,0.061141182492341996,-0.004507932782242783,-0.0357408969276296,0.006896743057428849,0.05741121143792339,-0.02504387537397412,0.01788282704299891,0.023386750631835002,-0.008237653224544112,0.052112502317397474,0.0624614626371718,-0.05273790544892111,-0.007860686199219948,0.01748524538113521,-0.03094964618618833,-0.055488296046960005,0.051379129314844396,0.04795631174684794,0.07349952970896446,-0.019306092851995017,0.07096730725228777,0.0010457545289847881,0.05741593796607818,-0.013308133799684768,-0.02746524828229654,-0.02655356133735872,-0.0622784566429717,-0.01165817705336099,0.032605151630689805,-0.023789911850282022,-0.025140118053474225,-0.01537078912040754,0.04417321774226503,0.039248136990052855,-0.01161438866431517,0.0528547998244201,-0.02541818492309277,0.05239913184400159,-0.050482363633123514,0.041257243821800745,0.002543466977583938,-0.016335740001868534,0.03182921569184928,0.02451753158535444,-0.036108147660000964,-0.0027053155195910657,-0.02294694845319071,0.03788261102125684,-0.0031902790849203766,0.038440179039220056,-0.07605337153003947,0.002937553914335687,0.075475886111951,0.08051546893187803,0.00026930321971330563,0.013694073870255438,-0.035642452236267955,0.00536982036495223,0.04665271183630945,-0.016921128700709703,0.017754917832476524,0.007980476218135567,-0.032734113299786774,-0.0030651509858793326,-0.006861723975248566,-0.01756880626078859,-0.012742260634428676,0.067007271233292,0.057611098520088465,0.02592950155430148,0.06848061997991929,-0.01382555496740337,-0.003027090668487018,0.018936151876074826,-0.024525428804799063,-0.026742728739425032,0.039819059975714735,-0.050675918949165455,-0.013544304182661419,0.01955739428632042,-0.011572226170331993,-0.026135064013039215,0.0309071181671858,0.03627687085865001,-0.0016116936533242488,0.03292134769263016,0.038536213763458005,-0.003337906549395271,-0.016929592362220948,-0.06382593173207678,-0.03185335840903103,0.017601167451180514,-0.017432565775277502,0.028919769194349177,0.013349319529356444,0.021731358112254996,0.032758294393901585,-0.009741210807897019,0.03633616201161537,-0.06130269126438701,-0.06550667499813156,0.04721200082024176,-0.04591471517782656,-0.05847851565833437,-0.04311789118204173,-0.05503078835332686,0.034400710871184785,0.03838548240805629,-0.059932146075660796,-0.03716238430723837,-0.029501455243491917,-0.04756853403810761,-0.04619001754030026,-0.0874562394595202,-0.03598651474353212,-0.05646657240331006,0.0007972652451475347,-0.03833998364612774,0.02763795130685617,0.029492071252005966,0.021413364851745564,-0.00925364947155605,0.01487806084073786,0.059267535187323285,0.006110204014807815,-0.014042853814105529,-0.053649590886675695,-0.06372605519351827,0.036908520827152,0.045327921922077616,0.024304677951789932,-0.058670774664078294,0.019861139666148008,0.0425290825488436,0.03814889722684921,-0.005255933649567565,-0.027982942620402386,0.0030910588385258037,0.020155020153418503,0.08192878024424909,0.049176307429937643,0.06212681482057438,-0.03178007597223026,0.07525533376862137,0.04878524974046403,-0.012454645509557117,-0.013166521777938306,0.07442272663533478,0.025143996500648753,-0.0666784609167999,-0.017107801455925976,0.041270325287157676,0.008934661270119227,-0.043996426921305946,-0.05155609792932095,0.054105714631009036,-0.05143735987506491,-0.03247884931264568,0.06740337811632334,-0.04222686776213992,-0.013241283325916862,-0.029411216551555673,-0.008494848874728783,-0.01620522035954749,-0.017790312676424745,-0.007822830452942037,-0.043442156741237824,-0.018826422193136263,0.018329445008167595,-0.022407270479172108,-0.028543446167796246,-0.013950416468964335,0.03102697122323776,0.007843230722677185,0.0117625231403083,0.03883584620076208,0.04515617003413799,-0.034733699052929265,0.05927859507239464,-0.03945095866419829,-0.007962338268205381,0.04361028277521941,-0.051891345402900226,-0.03494764901187758,0.0027701391970134546,0.07159437213353483,0.023480428531260786,0.01547410589387364,-0.05142158091079492,0.006423223975654684,0.0407139100339743,0.0262444250373155,-0.041527102500643995,0.028636076719393527,0.06381789063834337,0.04726349676617945,0.0135437858694308,0.02065570578671254,-0.02390886454407886,0.03828981433318184,0.02092338760998104,-0.05292895528689833,-0.007309275216856421,0.030016570769120662,0.010705184887203824,-0.07806336046201397,0.00015075177869006357,0.06724024765818204,-0.008672884001879575,0.03613231908265156,0.036953778524674095,0.048117954935340095,0.05790217532993546,-0.05329936992625455,0.025784992157048794,-0.0161663714961132,-0.0413017435851464,0.04272465135667605,0.0017592876715325518,0.025384824035546885,-0.013640636819141627,0.04198640819629597,0.011883899824824025,0.035424618708623054,0.014452645884715062,-0.05158716401624941,-0.012655015042621771,0.045441472980405635,0.02095664466123729,0.02568650640996486,0.008822206279746404,-0.039731526707639096,-0.030216382591816318,0.04305105004815904,-0.03777168272131526,-0.04679347067361107,0.024581593804728116,-0.06001063916326463,0.06512368316552494,-0.044575242311508084,0.020504963889223245,-0.04205099614137354,-0.015580743607370157,0.01740403721278862,0.04926223757297203,-0.005776585333626375,-0.03667723317130168,-0.022880811582281134,-0.012974760711935514,0.04529726321091904,-0.031024059039452347,-0.003452551956043354,-0.05889172552575796,-0.02600317887146032,0.03278477397620441,-0.05768118965730864,0.04249870470123155,-0.01608156310338566,-0.02754504813010668,0.031067944059622356,0.016195565517229216,0.06753999283776323,0.026020197319382755,0.04499670795362985,-0.04128512740331528,-0.03525028752801607,0.01749722168578677,-0.02995347700687697,0.04830115699122103,-0.00853608923909762,0.027974245647691118,-0.00814581206265506,-0.05039711061449896,-0.016098960873678556,0.01907746850983873,0.04645812030416449,-0.02508126683518066,0.004669109243564431,0.01671978441873557,-0.061652593205045195,0.022657835849792588,0.03485472714207407,0.03839162623516133,-0.019566805398319613,0.013058939542488024,0.0233705780104203,-0.00023244719143536007,-0.06766652665452447,-0.058487251616195356,-0.03619254435718213,-0.03400643188823055,-0.012751392394647277,-0.0003027311415997108,-0.008297737640989504,-0.036869886993135655,-0.003355731459766062,0.0014603030751639112,0.01519532054690522,0.021493781977574098,-0.023646915128852114,0.029667348696645748,-0.07447155703092635,0.06858557336987124,0.0455723384595313,0.016194109494053123,-0.0057661772077336314,0.042434315833037285,0.04630507510419175,0.018397112252748104,-0.029642668769434655,-0.006903289447770644,0.012809947365660893,0.05328646800996531,-0.05762216552889115,0.01951048844774898,-0.011324138302761029,-0.048977498293648586,0.0043701989055786854,-0.004661933505548475,-0.051338566973896,0.04300117140098567,-0.04811289385459921,-0.008704791083693477,-0.033575209905145266,-0.026674201477559854,0.05636888909610242,0.014803134546822048,-0.03753824215918167,-0.03692878185597073,0.023220637731635987,-0.013079912214126986,0.021934623742402785,0.030462728209185,0.0029932767589373526,0.01320419488168375,-0.031198854132122648,0.026998294927436856,-0.01909306291823667,0.062457267051565506,-0.01969470827547173,0.017930623704515522,-0.026527016610542187,-0.007260092676986469,0.03827531780944509,-0.02951456116880283,0.03146426790245068,-0.014928120957815795,-0.07263682166623449,-0.024184557301391754,-0.003962049975217368,0.006778290577588197,0.024355810415010146,-0.06342984582663934,0.01152830775603537,-0.016103037731182334,0.00039342031490573485,0.006605584285008549,0.02633901840462006,0.011839801929454217,0.043833593250380755,-0.008726695518107485,0.053182690899562055,0.07237699341468118,-0.01459510506183678,-0.02980654872695195,-0.012963609060667052,-0.03773866169440152,0.011892050555840188,-0.023375494223319096,-0.03177803701768141,-0.02471239221163048,0.002476610587067581,0.05269649097295867,-0.046773017139165346,-0.034204321731543696,-0.06841412488557677,-0.07005676371040122,-0.030045412416956983,0.033899676327246595,0.0523204937843211,-0.05847659397695022,0.048990390443759545,0.05157639762369462,0.05674116329104022,-0.07033198107465347,-0.012089199371983564,-0.025822765983161106,0.037059786525512374,0.019619364181007282,0.003565466899326277,0.04449363649517584,0.06417811141242094,-0.0323851045841775,0.0023381977899546184,0.040231540455910555,0.032516625427260214,-0.017870433168911178,0.011449671200479437,-0.03269597278469839,-0.019498965642947376,0.055217446295003914,0.03664571729332963,-0.01319495303164705,0.034747618470870205,-0.007063432092153047,-0.014951951584518362,-0.008463629567125834,0.053980938010974686,-0.060488832558229025,0.04241992605224541,0.05594634582720891,0.02679329573693626,-0.0238558919726345,0.01334258671432222,0.04883064654558409,0.014101062761887289,-0.008779469791948328,0.017059015488334932,-0.06761992292505122,0.090644888069076,0.019289411485932523,-0.028339458881928306,0.07192812146476908,-0.03814123711099437,-0.03240936270404147,0.0359561144518756,0.004326547045393124,0.013969778157526147,-0.05163042951085555,-0.04163193295862853,-0.03921066782036488,0.033349443531560344,-0.03985406472883151,0.03084486266154313,0.0462243675645467,-0.048317125359292286,0.0580418044839024,-0.04449047143798841,-0.0820216413655892,0.018598960863833294,-0.013633196842572564,0.007439788774942991,-0.06206171296800472,0.02636155677552602,-0.05147904722052218,0.024020079795945948,0.005919031392164475,0.02918577858340234,-0.04824878043539949,0.008572650864517427,-0.05839943440909521,-0.01274859720782202,0.07454375807682911,0.01850906244663658,-0.001735120577566454,0.010188105669517146,-0.05659868424368595,-0.03493273152855741,0.03247183429930568,0.030223775303901117,0.02450144506453844,0.028801785763292207,0.056925452349644676,-0.037406520698455806,-0.06086772847435517,0.029476461359268763,-0.01724872553031365,0.046298471621646825,-0.0021583661351445784,-0.01631015148005853,0.039988564756737593,0.007106497097524725,0.0037093322833448685,-0.046453573622102964,-0.0215905662391141,-0.0688578908168912,0.01822035181009151,-0.032350607897844275,-0.008110777948906934,0.05588814509752313,0.011215245705010478,0.010936077096731563,-0.052628532895208774,-0.052218300274025124,-0.04616654698938907,-0.05735012324607523,0.03134454698125524,0.059521947355278416,0.06543281323495326,-0.027287440253886432,-0.019064947001224127,-0.012371299400200505,0.020554041122500276,-0.030143973622444198,0.007131691499093569,0.03388380229503159,-0.06666512420550955,0.05179103957699283,-0.04662187662873347,0.008412480383315542,0.005538622848699611,0.024756126610207995,0.01764551362285207,-0.06281241113660734,-0.036832989496117415,-0.02947404265408078,-0.017400049083211286,-0.027782576529805984,-0.032668684854024216,0.03740603930841617,0.030206010858360933,0.044328585363156904,-0.029088963826728948,-0.0316394896340206,-0.01535292057801296,0.0522224929302224,0.013140144474756511,-0.04028906704761434,-0.033824347127977925,-0.055209230782732925,0.0028572070815350305,-0.007586515032569357,0.02680754515757446,-0.029349170326800393,-0.023594386548508903,-0.0050594063127832435,0.0364872745312123,-0.012703073121806742,0.07533593395728438,-0.027012765421389712,-0.06786922376133232,-0.0354434329292879,-0.018124528458526298,-0.03690511524646843,-0.027940063690861706,0.07516188249592197,-0.045218057452584115,-0.057465227840949686,-0.028962874838087207,0.03845741728567409,0.05277129419399946,0.04801604275209852,-0.03139822741446017,0.013589351287936497,0.026960441300535386,0.026916352804450063,0.04358346896620582,0.07497473296858287,0.02289606427372655,0.0017035276500117174,0.013246383973776558,0.06368828527355794,0.031045015108409242,-0.028838073771213835,-0.0206399050362128,0.028764835678402753,0.06291887696195335,0.003433185335880873,-0.016599251922736456,0.0733290392408665,-0.03499856582413336,-0.0073238436253149,0.014841727659190338,0.04565782577633842,-0.004263456777128112,0.05071116712556857,0.05779494989855134,0.044986989736033434,0.01278064178990821,-0.05771946424266515,0.03734069458198587,0.03232748848816677,0.0011833776005857638,-0.00839208056764361,-0.02091055374918378,-0.0238686396361543,0.08567139230349252,-0.04357422137511821,0.019327834196148443,-0.04234443242807388,-0.04877455118344405,-0.03255760651595874,0.06307155371162323,-0.0014061147507919024,-0.052516337241941866,0.031654187005534344,-0.044993599750307076,0.039284277358219294,-0.04069307921446943,0.030375527107048543,-0.008295596100050064,-0.05879927166456844,0.019804537493971416,0.05818891759557981,-0.0323231367674061,-0.0009774374446380088,-0.02886915103534021,0.0023460241434953804,-0.04006414655850129,0.00507723340288842,0.03593444623966193,-0.026148863669463528,-0.03905729547007837,0.022739139394888495,-0.04557203041010751,0.07187957746175806,0.009005230229718037,0.005504883496062588,0.0019281497376669766,0.020009406876971857,-0.023555118273927252,-0.022415034838941333,0.06115317171825518,0.0350263138872796,-0.005876261628077096,-0.046025259845136515,0.02297841470662291,-0.00025822678864579,-0.026472267868146448,0.05610647878109716,-0.03187897092951616,-0.000566027062540517,-0.05614972761535114,-0.027746614791004966,0.03455715676038761,-0.008665999935777016,-0.03451607711603328,0.02016216847314914,-0.06403033919722868,-0.040719774503058546,-0.002743821756490042,-0.032437678838618575,-0.032785344999284906,-0.032614827732327746,-0.032998932016964966,-0.043216471944259316,0.03244470182445879,0.024438316745673486,0.015125658847809644,-0.07004755131370892,0.037027599147077574,-0.008161754447898881,-0.043098847623273824,0.0029260938851543273,0.04422013152410347,-0.030363519076764895,-0.03815439271358833,0.03382359634479981,-0.023057074142489118,-0.01354967530637099,0.0060368383102090035,-0.05957724113075247,-0.015409669296039633,0.045801019071274165,-0.024677376375785494,0.03584911677955753,0.05035948036122119,0.03482851856615502,0.04432701181702585,-0.01849497829323964,0.010504280526065371,0.030381478701299907,0.005371149132878485,0.003948423191156684,-0.0017923647832521425,-0.06002694447490287,-0.010884536067526304,0.04720680030633901,-0.0303214505885378,0.03319773536892877,-0.010302556588133943,-0.06066419548691032,0.020429950471666434,-0.005724032083761423,0.04801542726217454,-0.0025147205645266175,-0.025345229938671977,-0.011697320985952584,-0.018627515114992915,0.04066850199250821,-0.0011787501771791291,0.025289533677019336,0.06917594700783063,0.0015049336295088203,-0.03719251008219973,-0.03841557331207284,0.054864170952946226,0.0536662791762928,-0.04410701383359939,-0.0067474462375647255,-0.0697877251637094,0.001475559292771421,0.002055732312422117,-0.06057327683694784,-0.024667869470781725,0.03408728366626202,-0.02051075169488526,0.04217905224585533,0.019094975699442487,0.008174724723719594,0.017381439036607636,0.034692663775278174,-0.02543165760658305,-0.01508515050502632,0.03026430324041618,0.042129835237727106,-0.027648815650927323,-0.017358892862778644,-0.030864448758888736,-0.032699836198563155,0.02103676210336283,0.032665826229248004,-0.011057793162958515,0.011234984786737819,0.00719010881334331,-0.0021414904361176587,-0.06264401094651552,-0.00826701597794997,-0.019649749244531015,-0.05729323397139156,-0.04191820063929116,-0.009977786421344368,-0.02134973744705002,0.005763622923162113,-0.0205735865210876,-0.028722567174807954,-0.03474001006621546,0.0012238753287124216,-0.04592220030640133,0.021955906782623085,0.02783377342445137,0.024170103198200236,-0.06470916828388712,-0.025378358955266928,0.007824209581994193,0.009950432514896428,0.028114879453058527,0.000322599185053284,-0.051321470482968534,0.016707768303027348,0.006006260736877372,-0.054430311598309494,-0.03481413288650152,0.05376348256508021,0.01532719656269505,0.03782029720431716,0.05765274749196464,-0.05574449702658416,0.06177355488764212,0.0449673407947847,-0.07262629703678006,0.021402374875899646,-0.03573920268069375,0.06219435097722585,-0.011066451504540515,-0.018225070356325375,-0.0321780263461275,0.04228634599123501,-0.0646870414185472,-0.03359056558313135,-0.023169686429107824,-0.034590398304824084,-0.009443699695899855,-0.03486071048335646,0.01736288911488188,-0.012043338665902016,0.04728276430013734,-0.02884223180779594,-0.0008814915206744126,0.038890464800620125,0.018517541039212965,-0.030576168187884813,0.029389593877308353,-0.03340698445551043,-0.0417823077217224,-0.059463411110836126,0.050130464088370935,0.02042390278491643,0.03202100131356107,-0.02409329742053786,0.022349362157249666,0.046399789704653686,-0.00030377215280359346,-0.0008441038701880813,-0.006671301661262801,-0.04460492227383594,0.02799203621249595,-0.03797644154993769,0.05399373055859097,0.06878539262237827,0.04242335259935547,-0.027573563930364343,0.023462492709328438,-0.022281169019828868,-0.008871008065867807,0.008569600179833195,0.0153177483683568,0.02937525108649372,-0.04697561441834358,-0.025864020206600738,0.015717750366819598,0.005472702887550534,0.004477236323344762,0.023703628725374862,0.06761810297485463,-0.022646143981962966,0.05790030461806084,-0.005118940707682863,-0.05167007841784969,0.0013090258554531301,-0.034989503624200696,-0.033005809853944724,0.057955315489979585,0.03246501333239608,0.038913919295722306,0.053231934915802276,-0.022295925285737078,0.058551015960885154,-0.04857280917443848,-0.03138005531379218,0.027144859426436546,0.034129040911839256,0.008343323883784077,0.03196652732898985,0.00662876333110118,0.03233110905968347,0.02136157634906826,-0.005394449903209936,0.04172728333052199,0.044270144156098166,0.06688567131404409,-0.041935240036711965,-0.010208675954687984,-0.054446592694247106,0.025312087171152874,-0.05807424735334066,-0.03545678423640467,-0.016805631814652815,-0.03579635178119214,-0.011870669268445235,-0.01879014253544231,-0.025790503021844997,0.00362322929993215,0.010691074679193254,-0.04587049795751972,-0.04793281481563789,0.028878021889528826,-0.004578765008878567,0.014160257573478706,0.03766898183310894,0.00745948699376551,0.024188755482813,0.04031548389996739,0.053252285739133376,0.05713933463239498,0.030606142168286006,-0.03353507084506183,0.04036452553047101,0.0626581519023313,-0.05873149154685802,0.0060733252777843425,-0.027819353816687393,0.01736674896277618,-0.03641053061226917,-0.05710683726250946,-0.05683502943692841,-0.0001981718967391066,-0.04769057381799593,-0.02420655141270437,0.043668670375537365,0.023094659962426118,-0.0071245244227288885,-0.07112772980525316,-0.049517285383039164,0.03900930989928662,-0.06615964964492083,0.02864216225556541,-0.02338705242531444,0.025934293090428964,-0.017042192001903142,0.013367204278224739,0.016758562763529012,-0.00560754379248703,0.021841811091375382,0.03905724023755844,-0.029006411083561008,-0.004829780425014174,-0.010477223733057995,-0.012668434295987229,-0.0019479155037397165,0.04490972566332405,-0.01040849802059029,0.08145635334208999,0.03555348696338888,-0.055114879495954804,-0.035001811525006095,0.03478333878255769,0.01108546020656903,-0.013953451340324457,0.04627834755326495,-0.04803795222602118,-0.029636258765169458,-0.0374889157316407,0.05052988806589112,-0.06206099513223734,0.0034693061816067953,0.016294742066387733,0.04310722988063694,-0.032568830805793265,0.05670006047588587,0.05636375485274595,0.04382897628050382,-0.03485119174019215,-0.01713410844252884,-0.051550814856872386,-0.00008827842889949208,-0.00094470133689845,-0.05064333965166329,-0.04375885068406321,-0.034175788964068636,-0.0850338078105862,0.036007420904992656,0.019019483580716656,-0.026919643123503707,-0.033371427485711654,0.03670173300075351,0.05936822637398728,0.058037534901122685,0.07559852336844915,-0.0431365332387534,-0.06721434726016824,-0.02883655213199084,-0.041300873843802294,0.014586301802315432,0.00370029690349617,0.05845009209422733,0.05410982818174004,-0.028747243771759867,0.053223738733450036,-0.0235234813460965,-0.06574147907589807,-0.02354411434637783,-0.041349098453328986,-0.04869966427851894,0.056901283017097126,-0.0008691382091494873,-0.053192341577480755,-0.008083923621949348,-0.03536685087032057,0.029467867862846792,-0.011335125971966644,-0.03964406046598953,-0.057812092730316664,0.021397903748709445,-0.01561889639949616,-0.04751006196164698,0.04526623933373828,0.025890629206596783,-0.04201535396340401,0.0702473002574457,-0.05325041683715197,0.01816271660673344,0.0163846128601877,-0.03830534842738327,-0.05823726744433068,-0.009083859701748175,-0.025877333357634456,-0.034743488268124866,-0.019521184621270508,0.03351912407468854,0.01242712504104539,0.04981179607189515,-0.05383386088880399,-0.0019899399911002913,0.0436881103685647,0.05280466254898216,0.014441628850157552,0.011831621955906197,-0.03697174793875692,-0.04651170077164156,-0.02959242153507059,0.0032991599066445588,0.02251835967952292,-0.053513872389500124,-0.09532441462529721,0.01196479474473224,-0.015818973003460145,-0.030714882082935033,-0.039522053648705105,-0.026026227707524576,-0.002858301109744646,0.02717383463737114,0.007187023572533854,0.07232342609056194,0.018464169687785973,0.038299513122385685,-0.012500108840253423,-0.0048239075893871585,-0.05709190342253681,0.04766089423798842,0.034928330301563025,-0.02093289972019428,0.014026365328832347,0.01791196759052718,-0.00892766758132743,0.021772530862013917,0.022498674678590753,0.03299781281263606,-0.01153503589851825,-0.05189721636827936,0.016005885236295238,-0.02353511354915372,0.05265349391744768,-0.07594617665811847,-0.041683659175896295,-0.005008056986839617,-0.052694243659389954,-0.0046419486103752156,0.02865636290721861,0.06077933244251189,-0.0030219337145253765,0.016043665822440864,0.01989734644037178,-0.04183201347793557,-0.03806985219751089,0.02726866685698727,0.02186545357601857,0.0739155162428207,-0.05458931112742118,-0.05185778210870348,-0.029462710771225243,0.0031109934998625045,-0.022605711892958295,0.06688286043330426,0.035379057860927966,-0.03564451267705352,-0.0493779608049502,-0.02078164403305468,0.04984105415972619,0.01542769905391387,0.05156870607762972,-0.040860880683242555,-0.0016097038333249653,0.0010811240478670523,-0.033374291716185306,0.06154844863121144,0.027283651904378415,0.04652297415384423,-0.0324081407493404,-0.017732773890763574,0.028508332200543735,0.0006473819494059843,-0.02297221066970021,-0.026193105943236542,-0.015573487028611763,0.01946362144272021,-0.02891468668230253,0.013840299256633576,0.05577724110346499,-0.04293137293318481,0.006361342515961805,-0.0008415450099078927,-0.0091627956459003,-0.016630664153417827,0.05806581286304416,0.009917465128595739,-0.025882797742836236,0.011067118930277816,0.08517039910792573,-0.011102770857646117,0.03660828865329407,0.053086847915547616,-0.06434047572176001,0.040582481920248686,-0.059205142825780384,-0.014844937195148558,0.013304285275289667,0.07982429856832164,0.020356946676524157,-0.017828028759550273,0.04158526144203618,0.02008834488649232,0.0911108065227384,0.0055790492086134165,-0.011391666597396757,-0.01814718531881927,-0.0059749946975284724,-0.02728562117431765,-0.05196835611020995,0.02582529259657226,0.06077470580079579,-0.0012558158797246598,0.038054560104228134,0.10145402267535249,0.03254885006154368,-0.0019613959026450853,-0.031363453565404195,0.02600600657477085,-0.05980047060683608,0.015356519727857653,-0.06649886057842823,0.014786606138710053,-0.005249928596290198,0.007711156833717664,-0.032946075141629734,0.022053770849072896,-0.1042747883248593,0.05648307904326587,0.08113403229898594,-0.08550037943689967,-0.01985726908082434,0.019625406075637543,-0.0861569758536275,0.0471328801199278,0.023022012252655513,-0.04940209445804655,0.008449704717076293,0.033101668787385144,0.0031143280905580172,-0.026721791989368263,-0.04235516407326524,-0.02594730332159618,-0.02201111784091792,0.028691211237744013,-0.005494705835858064,-0.03138835123585054,-0.03592794591393658,-0.050133976332861235,-0.01681659943448683,0.018035837261087182,-0.052212303731152994,-0.017886936681295672,-0.07679201275980783,0.0313329567255307,-0.03217501302233247,-0.044313077127458314,0.007749239901969627,-0.014387499881072272,-0.003410881438546341,-0.03673999358603427,0.06977860830099085,0.02887544242593921,0.05798450361550904,0.02260079663506646,-0.03794427683141447,0.0680255063127609,-0.035500743646858235,-0.034700925653914964,-0.017908174719969177,-0.011429001709604035,0.05116097144487888,-0.002910001736164792,-0.007410127148821238,-0.09973093472824107,0.04480346629270138,-0.0003373538452603786,-0.04222276225602276,-0.006481581611277742,0.026651039371292398,0.03428282201097199,-0.06819386022605188,-0.02583858547879452,-0.011017682201673368,0.07669275287586604,0.060629903697667645,0.028946081054087993,-0.032782985902752346,0.04980642551917639,0.02172345262682704,0.023384999544210534,-0.02935172795326332,-0.033299732912466476,0.04900649673115602,-0.03769543033754989,0.017855275867735675,-0.011571160356843715,-0.07861142629244408,-0.010105098447121062,0.05520606012166393,0.013652815309484338,0.03641535306097333,0.02636169846336411,0.0309744374848615,-0.03565391052991651,-0.01258174861536575,-0.042632137575707156,0.01545766660496404,0.023587845553713932,-0.043797686737445087,0.008868472988532144,0.006141712949891541,-0.07803210224049285,-0.06579214827988437,0.020934697017116685,0.06879248207315113,-0.06127416254253889,-0.015395901249556825,0.0283927219680175,0.032120288679818185,0.037392163918847934,0.038062984654719266,-0.054715333412911966,0.05481971043686846,-0.11077439302933391,0.024355631547322367,0.03620062941920776,0.0505341269415497,0.02820033965705064,0.026684143869707667,0.00048742697379843474,0.04274687385040272,0.024640697087863903,-0.05464879986326846,0.0014412053726169174,-0.002367666334955315,-0.03397934191733787,0.06382782777508476,0.00567235337688625,0.07811435977557159,0.05153903663430895,-0.022415131560203798,-0.006030180460500021,0.02556675999136808,0.02722670713319504,-0.061015174571496564,0.04023010058583814,-0.01969280309403332,-0.04025500220412133,0.040862258516021224,-0.08578856246517465,-0.03535292145307779,0.09866547052284234,-0.007955664118933073,-0.02590880980221144,0.029463104836026915,0.0655043293674395,0.02518527281351407,-0.06246145493628491,-0.020097072123846788,0.037999204254869266,-0.06383959570397488,0.05426130036876363,0.07494898992205702,-0.02773321612290894,0.046060613707109274,-0.004956758896537073,0.024773570013808758,0.06392983847358222,-0.0062485911374120075,0.02752692776678554,0.024158698233283652,0.028878668772239866,-0.06539596465838862,0.09513107117296829,0.029027167683230062,0.0856595193986758,0.049836454577672586,0.0035107762805883726,-0.05243726821337161,-0.029899362995105667,-0.0063905367719985446,-0.007876620855805707,0.035378835474415726,0.07679892584733626,0.0492231709445078,-0.02048666775878784,0.07716790880278654,0.04058635493496449,0.09192759316746248,0.05683427271148598,0.052812400266126665,-0.060665237898755414,0.009046028947190352,-0.023535840134977535,-0.01896143433739917,0.07463939836492615,-0.0613029362312275,0.06112923795108143,-0.04557221805837924,0.05044427185900229,-0.01864492086725841,-0.023993809082715725,0.034128414554829824,0.06248953061080935,-0.08340489689330935,-0.025469647934193478,-0.011351619770635694,0.009726625525347058,-0.08306188732688047,0.03435140103145024,0.00585638021873872,-0.0018517258161349773,-0.003488319887364753,-0.019917580864272796,-0.01509157395777733,-0.027301483861215774,-0.06112777359221175,0.027548663887526977,0.056131005908348026,0.016598385637251065,0.004111918921727494,-0.027256783547251348,-0.10074016428177587,0.017660149732140133,-0.015202761464779264,-0.01885324525883691,-0.06659572507964177,0.02435136581124878,0.007565457407233289,0.004449491665543223,-0.06732756498527924,0.021339972965879174,0.02254950555824252,0.04242506747476826,0.0350270261739191,0.029414882038271698,0.03503418397429509,0.022236419294724512,-0.012756244656078287,-0.017038800347117296,0.05077415661369986,-0.030781729655107268,0.044802165886996585,0.0009326633372087606,0.08136715367418262,-0.03346008615195549,0.04481069859748854,-0.052557434637858155,0.03569601760234864,-0.03511625225221146,0.0039024284436700364,-0.008541625598146524,0.04658353340792171,-0.029059947999196516,0.021930221292293613,-0.053907279334035614,0.042284702977664394,-0.008016839806506366,0.07592982230657158,0.0578638615309645,-0.0030766307909695987,0.04433329907658079,0.0552654562181122,0.04689921676769655,0.012176789635669927,-0.0730809702673847,-0.05584364506157389,-0.016028895172316336,-0.016929715986750523,-0.020100560613803924,0.09985023901479216,-0.0381141115835126,-0.04497628409638695,0.08959786792510518,-0.05518639208628485,0.04484864854327127,0.00006388594893701587,0.04107036499534978,0.012969487263038421,-0.0331423181549773,-0.00811019532406197,-0.061798779829349004,-0.008282458605939846,-0.06546520670320576,-0.015577053243612414,-0.061913232927445445,0.0037856334269837978,-0.06954318334239698,0.016064860044813615,0.035295059535628344,0.08391753335278453,-0.07019494364324931,0.027797173333399424,-0.08137224545059389,0.015390184164125124,0.07041193855840853,-0.04903560357747173,0.014707510029980178,-0.056221172127647885,0.05594496956858036,0.0018833255044996178,-0.04914381941479752,0.029686270909092236,0.05568953128121379,-0.021485370620547038,-0.004341028716129404,0.02907996618567409,-0.03966174539286062,0.06167502233056497,-0.03514994680657432,0.03392769038246849,-0.04703727419731401,0.006485275832863166,0.03754944735461802,-0.048891597428511346,0.07799153304431529,0.05436456597931715,-0.009096271226903811,-0.06357869898005397,-0.033524233290627446,-0.05888749312980343,-0.06069612418282398,-0.01249141273953466,0.04006152951563477,0.02058289002160813,0.012759865471497213,0.02981271860855132,0.049334784423012576,0.013002927474126402,0.02030987473095217,0.014294298461521252,0.019707981238795514,0.026274996554335555,0.008511374016213508,-0.0680547210818235,0.06206729610921636,0.08528073000304999,-0.0068713619222677755,0.011340133413785996,-0.025114404288563794,0.014926801095516456,0.006342940230452656,0.0439560382188328,0.03811809564501732,0.02487623000628284,-0.037422944332701956,-0.041440376946678646,-0.029385338205463487,-0.05153985889357378,0.03849231315928122,-0.07915862864094722,-0.04688243129548569,-0.031397022594598305,-0.007533809448335695,0.030008786683112926,-0.07292787788207884,-0.022111736262374834,-0.059894375776453006,0.005200848372066067,0.005933519170167529,-0.01121691585755652,0.024845977903099576,-0.0157077033292839,-0.00010053963425453619,0.02149180097607156,0.036880760750383684,0.06598590806273982,0.006998694731877468,-0.024537056594358588,0.0355883872902819,-0.014464795334370192,-0.0518804690287063,0.008473123722903061,-0.05711227063418751,-0.014074890936838782,-0.04333483798978283,-0.012422558991061464,0.036277375295592204,-0.05894355666304364,0.02687661032397738,0.10302415865831836,-0.02323824455330962,-0.021215632704918233,0.012382348544660816,0.06008076718887862,-0.033820254632249386,-0.002469760018355658,-0.05552709592379706,-0.07078109153225241,-0.04893762610482754,-0.021651859618978034,0.011141497259148649,0.0064913937862793045,-0.07001210885080364,0.05552918162583097,-0.030505551946853497,-0.0018093993487387646,-0.06726938625519101,0.042500482912272805,0.06104946896941055,0.04647644035897564,0.002117464959048874,0.06713462358413234,-0.047073483475614616,0.05879138549167279,-0.002725302143502941,0.0014770539266669089,-0.05769280026538368,0.033767734333436904,0.005333447160162415,-0.02479048946328987,-0.0196289198226235,-0.057953385872705813,0.04835266721223221,0.04730958374030655,-0.016610030569941387,-0.006595265138354523,-0.03744520667377819,-0.03761623115778551,0.06293636510122526,0.05000640014201749,-0.004273567045061066,-0.05266586299663206,-0.06958150037676003,0.026263838896052924,0.006866950234228746,0.018014672473795554,-0.0062792182239112,0.08006307162663494,-0.007139633173915,0.051577906617986405,0.00748556722526624,-0.01004123334275733,-0.051922480276468355,-0.039774537237066615,-0.0009070319192473647,-0.018517894792400232,-0.02243778346687778,0.0069168998519780365,-0.058164589190567904,-0.052866310521635214,-0.05676936977219405,0.016096942504693332,-0.0029953595735919035,0.02735076315203722,-0.03880650525346136,0.006237012405959215,0.0025340778290325627,-0.038478298974344675,-0.0025945213402493146,0.015555547320003547,0.04565799010956943,-0.05103169710842505,0.04649859858299388,-0.003793779026884969,-0.013853952977078953,0.020708319519568825,0.010321636513082651,-0.06342268030974596,0.030246577088128904,0.0047454778941182175,0.027221216956749228,-0.010975952289106144,-0.017867587642872836,-0.05963345698586596,0.03425889470971353,0.08919139575499536,0.034136666137498474,-0.003473138593717743,-0.006553562167358815,-0.003073189223137872,0.011153831713890247,0.008390274956725204,0.06649801589882923,-0.06717014725223835,-0.0018333834996987763,-0.07497769908474054,-0.00453454850409836,-0.03343340985127907,0.020789200148603665,0.03277179149170754,-0.00002155798649825373,0.022736108145943446,-0.04421740391188585,-0.0353990231194048,0.0029258464322552843,-0.05768952090650169,0.03097790855336894,0.022985602414085194,0.043219827791518214,0.028067951360270352,0.029043013081703782,0.029477557107987037,0.06057148287478929,-0.012993308356526753,0.05518069770839551,-0.012229770560454524,0.03860480094465066,-0.05146458066202052,0.03194225115993878,-0.008457532207731237,0.05023922561654887,0.018072694806213277,0.021153535582698155,0.028198484371269997,-0.06433764061672277,-0.020853613383246577,-0.04717022759139072,0.02276606725550629,-0.04234986292795722,0.018253502333709058,-0.014607468148575043,0.07861411454582372,-0.02084001153026498,0.0333054985970192,-0.013553619712021429,-0.009239435907694382,-0.05169349687178438,0.048882538464670576,0.013300548918828571,-0.01892273336274956,-0.010599702321214882,-0.016280171591776072,-0.06830046295055033,0.06739756808339119,0.06278327746025257,0.06641317351599761,-0.03369923173669503,0.0012871047805414215,0.03790616590278797,-0.017356531309709277,-0.02731460511246962,0.016268753853334404,0.020380639523952995,-0.031952068505020255,0.03170786812304651,0.019669079398393848,-0.026969130684599073,-0.03455748694794701,-0.03202097883051125,-0.037881959279198914,-0.06531850267197377,0.056387107911505675,-0.024788388377340532,-0.04418884517802716,0.0026447856778893126,0.06897801786198474,-0.04921032634549331,-0.024940696388151013,0.044350993713345076,-0.07533250067201067,-0.061393956010332325,-0.033698674263701225,0.004810694208882859,0.04334081865508632,0.0404859896209448,0.052881722724771964,0.038985723033922594,-0.008463808974883847,-0.007386642404837914,-0.03537363326388504,-0.01853210271173591,0.010714554614470427,-0.010347054310035898,-0.030686452904857442,0.013312225783292898,0.01294720869494942,-0.03745441662798559,0.000524570295652231,-0.03703829162660083,0.04483958215885933,-0.022922063036653992,0.03363610806589484,-0.04537114943664076,0.007381928150031788,-0.07114834314722872,0.062250825284572604,0.013631145032431716,0.0013944412687590243,0.0181935899116646,-0.03033635822793514,-0.00021935100514790286,-0.00014228597344697767,-0.054467123934780114,-0.005566974776130527,0.03224768801397333,0.008187716775384544,0.033536500733444045,0.03437397814756565,-0.05014482210075853,-0.034428698137275164,-0.001370553544952199,0.05064855495894681,-0.03145507198814186,-0.024080794789708745,-0.02032147396358296,0.0008900688246928284,-0.044101179336441525,-0.015355610968441109,0.03226269730206917,-0.020230940941917148,-0.021241211872037796,-0.026404432814996433,-0.011351553439055187,-0.03764511921884803,-0.042295893935555405,0.007351799006485145,-0.024777394088971807,-0.015847525106306503,-0.012902501122915492,-0.021570937490582982,-0.010830515014461016,0.0073683474042613335,0.03346433584332645,-0.0526827814273584,0.02322245355186463,-0.04617697026278957,0.058269701863511436,-0.011644869270263536,-0.013222134808661804,-0.01193022489982134,-0.00042268368140858855,0.052710342283908834,0.01701078775555927,-0.05721022547125844,0.04603263985783121,-0.03701934108172141,-0.05849972712066033,-0.0024404298414021867,-0.03347302443028767,-0.012357308599630542,0.026565575987032842,0.0051205652779888885,-0.04502030062420642,0.033063897151183824,-0.029528344110698972,0.007550061008806375,0.028593523241150137,0.021184469901172367,0.017043614095973564,-0.014146048501822382,0.020093002994580056,0.011027954229354176,0.0534738706600744,0.07203977431910953,0.028239705120117416,-0.05123930306226564,0.03733351383577479,-0.04957902966721415,0.06791595238449963,-0.05378164012637852,-0.07439635235376067,-0.0007762608256440719,-0.06515177960452538,-0.030327839764823235,0.07234140916179498,0.05351584863371123,-0.010986756787492597,0.05810840247431953,0.02160269982602162,-0.07592794382419632,-0.060568781181702114,0.03958350083222529,0.03708928324308175,0.058267801408991966,-0.006413128893688689,-0.025943620330618193,0.06258559745086949,0.01872643419528281,-0.05023533520224313,0.04317686631323994,0.025399949742191275,-0.007104829430090211,-0.06868693536038892,0.009279354576756271,0.012972612567217545,0.03153307759283822,0.06496664356850639,0.01448088897917343,0.006558452792313771,-0.05441751760247076,0.04368293036611259,-0.06476746903102977,0.010351907843383615,-0.011545183536071273,-0.02909253202356144,0.009376003914678025,0.012639263550798039,-0.030543073593071256,0.01427022451702728,0.020985723656547467,-0.06181733422111111,-0.05064717481478803,0.003775449921124809,-0.03504393016472795,-0.03424416749238219,0.02503718275931506,0.02230570858454243,-0.012579669158763553,0.01984771826903519,-0.053116725341317186,0.005052095263478044,-0.02443012364465749,0.007840291374564901,0.03582407924170621,-0.038094326376378614,0.07202929079175223,-0.014270749560367309,-0.06270525406746505,0.0040099420328361295,-0.07041746906609264,0.045168803877258544,0.037789315749441325,0.0016565200388940903,0.033641703846661465,0.010949752647295002,0.004881510660461133,0.05988844982296343,-0.046489795246202274,-0.0036072060023873147,-0.0355237574473446,-0.06911501128140345,-0.039591147898688624,0.009618812822468674,-0.0037943075853417536,0.03652907039858322,0.04652399713575005,0.04321187060934438,-0.027284168770851394,-0.029470909610598724,0.03961575960761636,-0.023383084484079053,-0.0469478511496746,0.03489059230990043,-0.05772914262772595,-0.03785661796181001,-0.010303567307476676,-0.08476224893974814,0.05223736304395888,0.029700014970589737,0.061770785286007275,0.018870658128730584,0.06954061616651157,-0.027425094221244433,-0.0038990604588564504,0.05331845222844011,0.03024610725775445,-0.04315002487719382,-0.05352185459178331,-0.02961809818035772,-0.02942551202605692,0.07826900647268979,0.026193494261182337,0.06288787140574002,-0.0591499781158857,-0.024543246778222404,-0.023580386541725507,-0.05172579214791433,0.011155765032740465,0.021009042417411666,-0.045276111297767895,0.014743090329099548,-0.038659232995003394,0.0037812105648164927,0.04584122652690326,0.006318398883654724,-0.0744093530230198,-0.04857587339829221,-0.017829228696127394,-0.07386726901773807,0.02264798396607848,-0.014700226294968527,-0.017672849910956027,-0.05847723127162414,0.03404667066167054,0.02598501451960643,-0.00814537429141381,0.050344816774559216,-0.020665322526065594,-0.05398261222220032,0.04349451860076751,0.017708008696623617,0.059866171309910454,0.032861647542064484,0.048784409637389343,-0.05623337525448547,0.05737088706652631,0.005453626994398892,-0.01598260396705303,0.036490975732483534,-0.029743477547990445,0.01617412165554486,-0.008951093939816366,0.022521795124336982,-0.039227621537657825,-0.07228961434723649,0.029267198464750968,0.04813481072956358,0.05146893941681942,-0.02050038200388251,0.032298089116452176,0.0691166806494447,0.011212192590201965,-0.02890055402408453,0.046662442839439544,-0.04615685878114253,0.01083584093287071,-0.056439277540020434,-0.024510261067814256,0.04424979534741033,-0.01256092549084182,0.022991862729080405,0.018185062651652033,0.04366927757195643,0.050426164545881814,-0.01682267048523361,0.015085328578270232,-0.04996496976021098,-0.010042606057264812,-0.053932530654571216,-0.0038802416714291414,0.002475682548272375,0.023809432552350997,-0.033257487237625574,-0.05666965467961308,0.013006264188402613,0.0006167926474447297,-0.02245745295792209,-0.0077556868608276,0.012799385208064952,0.06660812095023973,0.0625396143364239,-0.05549492621187976,0.02969661144221377,-0.0005891869580698637,0.04406773147532231,-0.04702882171288994,-0.024206911670614156,-0.00456217239558,0.04259638147308181,0.018425318430530142,-0.004041176994404237,-0.030981466606362706,-0.05830947697728442,0.04821535490895551,0.011241314328297827,0.011208259814856328,-0.03774036919642083,0.02011921659299136,-0.0743984112579775,0.049297913125908054,0.04432924842854744,-0.04252805138317749,0.046612252728747666,-0.005121763865308247,0.016916685533729867,-0.0014859216967921507,0.029914830916966523,-0.03298135978834329,0.004773553738563531,0.022416592827126033,0.019447160531710934,-0.031142878217694316,-0.0012146029870899941,0.04358290436914307,-0.06355885700059294,0.026084822135203058,-0.044030869934027314,-0.01522899264856698,0.059708183735412125,0.04419742197370733,-0.05033698842053518,-0.004905420596426115,-0.009551177593144883,0.05626629940816853,-0.024748926642650656,0.04421746300663966,0.006969609008875098,0.03938954148034492,-0.00933092994277367,0.0777435705593373,0.006605873216746728,-0.028184404289172467,0.03967238837466501,-0.02311651670552622,-0.026720965445494165,-0.02076246552208302,-0.05978983871897374,0.004335425733283381,-0.0010833015252025566,0.03543068974377586,0.025623197882347563,-0.01706659810972148,-0.012653874654473376,0.012297632402004328,-0.00411291908262831,-0.03972516912004536,0.030353016867761214,0.008361304612762473,0.025476758693179447,-0.015786181669332832,0.02769125702303451,0.03191156573866002,-0.007803615880415522,0.028861907343454854,0.07756411524858749,-0.0068292422407251335,-0.05698036029272108,-0.06821404804523146,0.03084030105278095,0.002400125465170776,-0.03041044844688203,-0.06205632080800439,-0.0019022119663561225,0.0013292343900275089,-0.022309495509539982,-0.014803402505244456,-0.0031329599880432417,0.003494469229440356,-0.07007032728273567,0.024725153829171388,0.05365152195695319,0.052954888178271035,0.05889899440794836,-0.0048818024000227295,-0.012195797378753861,0.019529258800542248,-0.018267264347306016,0.0208919306436335,-0.03500066707926102,0.018016125932848806,-0.04001506622751344,0.04287030369277054,0.013096881907689737,-0.06348618001085816,-0.029224680538742567,0.0012299134495044948,0.04744655146910888,-0.03882864860694628,0.0422321914268594,-0.028648521807545846,0.016723517989444214,-0.030383560740744414,-0.025885253149796443,0.012166685172718775,-0.04052058943982773,-0.002713863037672915,-0.001871721347799234,-0.04562916947638604,0.036692069302764724,-0.034680609599837424,-0.03243891379787997,0.04688910798774479,-0.026384868350309038,-0.025206770682298953,0.07142105037679625,0.008856122553143093,0.04812675435150167,-0.027298517446231175,-0.0408843569079678,-0.028717247064933355,-0.04817015503790753,0.0070542793042585,0.034863658491225344,0.04883713573180005,0.030562314855207454,-0.052175415342350734,0.05516835766941765,0.06325977430051957,0.004221184138671931,0.019442459794588304,-0.02661580101418738,-0.011491761711115725,-0.019416506026029533,-0.06218633912303401,0.009513064155920088,0.03526098413665341,0.0014959098912876198,-0.05755944004843459,-0.023597491414384556,-0.046486030901000806,-0.05291261242016063,0.06783592280851168,0.026486949352210788,0.06433049278005776,-0.009260663212466663,0.0016975987809632507,-0.006497330322612096,0.023378156397510397,-0.04052866410408376,0.0650730314847028,-0.06206257375230186,-0.028143621061227315,-0.005394552921733743,-0.013602494808653056,-0.018464186921001154,-0.008841410425403365,0.022777376277010666,0.02524306884144342,-0.026053091407040537,-0.027924766523874062,0.002938606992477731,-0.01593380333103614,0.021472496805718305,0.044067918900680056,0.009985371310334676,-0.016319014927390258,0.005892916565126263,0.04449131635959615,-0.04779448033724883,0.01606365076647749,-0.022579201719259232,-0.019380139944092007,-0.0027031429254759033,-0.024113209847458943,0.056822352349569824,-0.006582529783320956,0.01628927952794108,0.0377567568060118,-0.061620044079878006,0.0045830810492775145,-0.050454534165311274,0.021870471626879474,-0.04683071854173619,0.05240154623863599,-0.022195301469447558,-0.018370987275391448,0.010855405182453095,-0.013848736864324371,0.044869570875750366,0.046837492121378076,-0.010439879015493005,-0.06283108652121314,0.000424360376376965,-0.032155377184180066,0.041695639393514984,0.025509879256127334,0.038543356598011634,-0.0016974735068837538,0.01990654997093969,0.00992332056950008,-0.0452931602868368,-0.024194082193634954,0.06301990280233576,0.0526535811622943,-0.057609236295803515,0.026693453401349987,0.011647462002395997,-0.041038563567405345,-0.02842585154842139,-0.021503036359616385,0.02302354359049209,0.035058686316963655,-0.023242458220609996,-0.05579338289040901,-0.0030933350205471512,-0.03243814867585441,-0.013335537519960253,0.01054990893712711,0.056118711750712154,0.021127191127385234,-0.025403808856957696,0.019270984089914397,0.02084963863345556,-0.00729454349173623,0.0044687526435004616,0.040335332101182,0.017742965851009238,0.02454792798158294,-0.03179188321465234,0.04338220176363284,0.031829354426501755,0.03322829583486069,0.031010825197557497,-0.028112602586526904,0.04373479148580068,-0.02295861995166135,-0.010101274928281011,-0.04728058563659312,0.03321380641488482,0.025293828247952826,-0.04650189768287011,-0.01305813265655866,0.035248815862369186,0.018686275811663412,-0.016230676992647245,-0.028413505793753634,0.05398657907044454,-0.019626815998088753,0.004922248968002352,0.014974175781619864,0.03823855459609211,-0.012925015296665062,0.029772151297607633,0.05391267068913615,-0.006203169112472847,-0.03241773239629163,-0.03913675731546717,0.024919295367655216,-0.0454358513064471,-0.044654362835882505,0.016573413178581877,-0.05187567205980442,-0.02605768036312318,-0.052107107594998446,0.04544993425206422,0.054535261990498345,0.06764726089460037,-0.01739962614724314,0.0006637050663751791,0.00761591107901479,-0.020717714507517453,0.014320421972955091,0.030457783531873492,0.05609729104039874,0.006755782486860303,0.006759600123679816,-0.03325113131098022,0.03751235003182917,-0.017073411778134588,0.02472227896628387,-0.017765215421099146,0.058410159958977075,0.02276985205372174,0.010232978089563858,0.057527688901480835,-0.0027185788038186836,0.047830989213065854,0.043975023950590976,-0.03082406050685826,-0.017902322842842076,-0.061098258035933745,-0.004647107488244734,-0.03222385064727566,-0.06519589828205626,0.05456313203293415,-0.0008351782606404964,-0.0007210434027659502,-0.006900314314872635,-0.011084830973806397,-0.017862700217607195,0.012671304733659437,0.013662513258692468,-0.06106583027773918,-0.01805031645137296,0.06166982123468339,-0.006746517330046497,0.02083434717292336,-0.060250758155703986,0.031193502438550874,-0.00119637108907798,0.009764325526185095,0.055103235784948947,0.010810753008756988,-0.025344391860902184,-0.019165084315718173,-0.05501187964953106,-0.021670750196419643,-0.03920557691195774,-0.022696571080332784,-0.02895023287626288,-0.07037694799778282,0.02940144724030434,0.004176905754301122,0.02967761561896684,0.008130439079408504,0.0381105094507255,-0.03862904124646045,0.0072354397708406,-0.045482673737442324,-0.0010578880562944956,0.053690478849252994,0.008134796906348255,0.03871982683414521,0.046150256330725975,-0.06301599048604707,-0.04926099109195298,0.027184128210774462,-0.026843596345133627,-0.06631821960080739,-0.030666433786048036,-0.05434298440947437,0.02281400014632834,-0.04308146589038946,0.05252050081539944,-0.043551928120585864,-0.025551817713552687,-0.016150131340615045,-0.00845567626591873,-0.018917288896256067,-0.007169106311673907,-0.011149204231221982,0.04780220559747018,0.018875528160638436,-0.01767302686383511,0.0406763370312117,-0.045113584771056654,