encog,BasicNetwork,java,3.0.1,1,1394783527532
[BASIC]
[BASIC:PARAMS]
[BASIC:NETWORK]
beginTraining=0
connectionLimit=0
contextTargetOffset=0,0,0,0
contextTargetSize=0,0,0,0
endTraining=3
hasContext=f
inputCount=252
layerCounts=5,151,451,253
layerFeedCounts=5,150,450,252
layerContextCount=0,0,0,0
layerIndex=0,5,156,607
output=0,0,0,0,0,0,0,0,0,0,0,0,0,0,0,0,0,0,0,0,0,0,0,0,0,0,0,0,0,0,0,0,0,0,0,0,0,0,0,0,0,0,0,0,0,0,0,0,0,0,0,0,0,0,0,0,0,0,0,0,0,0,0,0,0,0,0,0,0,0,0,0,0,0,0,0,0,0,0,0,0,0,0,0,0,0,0,0,0,0,0,0,0,0,0,0,0,0,0,0,0,0,0,0,0,0,0,0,0,0,0,0,0,0,0,0,0,0,0,0,0,0,0,0,0,0,0,0,0,0,0,0,0,0,0,0,0,0,0,0,0,0,0,0,0,0,0,0,0,0,0,0,0,0,0,1,0,0,0,0,0,0,0,0,0,0,0,0,0,0,0,0,0,0,0,0,0,0,0,0,0,0,0,0,0,0,0,0,0,0,0,0,0,0,0,0,0,0,0,0,0,0,0,0,0,0,0,0,0,0,0,0,0,0,0,0,0,0,0,0,0,0,0,0,0,0,0,0,0,0,0,0,0,0,0,0,0,0,0,0,0,0,0,0,0,0,0,0,0,0,0,0,0,0,0,0,0,0,0,0,0,0,0,0,0,0,0,0,0,0,0,0,0,0,0,0,0,0,0,0,0,0,0,0,0,0,0,0,0,0,0,0,0,0,0,0,0,0,0,0,0,0,0,0,0,0,0,0,0,0,0,0,0,0,0,0,0,0,0,0,0,0,0,0,0,0,0,0,0,0,0,0,0,0,0,0,0,0,0,0,0,0,0,0,0,0,0,0,0,0,0,0,0,0,0,0,0,0,0,0,0,0,0,0,0,0,0,0,0,0,0,0,0,0,0,0,0,0,0,0,0,0,0,0,0,0,0,0,0,0,0,0,0,0,0,0,0,0,0,0,0,0,0,0,0,0,0,0,0,0,0,0,0,0,0,0,0,0,0,0,0,0,0,0,0,0,0,0,0,0,0,0,0,0,0,0,0,0,0,0,0,0,0,0,0,0,0,0,0,0,0,0,0,0,0,0,0,0,0,0,0,0,0,0,0,0,0,0,0,0,0,0,0,0,0,0,0,0,0,0,0,0,0,0,0,0,0,0,0,0,0,0,0,0,0,0,0,0,0,0,0,0,0,0,0,0,0,0,0,0,0,0,0,0,0,0,0,0,0,0,0,0,0,0,0,0,0,0,0,0,0,0,0,0,0,0,0,0,0,0,0,0,0,0,0,0,0,0,0,0,0,0,0,0,0,0,0,0,0,0,0,0,0,0,0,0,0,0,0,0,0,0,0,0,0,0,0,0,0,0,0,0,0,0,0,0,0,0,0,0,0,0,0,0,0,0,0,0,0,0,0,0,0,0,0,0,1,0,0,0,0,0,0,0,0,0,0,0,0,0,0,0,0,0,0,0,0,0,0,0,0,0,0,0,0,0,0,0,0,0,0,0,0,0,0,0,0,0,0,0,0,0,0,0,0,0,0,0,0,0,0,0,0,0,0,0,0,0,0,0,0,0,0,0,0,0,0,0,0,0,0,0,0,0,0,0,0,0,0,0,0,0,0,0,0,0,0,0,0,0,0,0,0,0,0,0,0,0,0,0,0,0,0,0,0,0,0,0,0,0,0,0,0,0,0,0,0,0,0,0,0,0,0,0,0,0,0,0,0,0,0,0,0,0,0,0,0,0,0,0,0,0,0,0,0,0,0,0,0,0,0,0,0,0,0,0,0,0,0,0,0,0,0,0,0,0,0,0,0,0,0,0,0,0,0,0,0,0,0,0,0,0,0,0,0,0,0,0,0,0,0,0,0,0,0,0,0,0,0,0,0,0,0,0,0,0,0,0,0,0,0,0,0,0,0,0,0,0,0,0,0,0,0,0,0,0,0,0,0,0,0,0,0,0,0,0,0,0,0,0,0,0,0,0,0,0,0,0,0,1
outputCount=5
weightIndex=0,755,68405,182255
weights=-0.3194582266203795,-0.026455717163477176,0.028155871506385433,-0.14346322152641747,0.002439574651135244,-0.0472204992607185,-0.05178690188090464,0.20903852975310475,0.11247332051134004,-0.051131723199174764,0.014431449410991089,0.003660986672456522,0.04281073780168633,0.24444862954670776,0.0859029686988899,0.026866890472494288,-0.08842608849935363,-0.1772366051401942,0.08603002969832106,-0.16684007114471408,-0.02450721711925305,0.023670524146872804,0.21039168241167766,0.16159470731047434,-0.10535282667094091,-0.16337196022056763,0.25777692623637605,-0.11320745728092152,-0.05118421345291523,-0.08804884135387657,-0.021992251714112464,-0.12824635020707542,0.13141484890451183,0.1571915578061287,-0.06124528445321615,-0.16930920621780948,-0.0444180065069491,-0.08548296516314965,-0.031085229730134188,-0.12008230495762506,0.0036252886374288384,0.16365648437107835,-0.1385322771099332,-0.11834401780461247,-0.14215378055693093,-0.15487663777730393,0.015261446331825405,-0.18399589919367892,-0.03719638411759306,0.20092155796981073,-0.15228157125775657,0.28988382841700305,-0.011452103698424386,-0.021870779529659087,0.13879276953903846,0.19239089741789753,-0.04960546602061157,-0.027362376574060307,-0.04155080952828852,0.13649503750500336,-0.1259793428274244,-0.17583627736892143,0.030947221351148465,-0.051175317755713594,-0.1540952490103541,-0.18193125305074093,0.16493413062956028,0.052768284402127975,-0.1370740325668382,0.09909824118139637,-0.2672391924360052,-0.029460872036468327,-0.1097623228337742,0.11834309158503578,-0.25901708110191496,-0.2742139905100961,0.19907115665693484,0.011645295269844213,0.13105615071696325,0.011410669680190822,-0.1701874014505344,-0.03245848460355414,0.041298163116039316,0.052361021531418035,-0.014135285880532497,0.06893626598081187,0.2988469093766863,-0.12049265779931392,0.10078804820562512,0.07424919542772022,0.024271540605373756,-0.2368156176035725,-0.09807214833285925,0.1611491182838691,0.05782350309558545,-0.26737001922652526,-0.017116538379656394,-0.017570912686843968,-0.1706140415197968,-0.03445339183711693,0.11823148316798089,-0.024801496806118133,0.06964156551767699,0.002215400198488516,0.20690762750669509,-0.19643158258944934,-0.1717386179125287,0.13841986287420047,0.21277229253405913,-0.1775108856934664,0.06900656987841924,0.09178417269022729,-0.13408127362286734,0.32472739676954077,-0.133750585598864,0.006918699336979047,-0.0012147263552005508,-0.06280163076923696,0.04907565154864756,-0.12322040956594232,-0.027145805942971144,0.22524145960531028,-0.3825052811894711,0.11881754591658655,-0.21294970624136614,-0.06767128375529054,0.07341961222041128,-0.256638602516127,-0.014613508605178963,-0.08961702601915374,-0.09598950037994547,-0.12962779218335654,-0.0008548082169354017,-0.14774102471695308,-0.10924716768456028,0.04991546701006361,0.014583201999960514,-0.1303901383716284,0.19666837796040829,0.1597325275490257,-0.01149222778443868,-0.06210088205647615,-0.07672221085932172,-0.19389296558846342,0.15419096053786,-0.015058948476093712,0.15764889224081002,0.39296211484190025,0.5037906369847039,0.06048662479945371,0.13385185488069984,0.12679769655532683,0.15602613103805815,0.01268799564873673,0.1437084391253037,-0.07864979169815325,-0.16301718557704184,-0.20970008815802835,-0.024516194691806728,-0.018494307179259782,-0.0884223856013993,-0.11179067485947443,0.05500103385485706,-0.032222470962908166,-0.04877323137137824,0.153829373305803,0.12783500031761436,-0.03548176271434107,0.09825568004548546,0.06565022105090773,0.12414819346040408,-0.15751120664922363,-0.0722678350811859,-0.15410017136908083,0.03013833614384392,-0.16541395728250607,-0.06706845687444263,-0.016021998476773335,-0.07246284362759886,-0.01263059870825813,0.18125150389670244,0.0993643058248653,0.09981613444291029,0.06161346585419418,-0.20565963274528723,-0.16549596545255396,-0.1433028679598457,0.1415509174409379,-0.041851600560075884,-0.18120519908458674,-0.06961293973425722,0.08625007395956463,-0.23538461784701512,0.011377739558602554,-0.12473523320513304,0.20239877600759756,-0.11490681394994891,-0.12368217869706193,-0.09334357556223942,0.04527904492578407,0.033848843101224546,-0.05212297687347933,-0.2171440746440294,-0.016813565604476614,-0.052086751534469414,0.13042918662110836,-0.03246432542948688,0.0703070429969071,-0.06594271352315517,0.027031877882460455,0.020223913356675356,0.060333194552930625,0.015888747143312964,-0.15367988006481215,-0.01184354690938484,0.1418511696960895,0.357350177272111,0.21917801137121765,0.04731109958932935,0.14190366160009635,0.01250869585194592,-0.16661958687030062,-0.27164272452297467,-0.039411421295636434,0.18931323971687716,0.334438357562187,0.08401560338257334,-0.1391637717965729,-0.03835040588523102,0.10716450874414912,-0.1347383545812713,-0.015296528751860109,0.11878556705135243,0.10406912307026892,-0.022005922013393936,0.03663353430338462,0.19290620681794854,0.20074156122102643,0.14789192140281396,-0.1297697228062899,0.20221478126070103,-0.16612864974410638,0.2905961083626846,0.10120053802839246,-0.2569138151228684,0.003080609039454999,0.1839859112601557,-0.12529346532770627,-0.21690225368232227,0.28544645682516545,0.059667985756247106,-0.03231686935684233,0.02678898875445245,0.19399214280214974,0.02654734725530226,0.1728424910429886,0.011732606487292546,0.08667552602715592,-0.008299047817962589,-0.1432021167863223,0.08909304149107106,-0.005971396419250382,0.2897874741473419,-0.0886273291686104,-0.19480147015815863,0.08602696344943743,0.03560853191436243,0.1077016803844403,0.1701101344245186,-0.2121516457258081,0.01831460297418867,0.19107250176836485,-0.3392808549572761,0.08950274672559634,0.19760965643818088,-0.14317082320919503,-0.034713015775481255,0.11005857586330815,0.20776730401626992,0.07168163076198251,0.06615812574173995,-0.03862522241021725,-0.17489735514369728,-0.16616679681265578,-0.07286298095039441,0.059108383653760255,-0.048571368432757785,-0.0064876062848950936,0.17972653816097342,0.016514726922362024,-0.025925665083809078,-0.14467212168873045,-0.2099860103179441,0.010718584605626844,0.09295717335436067,-0.1315584756877909,0.057255020795675626,-0.1201696886347525,-0.24932255255318747,-0.3031130917750379,0.022672782736283856,-0.17053391061447856,0.3969546212392244,-0.3078607066433246,-0.16289988261423372,0.12393543736533955,-0.12279606712604506,0.05872916710776148,0.06514017265097251,-0.09484170439518534,-0.00309019428310722,0.09832682945381079,0.16458019501351456,-0.06244914343958521,-0.03610944379688405,-0.2234180897122911,-0.0740794500639925,0.1659636245119396,-0.014988511348955406,0.06838316266397032,-0.07590747718946636,0.14685985734945115,0.015892806486585146,-0.004863794122112229,-0.17688860002990356,-0.26469741681026887,-0.06011432188521571,0.00888784136649876,0.012022038073263623,-0.09958976976182402,0.08132879107075909,0.16628470565794948,0.17241091530425195,0.15536223189346504,-0.17298903597593787,0.11425870154841122,0.00110618658189118,-0.19921307147818815,-0.17182206769429875,-0.12759228318866622,-0.10553504891522303,-0.06378352676714161,-0.023442783715039828,-0.0851216468186549,-0.0008966560138952051,0.03190540793297971,-0.028226487357684824,0.006023369123524817,-0.11466949997404373,-0.22475569001721285,0.16662451384494642,-0.20549476077210277,0.061371968658578455,-0.465655215894658,0.09690146951814761,-0.08828901908479221,0.19630229588947057,0.04955705137929979,-0.022613332171243023,0.19567470777173845,-0.04024913493476974,-0.07540052350757066,0.08548517405213167,-0.05997391443267076,-0.10977730346210733,0.2220208406379256,0.11227373366865556,0.03443195952875304,0.047241969294691266,0.22698882682186894,-0.12839711580861313,0.05239619988517779,-0.10000071627648169,-0.30894776496652715,-0.27764915306929655,0.0793090942177647,-0.0001714925904959249,0.18410845272140658,0.050251856895358236,-0.022976726082166953,-0.018191973839116384,-0.25661370702426495,0.13819021016633704,-0.22148535034284375,0.09701508076662586,-0.17045490933217725,0.0802470847403673,0.02720509440315937,0.03817433225432095,0.06285207068550121,0.04690008533806398,-0.07898477450297971,0.03232108532509369,-0.06849024834993236,-0.12103765882594679,-0.018844529114676736,0.12543922643970423,-0.022382053559642907,-0.013549079483047484,-0.20465316400100098,0.06504964022065743,-0.0012817678400898816,-0.04873495187980596,-0.07302718720617389,-0.10590246793376717,-0.015096681183282924,-0.15240424333880753,-0.0007216567953224002,0.04556997047296284,-0.05304118581028636,-0.020471234130837627,-0.06137769538547164,-0.12394140742398253,-0.0838428866693123,0.0016715128542433642,-0.05201217514710189,0.05913217409702921,0.020357413235528247,-0.10229644593311131,0.055662148841476855,0.0024924899391365637,0.006140749224458476,-0.2881578199311996,0.025761985100507964,0.13861185590367103,-0.02481389365749619,0.06408523159727707,0.13522722918882304,-0.01006123421511285,-0.19471371968089898,-0.13417736473196484,-0.1325840000825866,0.3303324136482277,0.06771593394995627,0.11042097193136151,0.0014361686259360402,0.05102392939669866,-0.04123884742882043,-0.03804522057539735,0.24138927319586995,0.03242195515523074,0.06645980405591739,0.043794938638353036,0.13401112535086682,0.10208161575063925,0.34946066658735164,-0.09183785139718063,-0.048535866053393995,-0.018003521547481437,-0.02941126219362986,0.045867748569060944,0.07144028235895172,0.20623160259913448,-0.04602882613277296,0.1424671861861451,0.09940942513387228,0.09492794789606013,0.010056411407192491,0.07046507347736243,0.24795037051158383,-0.0965111964190657,-0.06857560565263934,-0.12688986615006162,-0.17794053521962772,0.09623945490856352,-0.059019039636750176,0.07014090502216754,-0.001521120394763441,-0.17701296630727678,0.2420161549738504,-0.09427809025326993,0.09368634096460823,0.1126209207731472,0.17485270668675493,0.1006629575005303,-0.04097918073940303,0.0554004609636783,0.32010232390821824,0.08941711078775452,-0.04790516939764372,0.09916740912081808,-0.09852789943358077,-0.269570819438819,-0.10523390042546354,-0.08800846814182367,0.02118499149975181,0.0531112175366727,0.08412907097784506,0.13565846844269056,0.10603449792668045,0.024260478497668752,0.11346501685423546,0.12562213638558664,-0.03242202124692031,0.1903462716768183,0.06544156152234164,0.13904649040134012,-0.12921883210446378,0.12222096970355735,0.19267313029196556,0.18652306503186017,0.004537250448756318,-0.1096866461744701,0.15344011070501182,-0.06134505855886976,-0.03400384134646079,0.16280093383495245,-0.3525685464329272,0.029742094562006462,0.08048085446554186,-0.07848617639698051,0.061389546269092564,-0.03182990763262485,0.14069085465215672,0.08458144002111581,0.05678516953490065,-0.014946148181930288,-0.15939092828204232,-0.08751020387105744,-0.3280342386859568,-0.197236405641701,0.03867878418625493,-0.1982200994775585,-0.14087248855786771,0.33677820965645877,0.2838061600032288,-0.24727284663244833,-0.17462670761724494,0.12953700373389274,-0.17639608474717214,0.039395954194556056,-0.025018957240774253,0.16133537234459275,0.07177364716484533,0.1673502305405977,-0.1174989989523104,0.05332749902384852,-0.07172298564844834,-0.2801138283519546,0.022999174478242207,-0.09919084883574994,0.07412306947932364,-0.20129407419261852,0.15018725261153976,0.13669013543318329,0.12159969253060794,0.14333837682136855,-0.09711169822801057,0.037186104083515165,0.15624952089225552,0.22012214103535468,0.028825570331258904,-0.020149467242701266,0.018904888198187128,-0.052020920514565534,-0.03898285801799844,-0.08562941374932385,0.017047576819949364,0.16059996967175175,0.08150115786147485,-0.02696588189563129,-0.08274871697583136,0.08037742769942648,0.06646346253555058,-0.0242693194188523,0.21203807870829913,-0.045459314080623765,0.06188751552560349,0.07692413163501777,-0.07291016968050695,-0.28684242220995426,0.1317421777309805,-0.0395292325718898,0.14816919914157284,-0.3770290501497036,-0.013334736018492815,-0.2072549882454709,0.23837446362042605,0.07092563467907209,-0.016987493499410193,0.13997466833344097,-0.014134716138876754,0.04061897056323877,-0.24850903748723369,0.16754545859725575,-0.009844054215463395,0.22374432070542638,-0.08967339802898151,0.07247790500950081,-0.12775535893853346,-0.12051854616419437,-0.12480306643433342,-0.09795191782309338,0.12186227523235953,0.11312622624450953,0.10200802855671677,-0.1612914381306962,-0.01352566428608567,0.1377852591208853,0.09139245646189331,-0.029083017113971456,-0.11709581127485014,-0.034708480006556144,0.08465277163431333,-0.13982189804604914,0.08485960621471239,0.012114582142026244,-0.13015848119585632,0.11962590399388752,0.10316398959121283,-0.046691128306587726,-0.0848459876411481,-0.0934840759585811,0.011033922439919977,0.040913245419705875,-0.070924734147144,0.041962491319941786,-0.025124647740422064,-0.09227312289332612,-0.17846123098276148,-0.1205954081776092,0.12299908206509393,0.03466062362679335,-0.04989919768461461,0.06027515041823715,0.03802458805835794,0.07114559862726795,0.03368439886623688,-0.02314577567045749,-0.0034685437054938766,-0.06312182088529346,-0.005580141498504244,-0.04660268263962493,-0.04335497773450867,-0.06312786651401292,-0.11951586193055078,-0.05469841042908503,-0.12267941089204078,0.0703787179229511,0.3174037378482051,0.050594715674618755,0.12896816570983513,0.15255986344636138,0.029745952124706796,-0.1687652015839375,-0.0410992168179811,0.1624586060684633,-0.030708750855134085,-0.010652369543279255,0.12556531291869547,0.0722845752926781,0.2839343000090286,-0.11551461673017109,-0.09656793681567385,0.014644073597957984,0.40404633424086916,0.02105779232822509,0.008606016601479041,-0.09137942562788028,-0.260816243530461,0.0634229851720189,-0.012392758087637927,0.12393157104259146,-0.011479562390565235,-0.08748858180063188,0.019771394378361364,0.15758052260332456,0.08162017725946692,0.09803041955915959,-0.06631804109295944,-0.10694684220879397,-0.10129910241795492,0.07314936611531325,0.0032389846996739224,0.6480287614063939,0.2784733383882253,0.12898793132888614,-0.14118684061631884,0.03539683717418374,-0.19342946891622556,0.025974721082289143,-0.01595486109208117,0.04484243437605025,0.09980770666681507,0.11225904541047473,0.04404774122694882,-0.08277656612982746,0.05125591361875731,0.04689345130608881,0.1045938314286484,-0.6167960161197048,0.04780955606234299,0.07416275762031345,0.013685293957499784,0.08058592326174009,-0.08677807522117463,0.03670444464556284,0.04997672079276778,-0.042121551630932196,0.0021593153599965866,0.10695169306663833,0.18128870066544395,-0.23255090765175115,-0.09388869182222184,0.08459346696292946,0.04133867933680257,-0.17500423440666465,0.04596046553250732,-0.14261531049400933,-0.01169316944148157,-0.019842057608615828,-0.04419183949431159,-0.0439357481089177,0.08980390807278363,0.0008706806583687655,-0.2940806483094649,-0.027544172200847237,-0.1481845284375004,-0.016239319187256476,0.04102211274003325,0.022945648474197222,0.012977986156856558,-0.031032652106476363,0.07681985955478093,-0.04032506101824171,0.419172350269771,0.11067806145264518,-0.09130093008906319,0.12135749209589708,-0.05650228047869866,-0.2604961036159895,0.14708442616914125,0.02533242498146202,0.10516240147686007,-0.07736755538962833,-0.042149600871151056,0.14350001284911476,-0.06414183529028926,0.03926302473095786,-0.020345659994770497,-0.0015764848385142237,0.0354225195914177,-0.1396422165370266,-0.26183552564860624,0.08858922830625805,0.004202843297203449,-0.12298013920537797,0.04412320302524869,0.05750329357071031,0.0028568071270566988,-0.04879180051548577,-0.0032290774580811415,-0.07843380065078967,-0.1495172228368272,0.22158844418046586,0.04909750770608639,0.05578626075006092,-0.08420387890030437,-0.008936931030792307,-0.010042372317543614,-0.006253703957853615,-0.05655506601050239,-0.023766600779668162,0.024789919685981803,-0.031011129083296105,-0.020278283744373602,0.015658064791313257,-0.027328880726833125,0.02443629903909882,-0.027367805762750465,0.08189118951270462,-0.05629519168329392,0.03511052332650858,-0.021219568543869454,0.08053765017195222,0.005727091681252147,-0.023833941877783503,0.03732335604272412,0.03188291148673133,0.05279547627536183,-0.04782817502643534,0.07647734045589269,-0.18633513231214813,-0.03517011540605203,-0.023795397799539094,-0.007542250673608244,0.06786648348552507,-0.01662884733406532,-0.08828857097525475,-0.056508192060453336,-0.00930782727076829,0.027576903337160143,-0.05022315006859511,0.037118766342501004,-0.030127528314260636,-0.01921443774740698,0.002885993002726679,0.023380328217273438,0.07363608354156599,-0.005284583878184498,0.07759818461468679,0.059889132960578566,-0.018600303992658933,0.009510358018096845,0.031241947678564638,0.06870939728844024,-0.034400765851357276,-0.03707672248440948,0.05508181920610975,0.013453651246687862,0.06607005508316523,-0.039026097944299364,-0.031776937285582535,0.032186407706645985,-0.024814003717565418,0.08459531473460108,-0.026275485718640745,0.027179562935710434,0.008640840489606847,-0.010022408973156757,-0.09104106944074956,0.04625638401083102,0.01192152532706662,-0.05207652891300194,-0.04794825613072858,-0.03593380104966832,0.09692214744804441,-0.06221809071460111,-0.022294719197741893,-0.014641725689148693,0.08464136306217405,-0.05648831621549743,-0.04516153117397986,-0.06455978451828229,0.020455213862594655,0.042287260041536295,-0.04990840346691517,-0.032422203142706274,0.05612332866575599,-0.046458264359602174,0.05500049286657379,-0.0760486992717026,0.004200099989529442,0.02757137335324073,0.05532211525616841,-0.07416249359388642,-0.013075370466728353,0.007802798065335583,0.02242224217050382,0.07759152263270638,0.10161333766612524,-0.03285057063223207,-0.0522983709619173,-0.018899415554768772,0.02561308681652377,0.015774819296544472,0.032855126513102385,-0.0574332604730331,-0.023484432690533352,0.0453604380382082,0.04979759049908771,-0.02495626297288468,0.008129752468510375,0.001266436479702739,-0.014235633887581322,-0.02789275452381306,0.02720317976950877,-0.055157863489614045,0.006344865077051787,0.028837650038042312,0.009306757704519285,0.04970066389288278,-0.03949321958412407,0.09215570555737954,0.040297728203147525,-0.025107860222291854,0.019179545309081388,-0.08722474524189268,0.01913880045479097,-0.011656398663424604,-0.03388231138763884,-0.05925789172090388,0.0954362545060326,-0.0253806892521514,0.08607638597726468,0.012092461404880456,-0.01721101214037943,0.005655580806354947,-0.02397212015558603,-0.022349898510134532,-0.0009974477672214388,0.047379291010795105,-0.0008891682598032185,0.009950092998095869,-0.031165030407671403,-0.056142914217775654,0.0025158946324980017,0.074750498204263,-0.0214317786801101,0.07912121172938975,0.020857549104781298,0.049128728110210865,0.0018545565627417276,0.004833833822619265,0.013105006908716849,-0.017263982997069854,-0.08097322443182303,0.001064716281371834,-0.02947500924794052,-0.041241561968059066,0.06468373222848489,-0.058226511075741234,0.06523539311289109,0.0450249042766893,-0.03036892156792139,-0.034841077011791705,0.054354084246660966,0.05679092365016174,-0.019163473066556816,0.12244116362372999,0.07115779629882457,0.05879330469234068,-0.0021420351657239047,-0.11671491310686274,0.015289128072230986,-0.05189656936835783,0.03168332413946004,-0.0010124925530281726,-0.04281291617289748,-0.024731533917759996,0.0027531864530450025,0.1032559583420927,-0.06397669843369928,0.026098596788851354,0.031115441010511627,-0.015597954287623743,0.1541304772376311,0.006662595433581825,-0.09433570845513331,0.13979315524321984,0.03482339305862474,0.1057875836178144,0.07530899354542393,0.15042385471411818,0.04281437746194544,-0.06538828335910803,-0.017982212887889037,0.014522410805304923,-0.037615022988844185,-0.0064255154198050845,0.07757463315760005,0.09797804322454928,-0.03848084146324623,0.05715525063105161,0.07441922763774257,0.013163436241641525,0.0719519349288351,0.039382138834395605,-0.00256192521534441,-0.03419086426001974,-0.028250607992117874,-0.10371536548177859,-0.011038320856383317,-0.032291902978584724,0.013221400054726648,-0.08808048673927857,-0.05226373959694547,0.03372049551526786,0.045053574128029766,0.02354354050295803,0.052493109113932346,-0.034661866459666874,0.05057924490246078,-0.05887048146129904,-0.009904070888102273,-0.011522082721405119,0.053718606042161825,-0.06350712754092935,0.0019477558816061277,0.0113677994718465,-0.02302340416070265,-0.0209250801743234,0.04239042234480989,-0.033324417728564266,0.014863267925981177,-0.024598143135923498,0.06786029822505688,-0.024028821495333596,0.041407971964529035,0.04249706739454412,0.043286356382382186,-0.010530372582152591,-0.09631137917924017,-0.005334969124064835,0.04164993741221964,-0.06378873225727087,-0.035606875773469014,-0.029824077049370686,-0.09537900338990132,0.001623349054545947,-0.1324503732375062,-0.042596111835489905,0.08348762891539908,0.007269327411705812,-0.04198583115265259,-0.030470023175794187,-0.012293495369893132,-0.03457155997421284,0.025789634511329863,0.15998487112941512,0.09362906977155284,0.12868814300486248,0.02443138526993997,0.0096752480908537,-0.09307309410951918,-0.023761492496555583,0.062354953707761965,-0.009922226073994336,0.020184649557425022,0.003991784021802131,-0.05116266671925065,0.05306697230360605,-0.007238131548039537,0.03443018833861135,0.0734368309829413,-0.02099384336012489,-0.06642809991061414,-0.04011121275114964,-0.03368177369325596,0.002033503110799066,-0.0028875941330919045,-0.06530275833420775,0.01711606210956591,-0.01968409662862589,0.03503334955124228,-0.009498051244889925,-0.058786451398168044,0.10446757666009193,-0.015259227314265787,-0.0903487777210377,-0.025409484533795313,0.01305412229237476,0.01972937614400526,0.006612289608838657,0.03006568845841772,-0.08372662099746345,0.03731985825652938,0.08611201658268366,-0.003681943910595303,-0.007547315224794724,-0.07362852433788077,-0.06685277989531918,0.04749391370051649,0.03042548433347082,0.016211583742032985,0.026008047054193722,-0.09232839334199254,-0.09885216150664175,-0.0879184190040346,-0.046343764493983065,0.05559892272873943,0.06678569068730623,0.034235665127976427,-0.07714198876888935,-0.05420011631287321,-0.013540633768168117,-0.04833260085307165,0.041648804758502786,-0.056316634270951425,-0.14422370179900396,0.050417946361225395,-0.0624721730010643,0.03489483841537401,-0.012575923208227275,0.05564299743850568,-0.01551783325559573,0.03297875513226352,0.01300391790282277,-0.018754701637496023,-0.020297677797406634,0.10180824340982245,-0.05734525992230801,0.01695143700052581,-0.011957436221211738,0.027125823280282554,-0.07929082132683568,0.12800446582102185,0.009145404510726636,0.03127151288136625,0.03620065852254659,0.0219666286659437,0.04323739263116958,0.047986943622045655,-0.0912642740819339,0.009291327819510219,0.11237156475533891,-0.00038937608055548707,0.045731633716436376,0.06692075286122172,-0.06017771849290479,0.13394869620723962,-0.036503931928552634,-0.04898852305671073,0.022797941147864587,0.008949134857417109,0.05997765641185271,-0.014740169665591172,0.06928806618440059,0.02302718593080765,0.043152357929996256,0.041790583459932244,0.03182760169061881,0.09001298209101294,-0.06248468578476157,0.0009554747578069281,0.018011730985881068,0.02284084234698887,-0.0599228013616219,0.009513385680785153,0.002029508018028797,-0.0091817184029632,-0.034736074299362846,-0.00579241664245083,-0.015901157832271754,-0.035995222279067395,-0.008161667824021394,0.07248923944084057,-0.006505047486380761,-0.0011200782655537895,-0.03573590661124936,-0.10636347664372897,0.01590681542120895,-0.037281820324058704,0.021624363307799217,-0.10872121474210422,-0.10017645160927105,0.008501341222178032,-0.0938470383791973,0.06321480280243164,0.04121829020059095,0.0217994203319447,-0.007785857526082067,-0.035671225480759836,0.026267670331484638,-0.0855518878574326,-0.014363416583874956,-0.01506157939246203,-0.004628416763327377,-0.03177406167629204,-0.09406611783984874,-0.009110091136954861,0.09959172262240197,-0.014903243908782586,-0.00989377923025696,-0.12777246277534007,0.03239273773451481,0.014443367340844442,0.03808457382842851,0.018354473009130658,-0.016283614754044537,0.08281074094081375,0.09958714014919211,-0.10345506953854756,0.08092807266924935,-0.06377146852776303,0.06314717772208396,-0.008961137870084403,-0.052443373302806136,-0.04673415024827488,-0.008844724448769103,-0.014636335201803302,0.021072997274662213,0.05216058995826624,0.004773986159349005,0.034158349966716316,0.11990716357410315,0.03106810123530112,0.07520833320825036,-0.07227654362175284,0.043712435336422266,0.09645281568043769,-0.014638206874186115,-0.05957011303426884,-0.05289116033731748,-0.08923229785972657,-0.05579810106814427,-0.05666021754768491,-0.06619079936058932,0.036344784705668466,0.060062337584465365,0.0026074073081411,-0.05343916250323774,-0.07946561092865302,-0.06290770228378045,-0.03182705697916202,-0.047306128019535265,0.013694793713997988,-0.004188088600329663,-0.0834236534199646,-0.09714633081105782,0.020338299590326934,0.014991699648543817,-0.08569362888083117,0.010116990136699816,-0.04428133791161943,0.13676802799804189,0.07076966392473619,0.01082048720475113,0.10668969862209435,-0.056381674976420056,0.01080414242160194,-0.019555435648821787,0.04714436913348737,0.01962221038578273,0.025656300665263365,0.02871282225813642,-0.004896630903322113,-0.05413113549230534,-0.04010345032660877,-0.05709202279364976,0.0402387150261265,-0.014880649773512665,0.06954051134151654,-0.10975814491628783,-0.02317832256294236,-0.10392534267024658,-0.013453321893399699,0.024267693884732464,-0.020210180524755518,-0.004174136123065153,-0.06846995119799497,-0.039306911686432314,-0.029213515703319884,0.018659238662795074,0.03917766164680285,0.012840349940743413,-0.06999509046151227,-0.16877361071348854,0.05053143922454387,0.08039988948633749,0.007944272320949507,-0.03161294526968661,0.008298818493383216,-0.03822384721660414,-0.029876790792617437,-0.059356114791835,-0.027476328838830454,0.002583941198338375,0.04086106875764063,0.022930894620198653,-0.011281707931358067,0.044951951246128115,-0.059027560961751234,-0.009123183600953995,0.0022543232612556438,0.08550489838925031,-0.013129812150323106,0.07339091974444185,-0.015066126229796918,-0.06681548850009915,-0.011799291784236908,0.03385973856854053,-0.02130364224920425,0.0320680523440341,0.06491235020210803,-0.0678365939212912,0.015465078809217223,0.013980117857596995,0.023804701596342508,-0.01510574542397504,-0.02634733216711377,0.0017046285863274915,-0.057140387119254524,-0.05535597404911057,-0.04361260470339212,-0.030251108798324662,0.007517370211786497,-0.09564350912636772,0.02298456417583426,-0.014704242358058266,0.027145126019301448,0.0333417902072524,0.05157119079417597,-0.0028986250322790568,0.0048895196598352725,-0.015508867644082488,0.01887431496898825,0.05830995921535289,0.01882398212354296,-0.005595173347545201,-0.008214651262381318,0.001017610744618726,-0.04144067214220065,0.02360081467366825,0.06122833272487176,-0.041623251011837316,-0.014938119631380217,-0.007949564407859627,0.0245678827396605,-0.03894720649582266,0.002207370027148929,-0.02069875045094499,-0.0009479825930584641,-0.01421401120741025,0.02903075216722805,0.026575439340436706,-0.018405624828464705,0.11071583265931652,-0.010082090703974178,0.07965289496946924,0.050436831248092194,0.040907416062452885,0.04642137861384979,-0.0005488276727253667,0.01934425368579429,-0.021026027239194996,-0.0185222958593103,0.011599752088613403,0.031783241891221524,0.00048470373186913963,-0.06768282598877778,0.07564242415031389,0.016535717591800256,0.04085611212537107,-0.05012790988557796,-0.004950999352346667,-0.005193454827240671,0.030610085072694367,0.058808995870703304,0.018116291116466534,0.0006010016444170416,-0.03165322681562538,0.00939231327734081,0.01938356641015088,-0.00964389320129644,0.007425292608092593,-0.028549237011640843,-0.05006796268076249,-0.015325220195317702,0.016079812987984672,-0.05721469018730886,0.004373505574101607,-0.046713528499525855,-0.013852303432085752,0.06408291988747612,0.004304886021381535,-0.005739731232335323,0.008670453329445105,-0.11033889555582448,-0.021456916910170203,-0.04012091384840877,0.03598555254715967,-0.0152985122253765,0.009858609200879949,0.010063228843859852,-0.020613735190526918,-0.010467221143396516,-0.014256480668437928,0.07105684749503396,-0.024652178249455915,-0.018264577509314067,-0.06998472853049448,-0.019858613450916395,-0.05112590172137653,-0.0105000394782715,0.07042271289968459,-0.010878278002041563,-0.06169473637587424,-0.02815080081317571,-0.03171521986526115,-0.046495778401417116,-0.04413348473922574,-0.00118399105567468,-0.017236131536793077,-0.01943279903176897,0.04449939107917758,0.04110066716156989,-0.012246018064367826,-0.07562490531910239,0.013305995201444053,0.0705566959798525,0.0150347536166083,0.05718218558540505,-0.009972235703612602,0.003621524190924034,0.04710177960229375,0.06331809521567577,-0.09282757177902322,-0.03997561294556611,0.01839014609564389,-0.017383874149806085,-0.028471376616429258,0.018608456154256964,-0.06902885444103361,-0.059052809988143516,0.008205199436249809,0.04222146736659841,-0.012487566845970681,-0.0229575864814137,0.04834704212908364,-0.06710185595810768,0.010960843615656303,-0.07525192474615197,-0.07786115006708028,-0.040778610787037296,-0.020329776909151432,0.065543878047136,0.02595055852979435,0.04027176491077615,-0.032678716610594606,0.0014009402180897115,-0.01730034972592712,0.010428609690028439,0.02065705781145824,-0.06710428868614633,-0.08333500436450147,-0.01046188892211537,-0.015047708651431645,0.004139238039532388,0.006326018003083169,0.035826862240851735,-0.08012091571217098,-0.000846246241193535,0.023201052511288737,-0.03570465128947054,0.024819094309843723,-0.047282208034613686,-0.0682407656656412,-0.013816307915008664,-0.05122575810572881,-0.031348855289085265,0.0636422598383947,-0.05037462406635326,-0.06262387683830295,0.023996633353138015,-0.0672028227921557,-0.007205753611221907,-0.008418291050966033,0.07733942459000877,-0.017270979537467757,-0.09622809488594301,0.03930387255648603,0.06605169025775375,-0.06342467671153706,0.011148096107400916,0.024732891102097542,0.029264685501781535,-0.024385495466034326,0.09411747063547819,0.04567980962038061,-0.044520069190999455,0.08522587118523588,0.04298263333658045,0.020918376728140453,-0.030232837081240478,-0.026309552011087856,-0.06564257641352239,0.008801577013758067,0.027546229793322358,-0.023414723863535644,0.03199529963693682,-0.0487240779899889,-0.08847587016919004,-0.034750588298572194,-0.061385154699178886,0.0027539420420507913,-0.002936093386887121,-0.013180546372682149,-0.015697500062217835,-0.08612321488971189,-0.028930037872876936,-0.03395625477863684,-0.016521774214468342,0.04776777620636529,-0.01642241872868785,0.05349599780847379,-0.028072116386552465,-0.04136722128582673,0.05089513177558231,-0.0394443616844272,-0.020246556408456545,-0.017195355476170928,0.0585755084441517,-0.038575936079822376,0.08908626064042892,0.06229141272272068,0.04618564529053318,-0.012344856084901375,-0.042016660926524015,0.06406806626743206,0.045948780453150144,-0.06984534749225152,-0.03044609295795323,0.009725359067710103,0.012323486016203764,-0.05940164227316974,0.03194549741093881,0.0628477355456657,-0.023135739256072874,0.03389120415682938,0.10576437408963678,-0.007422465041649935,0.046414461010089635,0.031671756755955065,0.0010694378257300702,0.0060070336444971225,-0.002005165823404104,0.09508620432223924,-0.006544556821657899,-0.032882364417294294,0.051336329030436445,0.10835625892987506,-0.0019859741464366715,-0.00570138625459904,0.019371330541220252,0.011088873030590371,-0.062166465287811376,-0.05330777848546171,0.06500548728853776,-0.07076413950531858,0.018738850863690926,0.053360199438297756,0.010131895187804702,0.0043450335810271586,-0.007126327430235046,0.00003969128028978452,-0.030977233587733747,0.044526952155005746,-0.049429294125617466,0.055165231856421915,-0.035220588047936104,0.0008328258026040076,0.03064843830730089,0.01995108565276515,-0.01751708827967546,-0.005638071507371276,0.055170499251950736,-0.03557091554160822,-0.0882027801825001,0.04643236156780514,-0.03980676798996394,-0.05572907478234106,0.03180582175734796,-0.0012798588933423268,-0.014998446278954468,-0.0950781784500485,-0.04852879835358494,0.012929902009785027,-0.035848044413497725,-0.06484474283789271,-0.015791832820234487,-0.05945472961364859,0.011999006716978315,0.016236082311379997,-0.017253094023735448,-0.03788232544367553,-0.08177682605829881,-0.020993720946856483,0.04118702602548105,0.012804669296485974,-0.004823339836303807,-0.011103732814598881,-0.0992317623256879,0.046856315334510554,-0.05168386453882002,-0.002286542613056902,-0.05056818572094653,-0.04131425087913791,0.05270915488505272,-0.0222021362766251,0.02470265700889836,-0.062272059916806156,-0.054852153195666144,0.01825838894317811,0.04640177771497376,0.024801594582412326,-0.016950784797978895,-0.001601921860713841,-0.009893176649738348,-0.017097160062680493,0.043526914995599277,0.09166619627419419,-0.022575767127620484,0.011507836207480266,-0.062193182648266114,-0.0019517620961389255,0.021573429543464286,-0.019627591326846043,0.07181265576179745,0.07783676795800906,-0.02082958423306285,-0.03642540714464389,-0.025106807499513124,-0.07893939942486933,-0.02154329081601183,-0.024343619115288994,-0.018287795699013273,0.004337482215370503,-0.004623235446945621,0.029422731673872993,0.027729940189704632,-0.021547419497903307,0.0240101067888192,-0.0034108493016610703,-0.054496256394343696,0.020076135405497623,-0.10351828756137002,0.005019892375185953,-0.013097572383901518,-0.04309835717819262,-0.015696620880601895,-0.007997327181865757,-0.053420869544312924,-0.0010564750312668542,-0.023673770692858448,0.016610446098949634,0.07475177319434638,-0.025478095435783065,-0.022147619152134656,0.0028752870648529752,0.05126130778405396,-0.04271143694586047,0.017197100237278898,-0.0042690024765572885,-0.04348760552655003,-0.011751619458640639,-0.09181526417803969,0.01793572521434166,-0.0451180708419656,-0.054237970515004334,-0.025314524318454813,-0.051288310292413763,0.06224683346748115,0.008595729617500675,0.056312173487387686,0.05022222654921264,-0.006997540971556214,0.03542014698596334,0.0652962307130062,0.06446706856407385,0.020983940605153767,0.06577679603460174,-0.04268889254781552,-0.072902417878774,-0.0002925815922392719,-0.029375390487023288,-0.01275244618699534,-0.07390884251843804,0.011505696831350594,-0.008464523483451352,-0.07573082902638907,-0.04327152823825912,-0.0038121369720359333,0.028550029134509686,0.020985880159827486,-0.07458425705396872,-0.03549814531907888,0.07718376579038297,-0.026143483860838476,-0.03949437930197779,-0.06128414268820809,0.008100139755752883,-0.02291892998932469,0.027217067198885732,-0.03172682453264668,0.039962456963574006,0.05976784766953675,0.02699528020574037,-0.061826416389905554,0.01688248837274399,0.02591774684945546,0.05443891633067599,-0.010297296154173338,0.03153547725954519,0.04362255957624139,-0.012925343849466742,-0.07595370723336159,-0.0016643338915140254,-0.034611853778488376,-0.000344884778147965,-0.024653470350615467,0.028699991719817,-0.009823073239227017,0.07310676917131692,-0.04731475291335823,0.04029023638070202,0.018833241178111953,0.0583003942908198,0.02946199121761721,-0.037214381194151186,0.03191664983617306,-0.026683774651669514,-0.003315322981100785,-0.05143311722226937,-0.05063786546280302,0.02287349778076634,-0.047241180813852895,0.007871785976130294,0.06714833549934243,-0.04605438786649781,-0.013171103390307621,0.03004327526748181,0.065651825423698,-0.0007071443745592919,-0.024313393897539972,-0.04968854294797413,-0.008768219864902565,-0.043350731836924686,0.046459452145983786,-0.021109385429678832,-0.03672960331010285,-0.01659798115687504,0.001471057437382118,0.030573761012806122,0.018141819660841177,-0.020134247381119984,-0.03152697599365888,-0.006963730032044363,-0.001538661270905944,0.07195567163363906,-0.02388480570671136,0.0003900159287779015,-0.038922262929370524,-0.08062667236978542,0.0022682235620810134,0.011547711274612476,0.04668747555107205,0.005829856878937052,-0.05962325180349075,-0.05188399008747754,-0.05320859598981916,0.004879557650128927,-0.03500841737525208,0.033009864771306636,-0.010252585273740265,-0.026806595809903553,0.04581356188326363,0.03409753961974273,0.06325994109192551,-0.02391251928743228,0.02000870081456437,-0.024403328994279123,-0.013094443424035821,-0.05340999613975516,0.059584133812855086,-0.041011164746988626,-0.03549826674207062,-0.008255245538459023,0.012632478091441812,-0.07168645715310866,0.020220088038016518,-0.016319829440541923,-0.0171161804230993,-0.02993896550290998,0.058916499206793246,-0.0216434063810913,-0.033128015805635666,-0.006999816418068903,0.007422133331231631,0.011045359213393863,-0.04537298535149194,-0.028483845656034217,0.016644512927913618,-0.03845422169309233,0.03037049742921744,-0.050800016798941354,0.03420497731026752,0.014987438691220349,0.008679861185866104,-0.03018843104172539,0.029179668483278496,0.021313671907513574,-0.010110910314878664,-0.022038054882672645,0.05341135743105415,0.047788251569087,-0.02386551979843251,0.03604220538755742,-0.007380582786348179,-0.011664963095227219,0.05236762116948353,-0.03240596984127743,-0.029522603835254534,0.05129902157641162,0.035296593751677055,0.0031377056340458277,0.058940821593814044,-0.018077229335243708,0.007872097786703499,-0.04070713952893282,-0.017561500001278204,0.021175896719894814,0.03802487452193662,-0.0505047053343036,0.003740506535546113,0.023328982683289503,0.042139136975350676,-0.04466655114115704,-0.002251159627099764,0.022963202825720414,0.04181116669742063,0.04606752301941931,-0.02582980787906733,0.016742209589438246,-0.04773370050854194,0.023020452123379883,-0.019546803492817795,0.05187360551190216,-0.0005056160186754949,0.015324676892454226,0.007328674260931389,-0.0017922076999413192,0.03815967478449005,-0.03852432014261789,-0.043654865202604386,-0.012109101429387708,0.024620933388627857,-0.013798789563546654,0.036726286684600346,0.03231373141543609,0.03509033858981766,-0.02171307185847121,0.03964274162843179,0.020140780189672827,-0.01479138165971968,-0.014734590335945765,-0.053815524254602544,-0.012435414684066877,-0.0324484130184991,-0.03852549614120107,0.04380415020750258,-0.009509043904157528,-0.03076292564686122,0.0059041485953358775,-0.03218229433976332,-0.006915642367778277,0.006623292899442276,0.028411635628375967,0.016302257576691674,-0.00930574338391931,0.029721242880157817,0.042223282961861404,0.018986589008769556,-0.01809368477017288,-0.020959544561002963,-0.05252207142455491,-0.0298310829571812,0.01067168486938349,0.05513694249468374,0.021100725625894656,0.007416227978359004,-0.04603005321795474,-0.0056063835282705,0.007891834213089206,-0.03770786390465219,-0.014430632456572426,0.049587556293548454,-0.05064042266996851,0.01382277753587269,-0.051868916484678645,-0.008318424699459167,-0.05458075067436697,0.005160334262646658,-0.004561169614774138,-0.047857959625277606,-0.062274582476780575,0.050011055637408354,-0.0011744393341766254,-0.003938539349443049,-0.0027948096612767453,-0.03835224506087787,0.0050718439152447285,-0.02041374097547636,-0.0045874837072384525,-0.06638957929078351,0.024797823078494166,0.0034231178276673863,0.008233663305425791,-0.02072158072065092,-0.010323097834304188,-0.08078686021402044,0.02188131948730629,-0.03346069729787086,0.028163189256354627,-0.027558457864615648,-0.019632335161026675,0.030431808919333635,0.03774399831822525,-0.029735595410408086,0.01946582886760383,0.06434982988508665,0.03442846725364294,0.019062532548194427,-0.011480735042353644,0.015453056166086143,-0.015533838089806962,0.011448640229691593,-0.0036015999360083585,0.0039638127728356,-0.04573251547078843,0.01152841939736619,-0.056022686414581156,0.040649603660241534,0.011007525526791637,-0.04252439247473983,-0.01746689384801946,0.00596088522453271,-0.049572055789774784,-0.07511882559310186,0.0004957004501915926,0.010631398100393706,0.008967333722760554,-0.025441397917513,-0.01566272115193684,0.005526896392585202,0.05694334760129192,-0.01676352383822543,-0.02427546892323354,0.0543486532003275,-0.04755088198988111,0.050572048470268006,0.05144832470159628,-0.020857938393760385,-0.016534142018906645,0.05215236650266662,0.03706290080020013,0.0354934667753277,0.02754418680380769,-0.03299544455344557,-0.0003046221987192958,0.047983319669433304,0.033527902831977686,0.043894004564611296,-0.03799277870875906,-0.054515632972275185,0.007634228121829675,0.03683664643281334,0.030153167997607505,0.004705302610094674,0.03385316182305419,-0.03434912003269121,0.025834306149053132,-0.040660157464502834,-0.05876711509640166,-0.08906501523510157,-0.02163866741758966,-0.019842911842146368,0.0581372174757151,0.02329916872972439,0.06191794920844115,-0.005671250234465799,0.030501184087727885,0.06864812004947617,0.013965096031854354,-0.04411064529044953,0.03220762545196901,0.012237017611840779,0.02424091651925903,-0.04651196619466061,0.022844013528639698,-0.07090801072324833,0.05548828205694499,-0.00003846918266656875,-0.07943560676228607,-0.012166023535475327,-0.003274388149582977,0.022881811595331068,0.041861231520439926,-0.03348622785395762,0.004895901943195582,0.010949172032687303,0.03194279262453695,-0.07103930346000781,-0.03496014322250236,-0.006156350783961937,0.014303062766824413,-0.05209028270036335,-0.026448181493111105,0.02429116430570496,-0.024046412928741195,0.04782174504540118,-0.00871082104584877,-0.016822840119674793,-0.029101780871151103,0.022652208131020583,0.030147208401034603,-0.03826530689519252,0.007674099171324913,-0.01277311383956072,0.03617534657696669,0.03364214558323779,-0.047499627293819915,-0.048825087012616196,0.031785689387981556,0.05665275123425757,0.029448915982274147,-0.051257872427251355,-0.028547217477875333,0.046736563903979234,-0.07492833679292599,-0.02052119192429803,-0.0524005670447549,-0.021812194246714187,-0.03959303390406651,-0.05303702978564043,0.03891229811120156,0.005207954133790716,-0.05056343375084297,-0.02897983088444274,-0.0392838659757996,-0.05644083215517408,0.0021727685452057974,-0.006741307709036464,0.037331913488083006,-0.05991303790488165,-0.006997470443393241,0.006748723919849233,0.04584172227735032,-0.002456229208599139,-0.0744314050815071,-0.023040136503403977,-0.01614790808876425,0.025108836715263205,-0.019761597009706873,-0.0051397276556091245,0.036665370997040835,-0.020582600809360033,-0.002486641372362187,-0.013928989636701188,-0.05250133673855371,-0.06025462565328669,0.02678052855945082,0.01591785206586491,0.06079478005470246,-0.022083196181490763,0.010491531854088494,0.05696569278868981,-0.05663111536802725,0.03466311372326658,-0.010487271326358662,-0.011850635490251497,-0.05051961832731094,-0.02693383846011751,0.041008412377191335,-0.066855066263913,-0.048371062717256476,-0.06138600481651126,0.04178977352416316,-0.02720803315559056,-0.009222148065664956,-0.038970701724580205,0.015754556029055,-0.051825975788495036,0.0664184280262363,-0.038947281529636564,0.060221537354915755,0.029845286308847946,-0.05599463495769919,-0.035418027800639296,0.04053265207163596,0.03342612766693846,-0.040315649700087004,0.030668186811469125,0.06386485022285544,0.020508908886683327,0.02118103509584264,-0.04929904577596509,-0.010092925362779195,-0.013172120378588873,-0.08675893279345571,0.01430122283016996,-0.039711320114379715,0.06809393444527773,-0.0233794043418584,0.020195253439410997,0.025122416032958308,0.02837828204246711,-0.01945142196491983,0.05508794593417733,0.02441361997434207,0.045138180033845676,-0.045251856376940194,0.05265549707622148,-0.012268294181561296,0.0035199325898569674,-0.05018081340488049,-0.050457169281882486,-0.07047144034612295,-0.062230169157391976,-0.051532068580873676,0.01850663620925824,0.03291445060083559,0.03494958573878037,0.03091365962254766,0.0369086122534422,-0.03302074299043637,0.01117523835958062,0.015316041275796567,-0.0362215313518064,0.10334550497959483,-0.05429837043282039,-0.00000272072702717596,-0.05036098372813043,-0.0031033321182816482,-0.04247584721921335,0.037763604020158006,-0.0018459962598056754,0.029807761931784717,-0.013270626798677918,0.012731184211429212,0.10554507791963383,-0.03210124214062912,0.0504190070938786,0.04644004905095934,-0.005543558318780936,-0.04927320163843792,0.061891135342744916,0.029801961459141074,0.03190892303251272,0.008346902639717114,-0.0058709961135537825,0.018925134429680926,0.0518746358382753,-0.03469477864644612,0.03579604246913592,0.019009226690537433,0.027670876442652825,0.04876870698803384,0.014908003913635767,-0.05708362809134329,0.01122841141129331,-0.02948991220973157,0.05675671319293585,0.008700495272170199,0.056747744854099974,-0.013740703750461956,0.006761490255553668,-0.04735587185367357,0.008792484526010643,-0.031364197697564634,0.05749620685461154,0.06042979051327035,0.013381733979455671,-0.02349543269600935,-0.04482235205758379,-0.016756593951405042,0.018716927703631203,0.0404379936560552,-0.004364636860592916,0.021122698100687474,-0.03637067242749327,0.036583969836866896,-0.03635621203637368,0.06849796077837342,-0.053322600959853014,0.07125170685531994,0.05755046842862474,0.022028200144685817,-0.06711578262205704,-0.009154678632422787,-0.0464296441320496,0.004103310026996594,0.012957104042285875,0.01609269573148573,0.024525450186660237,-0.01130346878551228,-0.03467525503531164,-0.0034823592716396947,-0.013662485794121361,0.034190267046743744,-0.0016136646828105335,0.022332760812850908,0.02687401319801513,-0.0036146689912175895,0.007211027250284093,-0.0020449476280001754,0.01138536728831764,-0.002539732473831566,0.046659595082594214,-0.005860574016588747,-0.046962994061297135,-0.08297112769032487,0.04878089480842666,0.03661124334641636,0.03267546923837844,-0.01722192373284223,0.05410984087965134,0.05083652752316631,-0.06530090958406305,-0.012843410152976822,0.01373295736877976,-0.0005296638508256268,-0.027892435627187462,0.03535772362033718,-0.024437412414307143,-0.008115106297161992,0.03712439443306316,-0.003502332290777442,-0.031125931071241755,0.00445336480766628,0.028178959330566324,0.020536347439059063,-0.07589457465122744,-0.042145008445769405,0.017040128520918865,0.030544936943841534,0.03604739255446476,0.03796562039171528,-0.045702816178949016,0.0006578171767590686,0.023772446328225953,0.03729365104935311,0.048423016122496006,-0.05355860694161869,-0.034019820211078564,-0.031878044481471975,0.03299331660647702,-0.0377823750530406,0.06038354351432189,-0.03774260283167852,0.06331337259046485,-0.05516871340864678,0.015501653027724249,0.011923104405523487,-0.035873220090460796,-0.04030670247243191,0.01204457437518752,0.06320217440981965,0.05435978915761045,-0.032601851305467375,-0.037953375923237456,-0.02143071344514358,0.006393532924362926,-0.012251459329327455,-0.018092350451767075,-0.03991674859154838,-0.04536768074240234,0.06522485041240432,0.02048575624627884,0.056378910486705666,0.005201561617452076,-0.02583427578065955,-0.0657261136087661,0.008837421091634629,0.0412440704395162,0.059310279288564985,-0.04598296137450067,-0.021344787216664874,-0.010222933983711914,-0.05544379709462549,-0.061788054903554296,-0.04648933686154574,-0.0003312283601842054,0.010790712889429,0.019937633131888583,-0.03233123544661734,0.056353393002032716,-0.01026654926570649,0.009025660013174223,-0.028584072254802875,-0.0383523571469867,-0.04579589756273488,0.031960405979046855,0.028557121590442488,0.05389232996637698,0.01758242344878023,0.019026070374760815,-0.0013926329111754094,-0.04550714614034838,0.004958156858709746,0.020811933334592768,0.0443104628456322,-0.04787149308933532,0.04137024215524381,0.012136155551307468,-0.05143904656427975,-0.0003047486504020987,0.01819039256910234,0.016987008874848938,0.026803321095954524,0.04857139920256812,-0.02586836985185641,-0.003535004969823718,0.061987997587788085,0.05100427407831161,0.014625502767028701,0.0486437288587807,-0.014775089519464522,-0.002159200843665968,0.010689965886329644,-0.006461778708460678,0.007127102439378045,-0.06221769137610594,0.014545270718047655,-0.041748699136510345,-0.0032201897754841106,0.07236279828092113,0.011462500961830227,0.012848966762152858,-0.0539535955682689,0.020940419004109544,0.06049815047787129,0.043313329391756604,0.02060365100892263,-0.03166345996043332,-0.020261137094004393,0.0019122147269915665,0.01723823717519146,-0.03210201959619874,0.023032506410938094,-0.03165354669702155,-0.026982339479219426,-0.05444185063698517,-0.033745002795412905,-0.001372998638065025,0.037660976579013676,-0.034782074459809145,-0.05845294439987775,0.049544230945012493,-0.011403672186206656,0.016968249215938206,0.006269803398256034,0.01454252861773884,-0.03876524280833587,-0.015770171851917186,0.03533992912481785,0.028907833147042733,-0.03648328342133506,0.0056667175457741255,0.06391784540502683,0.0387010798349075,-0.04795802992979583,-0.0539687026707743,-0.000986527090512315,0.05604139917089104,-0.0035132333385510636,-0.030547903581945975,0.0006002699159154298,-0.017069913254977028,0.05233348072601977,-0.023498208441262314,-0.06960366674469864,-0.0035287543002163768,0.04479735804154142,-0.03568405888077283,-0.04335892107846174,-0.015111627237353192,-0.004042283724000515,0.028835722451109182,-0.000656961355241049,0.0763059145754757,0.05157508908406297,0.01710956468293452,0.008985229992427488,-0.05257738203251969,0.020752940741950793,0.04220951338766749,-0.055471565693254024,-0.02308288674222261,0.038386300434091095,0.006391044263020829,-0.031215704395071528,-0.05049065298966692,-0.0349521453981595,-0.02052126292476228,0.05387170215378066,-0.041461909495198304,0.04883457012061465,0.005421716570462387,-0.07353084499675934,-0.0018297780780424345,-0.03791014204092072,0.013350650592914778,0.06504358858496587,0.06318382122595367,-0.04659088210488941,0.021254164590786623,0.013835809996764016,-0.011073929359965472,-0.012206202184140568,0.04639938400440376,-0.02546085830755486,0.06712110490211065,0.016984770911475714,0.02844364292164657,-0.06487513342960718,-0.00785579389128593,-0.03674641714890401,-0.033525702068742474,-0.044074984443609216,-0.03517139231059279,-0.048585624643896534,-0.035590260374539,0.042324537198095695,0.018165690178566545,0.0014255275916851642,-0.052278834999579235,0.03880187154893111,0.010190352684778598,-0.044369514804508535,0.004582408232051478,0.056239577663715526,0.004805750736267626,-0.022393264692620134,0.0013066659762622692,0.05634254005165479,-0.029612663102830075,0.02657429876674387,0.03127583899102025,-0.00431052062664047,0.04872011295803493,0.05634653189037919,-0.05358276701294587,-0.011608756617354034,0.01744359986926736,-0.029014776755993895,-0.04869792750261203,0.06024976215698458,0.03531689653120708,0.053084472075813544,-0.010681182516324718,0.06078313455142976,-0.007487073461498575,0.04643828576672067,-0.005100449122411793,-0.03479827684822374,-0.026751094251881123,-0.06168124516770415,0.004982233243114299,0.03499354784565496,-0.020203732694048553,-0.022834764432236483,-0.018831275372394225,0.03930103387757401,0.04361329196133999,-0.018583920911720533,0.046959044850040856,-0.029799256668220697,0.053897520669135335,-0.04457097687442619,0.03701361110777814,0.003232957724795729,-0.02688207146487175,0.019173272958691735,0.025306795189573208,-0.02993362390331991,0.001267174200298612,-0.030365152195549246,0.0484624164379343,-0.0032437819702320412,0.034350600554842896,-0.06653151555954798,-0.012326224822028341,0.0743721365759133,0.07563533063210413,-0.007860814816744558,0.0073831267964114215,-0.027059324269423493,0.01687676800740454,0.047939877359905354,-0.01676184766395693,0.0177409538433599,0.006193807091607902,-0.036318748564488954,-0.013298531979651371,-0.0018184186189976052,-0.022638533466257715,-0.01803269598936263,0.058387767066863966,0.05675627652283265,0.02268857572909515,0.06263200527095876,-0.021624111128482726,-0.0020614938004990323,0.02380020446991742,-0.02406452080877706,-0.01907316825993376,0.033332419484056464,-0.051143821937818024,-0.005321404430644737,0.020286475182927047,-0.023137673214859815,-0.02236969005531276,0.02802402848407238,0.03912409349168432,-0.00414873767245161,0.05246913432850883,0.03724087351054336,-0.01757853826418863,-0.015644287221280792,-0.047313059383331885,-0.0150716617081652,0.02121452227970225,-0.019226924377287753,0.023622101593870806,0.0102515182074363,0.02079484783864294,0.03792282345680972,-0.004098964641521714,0.038096128939821665,-0.060135445429264196,-0.07145611247690173,0.03913175176295413,-0.04560558728808887,-0.05259038642224031,-0.04325712881210671,-0.047417987143238804,0.034872315097762493,0.026639719501669146,-0.05362360655299064,-0.03596044053928879,-0.03483902591532758,-0.049278778034797945,-0.052635462380581644,-0.08242950596100085,-0.0371464687699988,-0.030707837926715637,0.00606070090814583,-0.024374340650066207,0.01721939071844658,0.021635204690370995,0.00974200887424756,-0.011010587018210352,0.020176352523162456,0.05708920316977412,0.021564192862422046,-0.001807722304294658,-0.05512750081497,-0.06012078096465728,0.034458748662040684,0.03912936200022887,0.029116506547596663,-0.05286390637744945,0.012112321732501855,0.035384459462894625,0.03334437718812331,-0.0034775075915555774,-0.02363477957356292,-0.0007282598169765016,0.020384794071960644,0.07001777437607508,0.034799169657031594,0.055260215989387455,-0.028429790257227718,0.06135250865639026,0.043660307527407516,-0.01314581612047323,-0.013681214343669345,0.06268365112120318,0.02598871861636071,-0.06758206247652708,-0.014175646852280987,0.03837944911782295,0.011972649353895479,-0.04443662858096099,-0.04459971634749949,0.04833708539451151,-0.05003679588182716,-0.043459446385182815,0.06584889314248492,-0.0384506555228133,0.002669695711378828,-0.0313288056559339,-0.005679971988250572,-0.012548994090799535,-0.02444683259483885,-0.01174260762419133,-0.037411588333887746,-0.023392524282634854,0.01676911881684433,-0.027800378315080213,-0.0353095788280389,-0.006545516452502941,0.039739567646673524,0.007075920497335762,0.005612771411966419,0.04722196116303003,0.04338068791158184,-0.027036107346560923,0.0608324680752217,-0.041454178407135715,-0.0075764772680307815,0.03241865070915124,-0.050414066292590314,-0.03596612365922444,0.011780543694168467,0.0673048737566454,0.027211687429584748,0.016591691978226436,-0.044932363418897794,0.00903327233331719,0.03174741115318244,0.02273381311132255,-0.04479508314503209,0.01897358291068778,0.054797416240133484,0.044294177022687425,0.012822998474467657,0.01939173325189879,-0.01882700904106294,0.041517486049221175,0.03237385305088135,-0.05474359828798436,-0.008605506435463643,0.031641228422495636,0.014339591840200535,-0.07317671967673917,0.007336326764976706,0.0716136582293356,-0.008600378726548074,0.0310044811967184,0.024559952115099423,0.048401555388886706,0.05480541943293144,-0.05085080920008695,0.02698758867078649,-0.006515989226643261,-0.03359852157188077,0.04837583182977974,-0.00014035401478612025,0.030134534670279507,-0.02306342436121578,0.047066103216647795,0.01389156621954085,0.03280070231024526,0.013995755924758149,-0.05267401321284352,-0.015242436005255095,0.046457354876961045,0.021009275789707266,0.025109720804400194,0.006011947927625002,-0.04497546106605026,-0.028980731340089085,0.05165104867303817,-0.04069076950447371,-0.043399987147639874,0.031078614688673564,-0.05468765290365509,0.06411799753520168,-0.04291388160848443,0.023136726866624123,-0.03403538850215812,-0.010280182846633242,0.019932755687426626,0.043802013989412844,0.0017010002876739422,-0.04611525237625796,-0.03425792432688101,-0.010796702805606479,0.03982060502917649,-0.03721570197207785,-0.0012398497370054913,-0.055495700201848304,-0.028339283992414678,0.027391424614796656,-0.05127466843835261,0.04206807345475178,-0.011634608348527706,-0.030892049278838898,0.03414647152953287,0.026650514575864905,0.06292709780989003,0.01997462332798133,0.04432177717613367,-0.03996824587632385,-0.04024376843224897,0.018745556283059225,-0.03972392684951379,0.044327671675828226,-0.014418546002940381,0.036148585418623695,-0.013449962896888705,-0.052373032316411064,-0.010673354076573644,0.01809863428899594,0.0483946545954012,-0.019709899615912935,0.011437622280587879,0.013954387604414734,-0.06213840981094076,0.018176058095284536,0.03679997174465833,0.0377929554601677,-0.019654096621714308,0.006692373474094563,0.029611743728039416,-0.004176368481674267,-0.06287882732090629,-0.049796713225613576,-0.03752880020542313,-0.028276332535963754,-0.009777617365581274,-0.0038083839223378747,-0.01152148697538865,-0.038232347865542325,-0.003374749735690256,0.00001367308004241296,0.00521555900598545,0.01806422219291561,-0.0224455363282377,0.03690979420533184,-0.07103113687723392,0.07143203675123766,0.045950895487433474,0.020343318916624196,-0.010638130779861522,0.03938260338863552,0.04748322790493726,0.020503284553782496,-0.031079121528282003,-0.004987308469698447,0.015042246627733354,0.05604247285795995,-0.051291765507156487,0.02458079452652335,-0.01199875358672615,-0.03843068229677047,0.00356221644884671,0.0036214398664035697,-0.04152091428716592,0.045220077989300146,-0.04798008759245953,-0.0020745938580692225,-0.03137814576848678,-0.016784528206641027,0.05942297589020102,0.010954560606178925,-0.04118303901806324,-0.037949302037662266,0.03142318000342884,-0.009673688920986983,0.018560876858055235,0.02577827860040316,0.001892267291180897,0.009823167161565534,-0.030266452775675152,0.030219920644041224,-0.010638955387985805,0.055454888989477556,-0.012099374729474824,0.022961879821566212,-0.03345245683479499,-0.013481834357565432,0.03761338363002616,-0.022218714178903795,0.031560495537560074,-0.0077365824228381565,-0.06834723368012048,-0.02549925860332966,-0.012579527856256975,0.009005644138969919,0.03138210924348604,-0.058969377068014896,0.014420781880529513,-0.010030501554332211,0.003055948418324992,0.00701290125804273,0.026939287864870886,0.005987124595345185,0.04752653930718977,-0.012425139033699422,0.052664209267843376,0.06664531657211496,-0.017209959482368375,-0.035341558252193934,-0.012689159737616248,-0.03633807105820394,0.01369784673172322,-0.021797376893927686,-0.028774635405234353,-0.01485415610222973,0.0067267698455317,0.04719596835556492,-0.04382542438317412,-0.032688566528680525,-0.06887069380455141,-0.06611420796763086,-0.03612261686485042,0.03348086101551571,0.04400421329811043,-0.058138381142243935,0.04553473656538225,0.0486717864744997,0.04897442625926535,-0.06309344162391928,-0.0019661057604393336,-0.03417711087777887,0.03785566610580937,0.019827116384741154,0.009370488573950259,0.044248542343014265,0.06126904604895693,-0.028827299987796564,0.007439093312709417,0.03906722634004165,0.03778288069852592,-0.022385561505396674,0.015348691410793888,-0.03276889020085305,-0.018105455954925437,0.04464510710656656,0.03590262254319425,-0.014560955174997251,0.033848153907975874,-0.008526458817992022,-0.0084199551740068,-0.015391837527763927,0.049621318601283784,-0.05627047431152374,0.03575511908053691,0.0484320895960905,0.03735975037362261,-0.025703593607740435,0.017904532920164813,0.05024170074684409,0.026208487383646614,-0.004188801941557531,0.01394109147121113,-0.07143690340371625,0.08857445339889175,0.01266544384061033,-0.020708820529830602,0.06569581942168419,-0.029839725982821523,-0.026219662218631902,0.03251393737224979,0.0053827362446183975,0.011305930674647736,-0.049519400729083014,-0.044645202414932667,-0.03917490012815962,0.02842484086704939,-0.029833963919245095,0.023670092815752466,0.043869251437750105,-0.050535569278534836,0.04296911313075123,-0.04034197361143418,-0.07061076108976455,0.010116949042230101,-0.002397030589490391,-0.0023709855711540515,-0.061451762396552846,0.028377172870603273,-0.049532441525781505,0.023920350239353315,0.014525600680414908,0.030728497929986807,-0.04821455629560577,0.014734037082170677,-0.052955523386243236,-0.010764559398214833,0.0669888426413616,0.01800930441370932,0.0006622199668076278,0.012834267642629306,-0.053838507078286676,-0.03997053672746212,0.02335351374844455,0.026919400087266513,0.0259791355133209,0.02315163416419683,0.05352095134305084,-0.035844642095265215,-0.06323309542191248,0.021818868722709446,-0.019314824123618953,0.04107602703618155,0.007890821780283705,-0.004978896211181589,0.0294831580367628,0.008866907315378899,0.0027161535667871656,-0.04452517034673567,-0.026810905682646907,-0.059716855584575325,0.012813186020636153,-0.03650086720663911,-0.020294457894759622,0.057460919650405375,0.015992195928841334,0.012042970260789381,-0.05382136452500412,-0.0434292759519077,-0.04583577002087549,-0.050951400207833175,0.030080240788880823,0.06123835796418433,0.06269484830409014,-0.024475457365506176,-0.01585156606621988,-0.009192295963751484,0.026413821393128513,-0.020883078288544372,0.010979534565021978,0.031864437229189045,-0.06331347909838923,0.054360178036672924,-0.045462215065185656,0.0048169070793184126,0.0027807541326326977,0.02040333951921767,0.026185003137439163,-0.056035826649541924,-0.03528701886092471,-0.029234707139014552,-0.007626867179144435,-0.03301165126005851,-0.032070029515140076,0.03710058347985157,0.022594564023030464,0.04935890085096927,-0.02631222306134951,-0.029824125241453205,-0.007590344403536465,0.044562106539672436,0.01410418875447257,-0.03702253133090547,-0.029282982910725293,-0.0499737311028585,-0.0018099141382299398,-0.005411421312413764,0.02381442363012119,-0.028469106566267114,-0.02512674239763636,-0.006756924918744682,0.033998794226181,-0.005897200041388536,0.07346335842454127,-0.03274964415741186,-0.0683886474268576,-0.02782266371808049,-0.02047466607834533,-0.04154975915352144,-0.026701139248658988,0.07630789493596195,-0.055688119001263484,-0.05874529432915021,-0.02290972936953487,0.03578827010801811,0.04367116835238927,0.03737276550108533,-0.03976829286961112,0.012244266625985878,0.03543407817117321,0.026510901791203176,0.04862377710959437,0.07086879255325924,0.021656112416369517,-0.0011421385083099883,0.006556865116096958,0.06243077681463655,0.03169356285433779,-0.030998597601959912,-0.01826057806136416,0.023379988683396226,0.06017265412999018,-0.0013331631736612133,-0.0020099428226529573,0.0662681428376242,-0.033852686037059584,-0.0011074567018735052,0.012953405395742287,0.053574420640864026,-0.009291848684883372,0.05113529063578539,0.048470034690964454,0.04470902736282124,0.006274496023779315,-0.04907619427447524,0.03751613595077893,0.03866267609592063,0.00019559324236228411,-0.014730925081416433,-0.018530161366009126,-0.021241078400531483,0.07097401625220204,-0.04027989930438196,0.014907377621635456,-0.04174952072763699,-0.04425255041288967,-0.030583501103006505,0.0533134480483408,0.010443099189883563,-0.04119160198641841,0.032287100903401866,-0.044335035115187986,0.03269601609139659,-0.03868672146429698,0.02994245477485862,-0.0077307269777333095,-0.0523496548848648,0.021454251919263777,0.055658568763879694,-0.024315465652827252,0.0025206134358376603,-0.029196186002248242,0.0022844872040473987,-0.03535971779112614,0.007282429960071015,0.03852805460027501,-0.030901371691221643,-0.04016860465241569,0.020937449413688154,-0.043969763106320274,0.06659670129190758,0.017777269036547517,0.0014911255534821425,-0.0025749264410619864,0.025630898747782738,-0.02302914614497382,-0.035598554953585985,0.06031843769314366,0.0397757017718924,-0.004447501752928658,-0.04834994760128494,0.019398092055129188,0.004107774221415429,-0.02783881539880989,0.05444498918072061,-0.03557731436516812,-0.00349503642388473,-0.05585702329594434,-0.022769815317447914,0.03411619024078209,-0.013528124503851104,-0.0321952942099342,0.023236415080205405,-0.062374621337510205,-0.033056454827205935,-0.005748960660836556,-0.03297730334663372,-0.03683061780533672,-0.029191454176230997,-0.03982438791857243,-0.04494598619323542,0.0490455169936616,0.021787381052065555,0.01546741419299811,-0.06453304013897594,0.05207723336431992,-0.0012470081545598612,-0.038265749912672335,-0.002893766466989212,0.04385768395223156,-0.029117548145181072,-0.037488828947635305,0.039233715092355806,-0.02835522940647436,-0.009346120630948156,0.012012576233340863,-0.0575529864026016,-0.01750973778272859,0.039300981701343794,-0.024558623898326803,0.03934433440331499,0.045997707842488765,0.03926404102806186,0.044072380144662686,-0.016598731176232177,0.012421499209099119,0.03755731265718515,0.00861615935509605,0.0028903239392297116,-0.005362090504199172,-0.0582765287917494,-0.01135065325879586,0.0460441891985718,-0.02799331559503052,0.02768120728792273,-0.010241229974582693,-0.06131548466104151,0.014631423316906032,-0.00403491468923974,0.05042873219375075,0.0005389096045126396,-0.023789259916033704,-0.010650989031003444,-0.015168382129286957,0.04654935514422599,0.002992588929196002,0.037107828305268174,0.0642213432336783,0.0024595650413817083,-0.04121885700323292,-0.03863649055859746,0.05792824167536016,0.05102326265908315,-0.04378707484975228,-0.0008846613834588245,-0.06535992552657187,0.005124519277596525,0.002036991722083531,-0.056317591014525104,-0.02631326633964607,0.03237505885644079,-0.013737246773200385,0.03796078668827427,0.017983828284126743,0.006116858840406686,0.015750377446206536,0.025487137540089886,-0.02087638434920724,-0.011343423609941805,0.025264335291364046,0.05007280290588991,-0.0232811291986778,-0.02338834826068443,-0.026188918022655272,-0.040123197377769516,0.029515059275546995,0.03160510556711556,-0.00764303135538877,0.00750173974129131,0.00844017081464894,0.0052049194164302945,-0.056372791017602654,-0.005340223737403906,-0.018091116749374782,-0.06130093356851132,-0.039363623867700176,-0.007449217319682185,-0.023700386179047062,0.009952119076684479,-0.01734449385911375,-0.03197856555719847,-0.031144234127315158,-0.0019644324409236373,-0.049111625134365525,0.012564486988306825,0.024621019921751985,0.023325119277300608,-0.06846681028466983,-0.023920848218765403,0.00887920564021352,0.011303778042347693,0.032859216105858804,-0.0024905302083582156,-0.05277632076594472,0.011908631375938696,0.006495730968674079,-0.05387641313723717,-0.03816860891198294,0.05247937695634343,0.013546187950743633,0.037267936157583295,0.06005473925998334,-0.0528454670429973,0.05222563946615386,0.04841814776326942,-0.07079404026143585,0.020538991302964743,-0.02717879236694592,0.05795684529368456,-0.01589489107771624,-0.018479225327520967,-0.03181446315067786,0.04380943161785771,-0.06383646916758484,-0.033215190853628264,-0.016624589071873527,-0.03964059626194093,-0.010832387985425,-0.030543772135791746,0.011123712466345572,-0.015307703580032831,0.04591814253316038,-0.03269072681895598,-0.0014392222588000916,0.045767195754578785,0.02163062721391584,-0.032230549641033786,0.035202976073740976,-0.029360302721306294,-0.04282528026530364,-0.06447258063197495,0.049057353870061396,0.025740953744791087,0.036125203326057856,-0.02368925282315498,0.032529063683560365,0.045865524324209,0.004389850072270088,-0.00563552070062393,-0.01057109930021502,-0.04232505144176334,0.026602061095068717,-0.0372748600505002,0.046647857923314766,0.06558733147951339,0.04090655580488777,-0.024730606666809186,0.011941789639072747,-0.020443240435075234,-0.008252738901719911,0.013511744632307695,0.017677729512074032,0.019436907225063582,-0.03959419300050963,-0.016325385696872096,0.015714710390085204,0.00628752337631159,0.006113093094313273,0.019055134434096673,0.06374907976398521,-0.019383286523939072,0.06309620200463335,-0.004898256055711334,-0.052609537102140495,-0.004439767941455168,-0.03280184051375803,-0.03868377129387278,0.06071430574992247,0.034001854571776784,0.039223098204061176,0.05173772108751489,-0.023651848881346665,0.05044039317735238,-0.048566984120539045,-0.029483535694447373,0.02909987940647112,0.034982653536156136,0.0015909505422682924,0.03538917179294094,0.011385801620363333,0.027970547204272157,0.02095237805087233,-0.006116430469074052,0.040953785075261664,0.046303659314152965,0.06780685047634613,-0.041705842603484956,-0.013638091844552301,-0.053575286378842506,0.02804364225923701,-0.060922785831770666,-0.04226812659322262,-0.025622993053899146,-0.03935321244378987,-0.012140051256660444,-0.021835906009336797,-0.025611567334916874,0.0057730411747321094,0.01124396255456365,-0.04442520057786254,-0.04543230915083321,0.034722211905927995,-0.00911570812921529,0.0143907765432173,0.04127504866025335,0.011976259303638097,0.01617336686640109,0.04499018310469315,0.04956800789022989,0.04883811677107014,0.028225504974698928,-0.04630851588674308,0.0386990426262661,0.06192449644544922,-0.05261256440788519,-0.0021964235785215808,-0.028355113588017903,0.022801725934793883,-0.041284035389054514,-0.05733232286971457,-0.05509690073077998,-0.0033202259024683245,-0.04891106893182329,-0.024336720424567283,0.039659646840334316,0.030606049344561785,-0.011664614135368956,-0.061208145390459226,-0.047836386653382135,0.03751442152890933,-0.05963003741653018,0.025405035077224903,-0.024137392892997527,0.026062988409014998,-0.017030414387706604,0.011583724418414099,0.024469990893883384,-0.002714130887928194,0.018669240378104763,0.039882104601099665,-0.027458711912763722,-0.005492715528340261,-0.013246066421789621,-0.013696404716073755,0.004517903887919422,0.046550691809790275,-0.005661210676634209,0.0784535760294104,0.034355717153137795,-0.05508300930596191,-0.03675186870880827,0.03088633432998524,0.01685855620637357,-0.013051253803597472,0.04349227270717704,-0.04735561119986525,-0.03084829759779466,-0.039331383379688896,0.05190210678002375,-0.059267732613581606,0.002459048004845065,0.012740212239223803,0.04896211208674442,-0.03456018370011225,0.049553762572759896,0.0574576065859693,0.045291926744136894,-0.037050403901907246,-0.021780423429019685,-0.04717889076249335,-0.008764674848980532,0.0014646681571773182,-0.04699300256770268,-0.04742046940452027,-0.02933993290961166,-0.07487338438753682,0.032488388513311976,0.026611674114234242,-0.026199203351126323,-0.03317832300852088,0.036192321610962745,0.0478217152132258,0.05919130880864495,0.07262764194658926,-0.03315258698427587,-0.06109249938677548,-0.02370821774901603,-0.039853247634069555,0.0070617613208938225,0.009841854657878351,0.06325532518762621,0.05400114022053416,-0.03368024779040454,0.051616906636849626,-0.018578436616780714,-0.07357812722486314,-0.02073499225379868,-0.04339812072288042,-0.04948610970991626,0.05250311472456981,0.005576176505851619,-0.05064496012678897,-0.0017743994242964242,-0.03768936528144332,0.0187008707332369,-0.013721684405625318,-0.03922891477656786,-0.05389333452981235,0.017079288310804054,-0.010100604842950403,-0.04214899568009092,0.04011371130840277,0.030517853343480887,-0.04198032539367154,0.06332492011519976,-0.050479333391090585,0.012893905852211989,0.017354229165823895,-0.04538281779940344,-0.058019325030431036,-0.01106524581416292,-0.027300669360251554,-0.027083735034527212,-0.019388888237660905,0.040782742644734714,0.00651147270863009,0.042752689409853585,-0.05545432036680667,-0.0008137731000005812,0.04176433505905329,0.04741361347571106,0.017904209209726605,0.010120794037271286,-0.032693459512724996,-0.04570233450949201,-0.03577497279079207,0.0007040203012899124,0.023356794697365218,-0.04966833955578471,-0.07955975083419194,0.012045709688681792,-0.010989438911248033,-0.030159162199253894,-0.040676497040579684,-0.028671339307033843,-0.001463690997191432,0.028417060357052944,0.008658082503074765,0.06567484856546561,0.014234870616028683,0.037026280517687,-0.008559251072304057,-0.002500505097035666,-0.05144820273919118,0.043475303055882944,0.04001041381695336,-0.024919407193567555,0.015160068623010323,0.015208719597402198,-0.009213010406419732,0.019496409997370248,0.010805882693549701,0.030732129652026437,0.0036183661965425397,-0.04244315972203999,0.013849260396269622,-0.02136137371395826,0.05061765414661555,-0.06687907904715339,-0.050619849058684746,-0.0002555125963617552,-0.05027364568414276,-0.011826507910572978,0.029642749045152433,0.05449812009531888,0.0008175529898071792,0.018679140841997083,0.021155097392638912,-0.03558708513740611,-0.03680405785843645,0.027179314464065796,0.033279741813455645,0.07201557066404617,-0.047860347475020604,-0.04831666014998061,-0.027378812203795285,-0.004958524244015986,-0.012795867117353497,0.06522141216985389,0.029580207339469394,-0.032643756263557616,-0.052171629728472134,-0.014956876940077957,0.0546972467894364,0.020533014175219955,0.05696359763310892,-0.043468465894665353,-0.0026026006242388495,0.0017282748393906936,-0.036823554212875,0.06377004627672496,0.030727461800428426,0.03842846299651322,-0.02864418147624257,-0.013588593950426517,0.021710773834393186,0.005162573866925915,-0.01920491069880131,-0.01862675450665254,-0.017831945395992838,0.023391528742623645,-0.030298299210036357,0.006757800522164449,0.0578680944098186,-0.03531992639817078,0.004846074580565601,-0.0012091803505919028,-0.01814430717040511,-0.024803826701849923,0.04600643560384546,0.01580399399960562,-0.019511362535016497,0.00441786861018839,0.07635165448020466,-0.009908440722590789,0.03136722700236335,0.04501399114139812,-0.05928364494618736,0.03373406324997372,-0.059211826623651806,-0.023923642259092763,0.021054545397705814,0.0649725384854581,0.026305436084872277,-0.01576530438148999,0.04867776040584821,0.023255355744698305,0.08656649583783746,0.003583217537357582,-0.009012506890124871,-0.015039198102177033,-0.009624326165696421,-0.02183401828441679,-0.04951204061626721,0.019400180583176222,0.053559278280774975,-0.011309336921139626,0.04360292634732094,0.08307366819172045,0.04532394381191959,0.0035334300143886194,-0.019387076424138654,0.02398448667495728,-0.05392920971123297,0.016029510866493214,-0.05156209613188233,0.012034309038952118,-0.007358170610851982,0.0010028983836115092,-0.04633397566166423,0.018822355595228494,-0.08772974203849532,0.04406919011441913,0.07276487996988341,-0.07814019022050828,-0.014217796839724364,0.03222932874723428,-0.07061703530945879,0.04296635203369001,0.013748680192541845,-0.056982428769052594,0.008977728065070864,0.020376863577249632,0.011342039199293856,-0.016106148385868015,-0.04076910248309255,-0.022286267510455506,-0.02356487324774286,0.02465737973273429,0.0013780064924286816,-0.03705048287273296,-0.030230003323830648,-0.051044666862402645,-0.022335913486844782,0.005479105394991879,-0.04648122665212938,-0.005673993783222118,-0.0596640358794994,0.022655589172529845,-0.035508582485145455,-0.03719924213420353,0.01076848641926246,-0.018273949438472263,-0.001019670861106116,-0.041400311096818576,0.06653044288756634,0.030890931934927108,0.053819447812603644,0.021804152687403242,-0.03929531341437174,0.058937851063953044,-0.04505969424763571,-0.03535513488206237,-0.02370382443122142,-0.002368208366947375,0.05152580205071544,-0.00046166329644994875,-0.001963277721295281,-0.08230360523011034,0.047765415529281326,-0.0027084631630603685,-0.044055291234152874,-0.0034349763522205537,0.023561304849873496,0.03749837048282279,-0.06043025649815405,-0.023517631040171544,-0.013834890038202588,0.06894644331375048,0.06467201599744067,0.036346095261231136,-0.02376923159557721,0.05033015396234346,0.024352270003572176,0.030882218090778363,-0.03075296205639898,-0.030772972173994575,0.040137205612417765,-0.03987492989365224,0.01847286070720661,-0.007561712857479319,-0.07779395334607565,-0.016745865675550465,0.04234793510050019,0.009351180352660297,0.03811375926858948,0.024381045347753802,0.02469304467380139,-0.038740476865138825,-0.010211393528687858,-0.041516164660253055,0.016870522437244993,0.017296682771932782,-0.049005864474549174,0.0193564667812517,-0.0036409559811800885,-0.06617707882528298,-0.06177268373902795,0.014407494147018906,0.06295408660487556,-0.06357591195184079,-0.013051491107913371,0.028698294422305263,0.03191895960083316,0.0345413037696884,0.04088327932872136,-0.04933704092892617,0.054675788512293814,-0.08492223242399653,0.01371421283431218,0.04050870705770776,0.05699540517838472,0.028247570800653717,0.035727012759382226,-0.01583058382681014,0.047249917085353005,0.020984481510788053,-0.05159105159424539,-0.004122077130404669,-0.006216024666379163,-0.029070343155178337,0.054052517472554684,-0.0018463004736143799,0.07070942625797179,0.047370882788081124,-0.016038192689516787,-0.006018886473768935,0.023826764058260178,0.02592202312915453,-0.04564370663891416,0.042434765266419906,-0.024185730005176077,-0.0420872950146942,0.04151189512761695,-0.07593420110742696,-0.03259543165661655,0.086952739080746,-0.010172277472640595,-0.028061451450517364,0.032097261052079135,0.06589327533896555,0.027185540725799564,-0.04885842074351328,-0.024779659882502716,0.03185471952854991,-0.05222351077153071,0.05539895594598682,0.06904998852605009,-0.03724280945486817,0.04566436098984514,-0.006257213443074544,0.02369543622995986,0.05888041888013298,-0.015318799241413324,0.02576479421987996,0.017614233206002895,0.03552921010688858,-0.055064836896168395,0.08260976430590422,0.017201022761524486,0.07617826577219282,0.02918073162782031,-0.001281313455090993,-0.0497946866875893,-0.02703459507558586,-0.0038858282495768644,-0.003914979975345101,0.03148301850344302,0.06939782790547182,0.04810126464225122,-0.027033161215597908,0.06911071016032881,0.03725216195430512,0.08365504851017565,0.050030067870709335,0.04015301022874751,-0.05636867224236665,0.006973975827106003,-0.01815114608397848,-0.019543116467142765,0.06776300631554313,-0.05004039794249083,0.05356999536579343,-0.048394434730960514,0.047304157420491204,-0.02613295416863401,-0.023610499064910754,0.0344694413950965,0.05997386617073172,-0.08479842976658744,-0.019754030940935335,-0.017757976349122503,-0.008141119680582566,-0.07784637819960513,0.04042552179082278,0.005339120633886789,-0.007918121206082212,0.004803930807402595,-0.010541452417200633,-0.013437991623485598,-0.02747613066159224,-0.053059984113642544,0.025392727120474263,0.057387771535764555,0.01952284271348256,0.0015468661286958754,-0.01954176701487074,-0.07289605019086494,0.026594963802599462,-0.016281032189565843,-0.012314679707452604,-0.06614031231824635,0.016621586494609347,0.01763602488712302,0.0021511563950939415,-0.05722816465679319,0.018977144714282263,0.0230978528284265,0.034046432995437595,0.0393872201209717,0.02059105784213398,0.027320531987184166,0.010195450263815882,-0.018433826566848176,-0.02824427189322954,0.05190168304411201,-0.010622555020669073,0.03853448940388294,-0.010147824739898939,0.07871416145383872,-0.032795863750771134,0.04205430465954457,-0.05052011934789783,0.03981119356115936,-0.029227382792688796,0.011916391701309524,-0.008837606976000452,0.04938444990451295,-0.015933571074819186,0.0199284471125833,-0.04824605195435205,0.03657728459789296,-0.018945993452896475,0.07502767803522471,0.05594557368283531,0.003667965648094195,0.04720675686505731,0.051237712662766076,0.04167737094679498,0.0038899972077776016,-0.0655419528815983,-0.05746319210389812,-0.02021394659426667,-0.01652061306167432,-0.027716491292320924,0.08445314475979933,-0.03628337937008096,-0.04316086231457622,0.07674393793506562,-0.040283856675314755,0.04346492243111339,0.0012269466073595756,0.03309719660053544,0.007215583808939328,-0.0211254047675318,-0.009590384386414977,-0.05457477192833836,-0.012545568114926294,-0.061807681896963666,-0.01798056447093573,-0.04305126469819378,0.004906369101419548,-0.056221276282119585,0.017131419273150008,0.03856565457147423,0.07642503975843114,-0.06947834906865168,0.02818791031296175,-0.06542610785731,0.005652218515607564,0.06283969766787181,-0.04305063724602114,0.005319038134993845,-0.05716248127403444,0.05062428222842631,0.01623419648271571,-0.049544548390523524,0.03118930330001403,0.040160919302279156,-0.02084634188682983,-0.0014764027882284792,0.026304960368639205,-0.036885333611796904,0.05430581069541746,-0.039547938690715594,0.036685396574084435,-0.045275926638597135,0.0004467922401452505,0.0428651520223968,-0.0437191973375358,0.06246062598589986,0.04422209500217872,-0.008675552154900745,-0.05843181671838987,-0.03721604070583135,-0.05758601497296795,-0.058337405736071095,-0.01784646640745914,0.0382011796008143,0.024119351619287632,0.020940165344319868,0.02974489605801053,0.03575888546760999,0.009186387408155847,0.026645091321907986,0.0069820019323483355,0.021173535103973642,0.020002611538791307,0.014977558726331651,-0.0687591946664793,0.06040819783097599,0.07388090158324412,-0.009191428700401464,0.002795433893818564,-0.02066401993754802,0.02358488824083472,-0.0035210066310644053,0.03938097300152554,0.04093183253758223,0.012614742278225758,-0.0404272417574005,-0.03711100839142704,-0.0336147857949184,-0.042367359425796745,0.029924334650705008,-0.07180298505325532,-0.04009130566563124,-0.023341739387760945,-0.016719347111197557,0.033680863220189095,-0.04531677584886849,-0.02067702330964055,-0.06220211466983886,0.003729884358481111,0.014709420096896254,-0.015125014791218246,0.016187925524166678,-0.006139357155017548,0.00007034068436317155,0.013425985161246259,0.026946697570885397,0.05845897611555757,0.002361767577908831,-0.026189658126906934,0.0352268883972851,-0.009315602357700825,-0.05730141234787284,0.014332072321580952,-0.06038174081590484,-0.025391899877493174,-0.04029994074156596,-0.015990866694472233,0.03195949302340952,-0.05175617849931237,0.02510122141109363,0.0829180807469978,-0.02009815535471356,-0.025400783603662845,0.019758356916999276,0.05387302198534429,-0.03702023782725644,-0.0012023493788339027,-0.0493440850241737,-0.06566588837096891,-0.036272710602823874,-0.02332613002688408,0.0016645468568367494,0.008197582001419958,-0.06125949324881911,0.058261171731028245,-0.023321708449161715,-0.006591222939138772,-0.045672514446802114,0.052992463960885854,0.05690166193534688,0.045468330196493996,0.00102398950821963,0.05294930463725902,-0.035111952271292365,0.05512136318852967,0.0007116022709423261,0.005968603271103752,-0.0591747556806451,0.031459652513537856,0.014092039398144367,-0.02902567657456571,-0.019285847303099946,-0.054680322929462954,0.04724550225504218,0.04045582896464143,-0.01834345197649851,-0.004991182772314155,-0.03222303224592519,-0.038942121951263814,0.05514326790127814,0.045849184021551505,-0.005123968520782037,-0.05080826054049568,-0.07399744985648589,0.034571973834176296,0.0045103524317513,0.020359235921947008,-0.0055234878287084375,0.06453398603241747,-0.008944018874622206,0.06546010065294419,0.000990457700599281,-0.012148860851097232,-0.03617009263274366,-0.037259804693866555,-0.003893626389738546,-0.014916302121124258,-0.01737116438833009,0.005550997566902834,-0.06261326604555224,-0.04513882412176989,-0.05530597859779779,0.02117922450970948,-0.00015313022429784854,0.024933126015325633,-0.041028979427655946,0.011304581107906653,0.003190679019026877,-0.035911532533942817,-0.007932594081815653,0.017468795702620027,0.04072634728810793,-0.05648328295961877,0.04465387227409404,-0.017641156032322663,-0.018579627977800987,0.02561467014873145,0.018037780409034965,-0.06996351807724208,0.02538523299817903,0.011476549153122965,0.03398564928755299,-0.004598530815614822,-0.030116302736126727,-0.0542840748981563,0.04181624655976895,0.07634950575387381,0.02622033285204071,0.003380587728145476,-0.009566369534275539,-0.002401797874415264,0.010056190549552398,0.007680451140521464,0.06337903116815302,-0.06606149628675222,0.006109832287460463,-0.06780920946104134,-0.010191125551284751,-0.02411180220538541,0.02419863215370579,0.03424515680943848,0.003469223221374981,0.02772701329507134,-0.049685642178565206,-0.037334768573505955,-0.0005181374172854718,-0.05110860754649449,0.037116760041185054,0.025469405162435472,0.050907491426290793,0.017114105621038038,0.03624297939889729,0.03458693717375272,0.0639096447635186,-0.006990122721231739,0.05554629459235729,-0.012306276952928527,0.04053152757938449,-0.053525938353278686,0.031333889509973525,-0.009518228781825134,0.05182561431940453,0.01830736407557232,0.008077621222645994,0.02041339913696543,-0.06283945351170167,-0.014249525992760265,-0.04080716688786257,0.021024191790531874,-0.04106482117205298,0.024046988511768466,-0.009844547981601346,0.06730903705487562,-0.02337468621431426,0.03558945345975414,-0.008232495130040176,-0.011292036583378412,-0.05230118685720841,0.04695576728157284,0.015240555457008585,-0.02033837775866403,-0.016051124896128206,-0.018463955295474177,-0.059762420984205075,0.059131071483459245,0.05377414334485298,0.06251898386293368,-0.04287465652197255,0.0013668391041540347,0.03166224437083448,-0.02364506957420063,-0.02128629507190187,0.01762371917953467,0.018346112419055007,-0.034933246042446686,0.035479866653262866,0.018656179653094757,-0.03144223939282787,-0.03352236739644703,-0.04213335053423059,-0.0457670353080281,-0.06291071581299315,0.053959848488346014,-0.031117503293079326,-0.043341261870310274,0.0053215266855054615,0.06183594534960156,-0.044603641538494554,-0.030004060668133437,0.04216795627497543,-0.06730657876428134,-0.057209324780013594,-0.024658869169219857,-0.00019640572700460105,0.054886883737859236,0.03464609311699253,0.05032422470861156,0.033729726592814105,-0.005042581559459631,-0.0054062840726263215,-0.034596810780973035,-0.01616607118711466,0.01100923618510958,-0.015275094170267024,-0.031384549606335854,0.016155767565263227,0.018199623923552455,-0.03400716404193601,0.0023500455797056934,-0.037389786530395125,0.04460473841641198,-0.025871246196925393,0.032945782558924566,-0.04109365745044986,-0.0035143525176680747,-0.049280164517101224,0.06718887173377693,0.017165156696750367,0.00007515306833186111,0.01837809802232541,-0.029271755468179592,0.0029118073574079103,-0.009858028658984736,-0.045990388757631895,0.0030930087003965294,0.02860554240501172,0.01295987930937782,0.04045565784516125,0.03274932882138047,-0.042057900892538545,-0.029146798802960408,-0.012107423664729146,0.04955254439251754,-0.0320257837999206,-0.02965914546034096,-0.02328669953963547,0.0025140325374395185,-0.041329172558732225,-0.020064889292750507,0.02998280876538934,-0.024799877203859823,-0.027622954296053874,-0.027953561941074852,-0.01058646110035608,-0.045393220175097816,-0.03973494469850959,0.007104140190063504,-0.023922375012180485,-0.01242572369251826,-0.014306779178007017,-0.017587426818637817,-0.011831109761783845,0.009283130224105957,0.035616929665933314,-0.04804956099813036,0.016782227725559186,-0.05265831406095512,0.06019657532150357,-0.01482439987155492,-0.0059840629046119444,-0.016257244737628462,-0.009294621326565854,0.04801849941241178,0.013400769204567889,-0.0564334641634861,0.04498800611102874,-0.0315950983449473,-0.056113105708427,-0.0074623126938428855,-0.03770302267985687,-0.006065707059629884,0.026921446295401996,-0.0003337022171511969,-0.03939067257792031,0.027837410244935724,-0.03397896304083857,0.009914895886964788,0.02601123374147536,0.019463823611939393,0.017628478471183175,-0.009767653190619632,0.015862717067170393,0.014100738538452619,0.057045530523008106,0.07008498334910712,0.024712777572680283,-0.04990415513001887,0.0361721629374086,-0.05590413525816708,0.07133106261493717,-0.04925050015550316,-0.06688841843971284,0.003209334832509125,-0.061376386820756794,-0.030096081587266187,0.06922114056937771,0.04928526151280475,-0.009782551373628722,0.06326307875345753,0.024193859571444012,-0.07095172662527081,-0.06002332178642104,0.03881974035214771,0.037969007955325984,0.05856708171220431,-0.008337652018676844,-0.019295786459015397,0.05595050379907689,0.016643894530150187,-0.04500359550213235,0.038457267558450185,0.02180914426114029,-0.011668081880980242,-0.05622922353617523,0.0077273750893937015,0.01249289184139969,0.03753713085832498,0.06799563399161349,0.03023110131700279,0.0072104142998709354,-0.058464373188170465,0.038468606278394005,-0.06940595557560619,0.01986884921588362,-0.013626566845980724,-0.019173048435954448,0.008481302921422507,0.013222608488706258,-0.019783007120146516,0.01269331781128874,0.025047029573785337,-0.06839978163499234,-0.05393510529847931,0.01197827466670254,-0.038194442766948965,-0.0358018961722674,0.025370594490473197,0.021279151395749058,-0.016206190780370364,0.020313214707739148,-0.05240230534384387,0.004230476748486032,-0.019281036956838058,-0.0029493419504067002,0.03192786847191127,-0.034986191406230785,0.06869518871053705,-0.012858121615621509,-0.06442185274274183,0.0025119536085326665,-0.05698593028701232,0.046141101045820344,0.035463624943967556,-0.0029990637769002734,0.037179967653001855,0.01730179492554537,0.0007576981238858438,0.06003639030529435,-0.04597338638093947,-0.012409862952369056,-0.036135970167430115,-0.06652559703937519,-0.04174155283631776,0.01602323867407936,0.00004022368784362188,0.03730079227082118,0.04487864335496774,0.04350409704909839,-0.019721776585108212,-0.035125504379426714,0.039346176624693335,-0.01780084193015636,-0.049681350253327636,0.039104533382736506,-0.052528374014401004,-0.033150965711172084,-0.006515365326598754,-0.06821541612536294,0.049821799538318064,0.024378058130401867,0.06361636059510144,0.015641493473300107,0.058221746212766996,-0.02759599326760181,-0.019007887238694454,0.04684496175386865,0.03006396734338521,-0.03536081573659034,-0.03943708790079455,-0.029538826706119136,-0.02823635442577761,0.06655656477282457,0.02670521104318255,0.06265213188760917,-0.052489887636018674,-0.020036214960446257,-0.026279647010885594,-0.05883491979009135,0.007996782147204142,0.02253591918044365,-0.03701130280108155,0.006380652298653187,-0.030835830272717062,0.01568755571019506,0.04791132154940941,0.006965217294253823,-0.05899751519432924,-0.04337920292248578,-0.01992145820284968,-0.07274292439139209,0.021293882150632954,-0.013377779743685805,-0.0190208530993047,-0.05765865477266865,0.03315080352598284,0.026787241227550083,-0.01558009160641941,0.05135605910753687,-0.01562871315853302,-0.0517327353720412,0.04278890023374354,0.019109029660678605,0.059017380536287,0.0280365138896453,0.05187071794554836,-0.04501922659120379,0.058540632879249106,0.002821397463807561,-0.017422633433692353,0.03561341846460526,-0.0333708718213299,0.00900451240992257,-0.0006048278830381333,0.02138651644172572,-0.03398335486931142,-0.07405715588676427,0.032009870164120144,0.05154994254138088,0.048739155992376326,-0.02092279468483342,0.029374156912422036,0.06864866930175316,0.0158366878713621,-0.03702774258406219,0.046911321071154435,-0.04529370758938332,0.0024485924635167015,-0.049962235052109796,-0.025071659708713237,0.043770976513755964,-0.012375614608832308,0.030115521057777293,0.02183661019086258,0.04318037070266419,0.042873745114886494,-0.01024766839926353,0.01597496536226704,-0.04818596050655809,-0.014083903098771156,-0.0552024494964424,-0.007911324830208039,0.003817368038215729,0.02037274343328911,-0.03274153783524648,-0.057495216736418234,0.014006676656051428,0.0034147540239101814,-0.019556618788761884,0.005721255268126244,0.008180122727383835,0.048989239718670925,0.05558166502886135,-0.05490553295126609,0.023922850086828835,-0.005611544652037103,0.0452787636096023,-0.04101212435984267,-0.029056542941197624,-0.005648078075646149,0.0492323285511778,0.016411241197705907,-0.001998538235458982,-0.0303343917903842,-0.05706145038625501,0.04545499339361093,0.010616325564781105,0.008563623975062235,-0.03272938029874276,0.001877913851376217,-0.07092982878233207,0.0450949086807396,0.03642727378924366,-0.04265668603316289,0.049757545483852535,-0.003804423621259903,0.008763565930796427,0.007274595550497714,0.03770156451721054,-0.032258759948546045,0.0026042270482729783,0.019143145472830827,0.014007704498438864,-0.029956244391142955,0.0033340555850694944,0.04247823519079545,-0.05948213612292404,0.030155483907781225,-0.04766368356498318,-0.018000663676887383,0.059262685356201675,0.041066436942842274,-0.04869620807169529,0.001467653715263193,-0.01784872948157876,0.047547868663105425,-0.02492729273575324,0.05082886852185899,0.00965962665640986,0.037850011034747104,0.0043920924760022075,0.0618498275380281,0.0027176600014566315,-0.03333685599713244,0.03715532692344051,-0.018258140811981637,-0.025512062350771404,-0.021681886904782437,-0.058715802661457005,0.008834716045389187,-0.003066749140428796,0.03357628022161885,0.03158621996710921,-0.016978114218738648,-0.009563236048090604,0.016726860094395165,-0.0060564052745825745,-0.041755202729691805,0.032834627858928364,0.009793757297839566,0.028433862975623187,-0.017049707835944308,0.027521354434440023,0.028746171512733787,-0.011570348921069664,0.03002674687167066,0.06954442189011814,-0.008536507119735276,-0.054078678856209386,-0.06144329612861288,0.031219490505889024,-0.0028907662810514862,-0.02498724517951175,-0.055361778084633204,0.00767859740758062,-0.0023369758455067274,-0.01673136334265333,-0.008819834512276529,-0.007675051743848755,0.0008014293419698573,-0.06336047676335832,0.024489988623871674,0.053526422086638055,0.052309744619434564,0.05983513699754623,-0.009007132259709902,-0.012078248401204833,0.02274783950924079,-0.011440033384643092,0.017960920507488227,-0.03076504015910945,0.02063572905519565,-0.039850668766532815,0.04351358835063072,0.018226483481102385,-0.06170230851810835,-0.03055165443030287,-0.002119296422379321,0.05093850292071106,-0.03368837034785868,0.041294331564803034,-0.025810755975771746,0.008277690370815887,-0.02581195651975254,-0.021999338604905737,0.016141073436583084,-0.039027764339841675,-0.004983510844117813,-0.001640678135414103,-0.046278401535724094,0.03452394337161718,-0.03352010227306968,-0.0335436542336167,0.047899697366258834,-0.024539142536727843,-0.03072579314445057,0.06791309851500069,0.008753113233302854,0.050156573702980864,-0.02228466474688323,-0.045164226220181965,-0.030539559097901778,-0.04550273228683918,0.010371113335730368,0.029381619488542742,0.04727358859401481,0.030220245750002348,-0.04773834565493549,0.054329981108738976,0.06327013941829779,0.002313656264503098,0.02205760313828365,-0.025706608307065185,-0.015541223402530663,-0.02093385283437845,-0.05594649532832453,0.005295697476262693,0.02927817826559059,-0.0003018481583782194,-0.06161610280718402,-0.024699164368163235,-0.050467153056901935,-0.057122251885868405,0.07050486005499268,0.03072846794780133,0.060848224578998196,-0.009137820115288095,0.0029409583729287036,-0.0050558837456731705,0.019445303913435737,-0.038131629621949055,0.05829122548525462,-0.06265061047338277,-0.026836707698330953,-0.006094833072407355,-0.02252747844810253,-0.01799578984632047,-0.005467773071357174,0.018877932702853366,0.02629655313823312,-0.03215619554976817,-0.030970573449490404,0.005568706352494833,-0.009970466664335034,0.02775107817293406,0.04162706342718107,0.01643594550871462,-0.018238549340322686,0.00821246368658005,0.04273643584469106,-0.046498004109187856,0.01704601425318371,-0.02316723400599337,-0.018275168186923162,0.00019197833788402454,-0.02782708857185973,0.05465672912642257,-0.0035141903332110104,0.0204017953338881,0.04217754602256814,-0.05865479605777202,0.002969070427317685,-0.05078936466400139,0.019489056342800553,-0.044863781970402826,0.05346211533829758,-0.027700293143623697,-0.008528758903108459,0.01449211797370184,-0.011219838939697567,0.044479021330040384,0.04681321376913113,-0.009885056137320294,-0.06130987207959421,-0.004360899666790404,-0.02697418943680533,0.046700264154983906,0.021974247892279017,0.04151688531317116,0.001475530755020614,0.02042891920100537,0.01145676353466771,-0.04227687906252385,-0.031176932931096614,0.0630693625463783,0.05173037622172923,-0.0585726769592518,0.022589236051405507,0.013687046657467259,-0.04155279720147835,-0.035113055364093565,-0.022645271354207453,0.021405573540258675,0.03310397339647257,-0.026125272852129542,-0.05426904031163773,-0.006740073159651214,-0.029800327984041922,-0.012830017669914989,0.013003284140777064,0.058964513499575766,0.020910428611981235,-0.026456313144854787,0.016606959301607674,0.020505191563684917,-0.009588637579248977,0.006498662278697167,0.03573253082950977,0.013422525467630753,0.026440043451510877,-0.03322570395663561,0.043757134260377833,0.028896556992382097,0.030447000754483592,0.02976341338621851,-0.031205379727147774,0.04098784176752326,-0.02595387945830641,-0.007668223885838536,-0.04043216848798883,0.028957756639460194,0.02135824889598305,-0.0440560512859786,-0.012758308283234782,0.03130548522374075,0.02346114532828427,-0.018924328287321993,-0.03126693830619682,0.05504096608342387,-0.021143781617271373,0.001991312827978384,0.01527673597495646,0.04054093841965771,-0.016796987769505247,0.03127430694911169,0.05382816003692252,-0.009235718545516263,-0.03350979792543998,-0.03811908734044154,0.023295529649398686,-0.051261381257518994,-0.04318111809326371,0.020206552450273422,-0.04602146870799495,-0.02137896644138879,-0.04786599036065142,0.04643604177734354,0.05248988556726264,0.06583768480396832,-0.018786355052307836,0.001407329481800059,0.008889348501451915,-0.016132880448239042,0.01644345742390989,0.029488981786193087,0.05798370202898533,0.008010430138509904,0.0034400496112728406,-0.02924169969949595,0.03426747836379996,-0.01898307353760549,0.028812783520575033,-0.020096723957444496,0.05712924218241505,0.02158781088300806,0.01500693724039746,0.056835957268735325,-0.004926527667093768,0.05246828690998022,0.044640664448178546,-0.025043457517292613,-0.01613210293338064,-0.06320273896500156,-0.005511324038663476,-0.03627087786260947,-0.05620514261596002,0.052209492844678636,0.00690595115403323,-0.0015659349348178355,-0.005802340007949228,-0.00769106690938614,-0.019451513660468826,0.016983542563913295,0.006941059408601346,-0.05734055481409826,-0.012109833965690757,0.0597696234952962,-0.0048927425912949326,0.019483690231455957,-0.05965211185770599,0.028130351858587865,-0.0012495547177472218,0.01175215892537302,0.05535861498519791,0.011862447668608134,-0.03250197209205421,-0.019569774987365438,-0.05581074061468857,-0.0231643111654752,-0.036881835905235395,-0.023415767421379498,-0.028929750650411253,-0.0655952277904804,0.028813450077229665,0.0029166384782640634,0.02773597663144086,0.009558088995045835,0.0418660136386891,-0.039089670809698766,0.006020845460721767,-0.0453357310852505,-0.009621672687767828,0.05391576014130109,0.010788688961727369,0.03649753159022946,0.050398509942390465,-0.06005076225177941,-0.04806227096727725,0.027405097755519418,-0.028390029719590537,-0.06344919225510676,-0.03603430467435856,-0.054830007580743266,0.027153851887841463,-0.044818561723501904,0.05475668160969349,-0.038444673437717444,-0.024706756556933444,-0.009573882557043657,0.0027925945540345823,-0.01729632302575087,-0.011403913263142556,