encog,BasicNetwork,java,3.0.1,1,1394777657655
[BASIC]
[BASIC:PARAMS]
[BASIC:NETWORK]
beginTraining=0
connectionLimit=0
contextTargetOffset=0,0,0,0
contextTargetSize=0,0,0,0
endTraining=3
hasContext=f
inputCount=252
layerCounts=5,121,321,253
layerFeedCounts=5,120,320,252
layerContextCount=0,0,0,0
layerIndex=0,5,126,447
output=0,0,0,0,0,0,0,0,0,0,0,0,0,0,0,0,0,0,0,0,0,0,0,0,0,0,0,0,0,0,0,0,0,0,0,0,0,0,0,0,0,0,0,0,0,0,0,0,0,0,0,0,0,0,0,0,0,0,0,0,0,0,0,0,0,0,0,0,0,0,0,0,0,0,0,0,0,0,0,0,0,0,0,0,0,0,0,0,0,0,0,0,0,0,0,0,0,0,0,0,0,0,0,0,0,0,0,0,0,0,0,0,0,0,0,0,0,0,0,0,0,0,0,0,0,1,0,0,0,0,0,0,0,0,0,0,0,0,0,0,0,0,0,0,0,0,0,0,0,0,0,0,0,0,0,0,0,0,0,0,0,0,0,0,0,0,0,0,0,0,0,0,0,0,0,0,0,0,0,0,0,0,0,0,0,0,0,0,0,0,0,0,0,0,0,0,0,0,0,0,0,0,0,0,0,0,0,0,0,0,0,0,0,0,0,0,0,0,0,0,0,0,0,0,0,0,0,0,0,0,0,0,0,0,0,0,0,0,0,0,0,0,0,0,0,0,0,0,0,0,0,0,0,0,0,0,0,0,0,0,0,0,0,0,0,0,0,0,0,0,0,0,0,0,0,0,0,0,0,0,0,0,0,0,0,0,0,0,0,0,0,0,0,0,0,0,0,0,0,0,0,0,0,0,0,0,0,0,0,0,0,0,0,0,0,0,0,0,0,0,0,0,0,0,0,0,0,0,0,0,0,0,0,0,0,0,0,0,0,0,0,0,0,0,0,0,0,0,0,0,0,0,0,0,0,0,0,0,0,0,0,0,0,0,0,0,0,0,0,0,0,0,0,0,0,0,0,0,0,0,0,0,0,0,0,0,0,0,0,0,0,0,0,0,0,0,0,0,0,0,0,0,0,0,0,0,0,0,0,0,0,0,0,0,0,0,0,0,0,0,0,0,0,0,0,0,0,0,0,0,0,0,0,0,0,0,0,0,0,0,0,0,0,0,0,0,1,0,0,0,0,0,0,0,0,0,0,0,0,0,0,0,0,0,0,0,0,0,0,0,0,0,0,0,0,0,0,0,0,0,0,0,0,0,0,0,0,0,0,0,0,0,0,0,0,0,0,0,0,0,0,0,0,0,0,0,0,0,0,0,0,0,0,0,0,0,0,0,0,0,0,0,0,0,0,0,0,0,0,0,0,0,0,0,0,0,0,0,0,0,0,0,0,0,0,0,0,0,0,0,0,0,0,0,0,0,0,0,0,0,0,0,0,0,0,0,0,0,0,0,0,0,0,0,0,0,0,0,0,0,0,0,0,0,0,0,0,0,0,0,0,0,0,0,0,0,0,0,0,0,0,0,0,0,0,0,0,0,0,0,0,0,0,0,0,0,0,0,0,0,0,0,0,0,0,0,0,0,0,0,0,0,0,0,0,0,0,0,0,0,0,0,0,0,0,0,0,0,0,0,0,0,0,0,0,0,0,0,0,0,0,0,0,0,0,0,0,0,0,0,0,0,0,0,0,0,0,0,0,0,0,0,0,0,0,0,0,0,0,0,0,0,0,0,0,0,0,0,0,1
outputCount=5
weightIndex=0,605,39125,120085
weights=-0.18805586806713734,-0.03777774255239991,0.0018203582359841673,0.16740845197934107,0.04258698939101733,0.044851001893758465,0.02129805850655887,-0.08097118841140832,-0.13455295310821097,0.019011123274173272,0.2659565017365729,0.02314257189292135,-0.13215876078756117,0.19265863211988718,-0.0037362053384900704,-0.12112085852766606,0.22846230587359828,0.12051262683439287,-0.0710838380112549,0.3188484045536322,0.09487668353959161,0.10318357785932204,0.161033961214132,0.032990429608549164,-0.0979749181789074,-0.1003037415651792,0.040803078221263375,-0.13466346124815243,0.036976632752831216,-0.10211822277345182,0.11986016412522178,0.012257683833252594,0.025167358942187096,0.27633511922719217,0.08393558905875531,-0.26491533751915636,-0.05012779295923562,0.05199437085306303,0.21663232141839936,-0.2548374512922525,-0.19348310545970507,-0.04201068209411128,-0.1451033267253043,-0.21363233797837197,-0.11957601456380162,-0.0011408670974023109,-0.15507371225370517,0.025515821921827057,-0.050107896796259,-0.1619877378848797,-0.1346664363721344,-0.24434794696512707,0.08529298598919441,-0.13039614346822773,0.02485729051493526,-0.04712086650993011,0.10145953777935295,0.06574066856611843,0.06439085082603102,0.17964348379187461,0.020102329140400912,0.005176393714528311,-0.033336465215275876,-0.14323072481273647,0.13980291578760282,0.24403388537524345,-0.05558053527534642,-0.13719634637100347,0.040401487051322654,0.08294858957818561,-0.050582795656069116,-0.1852811921573941,0.11415883940712052,-0.16287000419838135,-0.2711198968735137,0.12410264039816887,0.16135734296771195,-0.12548204632815155,0.26965071607896646,0.13721894517248304,0.1184353705963537,0.17176824782994052,-0.3133213288161555,0.016812465445050506,0.05828064218007483,0.15844354911901784,0.09949895456315747,0.05508445536272253,-0.05234726928205956,0.04557490161921289,-0.011211748496244464,-0.09406857701995834,0.02076460410730236,0.12575038346809675,0.3741316617892408,-0.18651478412894484,0.15362773017600992,0.32123163651310965,0.09998163048486072,0.10677694566389195,-0.4636398990104153,0.36456993037296453,0.21934202554326748,0.2336320130334904,-0.06575567307310641,-0.21159334476906463,0.010197053955696048,0.10535939122917352,-0.13039682852972032,-0.014306731856586274,0.013651605759756956,-0.057308896522150224,-0.014434186109050867,0.22404357749224973,-0.29991703346772425,-0.08098027567939628,-0.12869647501312165,-0.11768121571087971,-0.017181724993843166,0.19642015553277914,0.021663921916184582,0.1631688173779824,0.07555467673840394,0.09442681129859824,-0.03406056691014542,0.26628560654941513,-0.16629990250465154,-0.06826135728830815,0.14983258853519993,-0.029636401193870496,0.0932696616557345,-0.14730402741651918,-0.19581770262361228,0.016786612483384627,-0.019471182689309433,-0.19875171782254625,-0.2043771528545275,0.06774275517039637,-0.05000142766391791,0.01805849745675882,0.010239706561553227,0.06419701003279976,-0.06082566441213091,0.1044287242301856,0.1477882900702992,0.056536294634876465,-0.05629733396769334,0.01337110901993144,0.20045398100003461,-0.008955374889036269,-0.04562466538397166,-0.211988512785548,0.1374910671725058,0.12930558851355956,-0.21502955302217777,0.14984706729457895,0.11300538350566273,-0.20330905192599297,-0.15488850727307282,0.10835799471732191,-0.15910635320775712,0.007507402721886683,-0.10905879384700821,0.08145547505074567,0.12498016374262849,0.09991957411108977,-0.061402700566362954,-0.11064289738130038,0.17870049794744364,-0.05259641609210833,0.148196524391046,0.2095576409699615,0.16767285385256636,-0.2982965789598698,0.15017426712863716,0.2205429757769202,0.10728072132314903,-0.13250940416192009,0.07235623193205278,0.08772291260425535,-0.005362268502293922,0.06422939996075663,0.012474141388791108,0.08317640519394129,0.06512172718682792,-0.05249666496546835,-0.08683528619686291,0.2922079785317118,0.16086291624762503,0.07118472513855004,0.15546275980334381,0.14595143352787351,-0.1626066886878397,-0.250029127867434,-0.029870157256615616,0.3400691063428307,-0.2402456393632175,-0.15010012190423946,-0.07106491034232565,-0.027786344933384142,-0.021010376951052297,0.03680218507585733,0.03285088223248182,-0.1605873015396003,-0.04064377837762223,-0.17198049853140793,0.07610421635510325,-0.0917583915523797,0.15948512019111463,-0.23111511015491093,0.1877726438010546,0.07057585287206575,-0.1072675579047468,-0.027140586402480422,0.11217517314857106,-0.12842097104483174,0.18851320332959864,-0.1187215361996741,-0.0970309221356232,-0.014961801883083761,0.09657756031792279,0.16818575281102208,-0.18953853259852502,-0.07395260872028979,-0.09543169310952068,0.06336984375993991,0.1786788043411943,-0.10860746482587091,-0.04237104058555597,-0.12455027175238038,0.03830138847821458,0.154729845513123,-0.212347342156869,-0.1380275673314901,0.11602842533280248,0.1612531861997206,0.1627075052968861,0.16869598782355102,-0.13758907130550121,0.2035225829966821,-0.27802411207760275,-0.15785045538967507,0.011485991527588287,-0.09947090116138892,-0.038710766904649065,-0.0832859082138296,-0.20290553144386478,0.0026170034696275236,-0.084920772113998,0.028178892536669338,0.00010997722563534256,0.08548023380624173,-0.30129341555686884,0.1528614705500824,0.0009173616978059941,0.0031471134033465593,0.0544629855476871,0.02191060853858304,0.021277388140252117,0.03110574128771974,0.40449241099692645,-0.0014912227712159344,-0.027606077251701663,-0.06218420290089756,0.13924929628553653,-0.15931092789397178,-0.0568364947915102,0.1465097960530007,-0.2076594734561072,0.10008019060767491,0.0722656045901803,0.2239869610344031,-0.04005385237506764,-0.0167346451448486,0.1234175303167827,0.058239438032344895,0.11697039753808348,-0.02475244159870978,0.23702207279172952,0.03557936798250636,-0.23700153791409737,0.2522720964967102,-0.042255661069300836,-0.019098320873903417,0.17350396469453896,-0.03298956054743068,0.1629067132775665,0.0017107554771434196,-0.019279529030267514,0.13024782083486086,0.04861294522453739,0.06552721341759872,0.00034226659955083555,-0.0475762794836774,-0.14661896640577132,-0.02725024306922345,0.028113894984118606,-0.13683666832748576,-0.0786189675760788,0.14540147105429058,-0.2454615835124708,0.05916612890063842,0.038645647676108404,0.08314487292887728,-0.055164986437380825,0.12004227134929282,0.1181041433414275,-0.23004085974309166,0.15971049030820517,-0.08602470120943494,0.17411890816767156,-0.1805470206993341,-0.03971953653631208,0.06593333177782565,-0.031379175990917545,0.10002485791611944,0.05463935024042497,-0.07652366430386727,-0.037756036332501006,0.15304901334777843,-0.21008706825686294,-0.1753124372799523,-0.19618040549368626,-0.17555061641192238,0.015781822784509045,0.07450837783604461,-0.14596708480160148,-0.019983205032629736,0.25712354638659213,0.0807282096742545,0.09913498448383216,0.07075454310912703,-0.3107549849178963,0.021987496663861007,0.042570336263251705,-0.022328669053044863,-0.2773503694953899,0.09790658779690867,0.05503206307859849,-0.04506759018986594,-0.03324941798452437,0.1718982178067048,0.037037036922292335,-0.23542462302537423,-0.12489985464007622,-0.48744371880663456,0.024320299085271085,-0.05480650190181752,-0.03343987697619424,0.04476641785630586,0.1109591113520326,0.10699633604057232,0.10826133431242212,0.0755802810185504,-0.13680500243941374,-0.20338486597394875,-0.25919435311160594,-0.06246343396246213,0.09632684577437099,0.07057136378898395,-0.050733893941156155,-0.06616657981419945,0.2347242704170212,0.1367226564590062,-0.0956999551461112,0.15795149635277103,-0.08980102565725821,0.04072942492812268,0.18855856891353495,0.34604405874771044,-0.07456857927018261,0.0984954457280599,-0.2074690845443874,0.021122612734628263,0.05386587798843528,-0.12380909199695328,-0.09376574420451918,0.17264066931983788,0.19334294109583833,-0.22747302564155747,-0.08244992362795475,-0.21640346393190754,-0.19232192497235212,0.28509851493609106,-0.11435439137990273,-0.07528301371841277,0.04017120853046837,-0.029116936747679154,0.14921460552937843,0.09429466092159418,-0.11082827109920816,-0.1349870360106663,0.015508149722892339,-0.042508380005302174,0.012584562410255642,-0.17972115415920953,0.1052017966970383,0.03209547762126093,0.18482618878542736,0.019923897767460952,0.08465189363013065,-0.14410893722697074,0.012773111011689837,0.17842134903361434,0.1806594903806985,0.05821471283171982,0.06352432540208197,-0.27745198689003703,0.014862475443752214,0.3169142228834888,-0.3270025145821216,0.0761479092931693,0.04222621882718193,-0.02772608853248236,0.15331563068047957,0.3059992032628377,-0.022476910490301837,-0.17839547612705567,-0.109459670308204,0.15936164696896782,0.010622829561259386,0.06792021825923056,-0.17471979014712452,0.1428563938910983,-0.09876601890524947,0.0003979173370258558,0.13137117784767594,-0.2600064528788216,0.0156504065186638,-0.04813678527425754,0.10368584406663538,-0.023885469246740825,0.18710280744007957,0.03452407616712543,0.19101808406265203,0.1505038771275947,0.20934872655562356,-0.1663514024744144,0.08653375670262778,-0.15637665818825,0.04089876976726774,0.07365242760622183,-0.08537994112957517,-0.15726071567104272,0.1695946980545708,0.4040240677599782,-0.06788205478532922,0.4021439332856798,-0.03332568252718101,-0.11470219547982621,-0.07702102352825829,0.16729624192954967,-0.3340913264549667,0.2366233690235757,0.17728256238751988,0.12487564594588857,-0.04530500548497718,0.03356468434141359,-0.05903101297296385,-0.06744565246729227,0.16920201510920582,-0.08412862462597337,-0.06672948879153083,0.2722039526699778,0.004902337489854434,-0.1593047724365128,0.1376747253928409,0.1650356306470686,0.05969302965028694,0.19710494092853612,0.0621626731053613,0.07147041982895627,-0.022854969078968945,-0.1732875289727158,-0.007076698502899499,0.07114552393459034,-0.22204109859185434,0.39052519143247183,0.17217079389794623,0.045481671121316444,-0.07809092365949281,-0.022235658735370638,0.21054721483994032,0.08023746628421133,-0.17350992191495024,-0.017247848700244945,-0.13036939333747197,0.015305562085471921,-0.11578897273884754,-0.137048896281137,0.042065674001439124,-0.09159407866683249,0.0014239158042614716,-0.005671145014394633,0.22566669195269556,-0.06360010025517222,-0.008471397083915942,-0.1249263254384398,-0.035223860331277945,0.10998385504472952,0.03726965278590928,-0.0072493903268917685,-0.26787954611474624,-0.16256057892079215,-0.25402799992243325,0.2529093124392084,-0.07867074782989424,-0.014446159827924637,0.009826909559433883,-0.08981488760739632,0.0986540639012953,-0.013453987232954805,0.06237679639067913,0.05967888003320988,0.1914661766485128,0.07467445836612728,-0.09616909582722158,-0.2140824457311918,-0.2667708428547916,-0.05161897383455773,-0.008379837846989476,-0.012841387008009374,-0.009057395555006433,0.16239646883550052,0.02657711864172732,-0.04988624645030913,-0.19487145293471994,-0.010785841830617137,0.09541672175514045,0.2276040949445415,0.06419467070414646,-0.0005382023186957356,0.051990553900556666,-0.05727628232102062,-0.08057068892151723,-0.01740858621881862,0.03168189718472614,0.0011418253520720158,0.0056934761774711535,0.013919715023571262,0.008880025073269925,-0.23754800216550284,0.17162622706925357,0.04825237806853553,-0.129139928665878,0.17421243817739007,-0.12984066780785913,0.01589820052315994,0.11034587796314105,0.05787549987421789,-0.15309822252596117,-0.01486086635095511,-0.05907826846627522,-0.15651750315011476,-0.07978577730797926,0.1191391198087375,0.054439112564002204,-0.04837121412560332,-0.03226598016130796,0.05464720596261138,-0.011554231038641567,-0.08935748117121427,-0.15612029580685308,-0.035116286001957715,0.11882321319917835,-0.22041311336108899,-0.03084617097502458,-0.13595273114221476,-0.20487999986981098,-0.12554746540550404,-0.06865207957416529,-0.008356818369165473,0.15732275902481344,0.07264605897836174,0.0894730380203563,0.061340405223568976,-0.0629903663958229,-0.03297089033566487,0.010200082487066511,-0.07053159395605853,-0.10051689553947753,-0.25778169902097015,-0.013651681683529343,-0.2644782043402344,-0.039516823966374924,-0.054773077406177845,0.0688756947781059,0.3399378608703183,-0.24025173733908176,-0.12142701494292903,-0.11745066511529498,-0.18455988405522014,0.10035124426358988,0.08394641381036072,-0.1139243677629732,0.22252300002527745,0.17920779768632786,0.1515918412618916,-0.08227177444788512,-0.22874123945443495,-0.04419095431928047,-0.0004261990579014632,-0.07064359101794888,0.016796045958533137,0.20656655936319562,-0.04688014724083652,-0.06774106596623822,-0.04894817423979365,-0.05613205059557077,0.051221412245259015,-0.04578799421644487,0.02712832485709702,-0.04680191750763823,0.022811349729204428,0.04693772989993931,0.04693516809368394,-0.07957335688411363,0.023296063774944527,0.07897669343565118,-0.00048789885832911423,0.016020831456515016,0.002608208642038721,0.026196214830431278,-0.006932215611123719,0.09276186841579544,-0.052408656064426115,0.06308950506938418,-0.0021820819030293893,0.007056166495403783,-0.024815068876619592,0.0019523806013072474,-0.02444724993970165,0.03427160559943542,0.03263840645890595,-0.055871277805673344,-0.06695067045864671,-0.038383104071037774,-0.014802451177746711,-0.017872094166488318,-0.06897372204485148,0.006068609416805417,-0.05704407804679471,-0.0076964371242988034,0.03432303696703097,-0.03640507098506248,-0.0004693528498272507,-0.059696677440070595,-0.03138061837009621,-0.05399071768171155,-0.02787580591391991,-0.019036153594616738,-0.0004759975913704594,-0.03194121075928257,0.07264769947382971,-0.06122351425777798,0.03701123833221428,-0.0010021283916136219,0.042176437601542334,-0.019766944932567084,0.03355989581921025,-0.04647722691058581,-0.020492469771342,0.04355758486122283,-0.05463548434066966,-0.07223969416123835,-0.03222148669485386,-0.001745338259291401,-0.02480540159267921,0.04200796910460565,-0.06595781535872948,0.05938442811797501,-0.04825939157536979,0.008722564970330554,0.011713882639684545,-0.08401245086056457,0.01989556949870337,0.02163058452990933,0.009726581990698396,0.03163136696910121,0.04119378659466836,-0.06129655861462951,0.0768281846651713,-0.034831998095411446,0.04039425786752611,-0.08459725122170077,0.030894333110084663,-0.05533307731354069,0.0330058539889024,0.05633378906693961,0.06783468595129948,0.05867565986422509,-0.06473889443265837,0.031494183690128026,-0.0006762278474038087,0.050993646389758125,0.0641746682028139,0.05149798200634664,0.06715091577839778,-0.013380939894984048,0.0010235950930907861,0.033586724993692786,0.05212040005863718,0.024698429848416765,0.008635206626151902,0.08655601370836313,0.04731710054945523,-0.019202837523839264,0.06852800098555148,-0.03112900781986988,-0.009532039822038057,0.04484305326383413,-0.004969295400691208,-0.021945254096830135,0.05564774965921988,-0.028186614817029172,0.03257535181247986,0.01039595674281353,0.052527547748329274,0.05571068533978707,0.007816293716432766,-0.07407611456069234,0.036891860900376626,-0.02591026412651608,0.042835474208588936,-0.03244652444635225,-0.01631273997111859,-0.03490033782599121,-0.014344615516623464,-0.03486497200060089,0.029873357544006527,0.03186011347238511,-0.04358212770373521,0.06753008141918108,0.04919382317880758,0.025792146898041064,-0.022731701686604884,-0.0009975822323314688,-0.021213163505952107,0.04245000514349972,-0.06452967913632245,0.015238538003371478,-0.04141248762622306,0.0549005500205437,-0.03293848582915784,-0.014136527333197034,-0.02620907136894671,0.07746885590356797,-0.07407842627054116,-0.0719251034967177,0.03226779450283161,0.013174931777235842,0.019595137949957642,-0.009596055426655628,-0.03956725513426305,0.07677115881824036,0.035585592345707164,0.020574764336168536,0.06606324325470507,0.02473940396464094,-0.06028801275271189,-0.047408698131253084,-0.006854027208146623,-0.022033592053488812,-0.017987283873229284,-0.03672840752769488,0.03563381492173969,0.021129619449951766,-0.03749296639161098,-0.057607664033203936,-0.03422965911151786,-0.016227248759114188,-0.05986315358129556,-0.028324379008980258,-0.03063841204893255,-0.039365355626822696,-0.005689864724203644,-0.006488823873856377,0.06317847206937446,-0.07134274569938706,-0.03535707604149016,-0.011012567514292049,-0.03234477017523154,-0.037298827128131436,-0.007308465868389144,-0.04666279930126281,0.01515555145275319,-0.06110309281951715,-0.03675427907207828,-0.05687951687073778,-0.017130710703930796,-0.07163863460444864,0.0637498306103299,0.027767191786415547,-0.04467752576441695,-0.02127872174344753,0.058257858873459946,0.0444648223118642,0.05136891813671171,-0.025961734699604878,0.041698803653657135,0.0003772963134378801,0.040682314725679534,0.07971262494165941,-0.02153200337878968,-0.025224555155318403,-0.005428016629296822,0.012827943304762786,-0.024409191996174404,-0.06710931013452454,0.07266706806419977,0.023492202092713986,-0.027432685447978635,-0.020497196229140258,0.0032893554820833865,-0.02476095019582593,0.04640205769817336,0.05634358002350508,0.008131299441153175,0.05208523945524498,-0.012334712374009712,0.03634145553297595,-0.033591220252782855,0.011332979176939288,-0.027926728830873875,-0.05588780734540809,0.031353792289597476,0.016097981058788246,0.007557465443474785,-0.025524084209855805,-0.03554921599263988,-0.060156552803076316,-0.04496934661935095,0.008785685488856025,-0.03661324584067362,-0.014337981244625563,0.026718780539653715,-0.05703593243450446,-0.009894525137764785,-0.04385422571193261,0.033541296113329656,-0.009138895312913568,0.06352594549313231,-0.04068406060186565,0.03812318785878427,-0.06684501066572833,0.047318694238424795,0.11635017688594419,-0.06933224000520566,-0.06503552988684837,0.043411908128094374,0.015788652896238556,0.015614206280381153,0.027591742102927166,-0.0587332935450031,0.08240947129780557,-0.046557653766142994,-0.029665656229817566,-0.006953205147259741,0.05657606385623366,0.05616636370599053,-0.05321956327832425,0.019084938057918763,-0.06604114645873983,0.03135342452658429,-0.0341197966643609,0.0509167571923209,-0.026240863871896104,0.041782584869360144,0.03402478929262408,0.033007267528859345,0.01655975167314955,-0.07587525434430216,-0.018202017683879062,-0.03180178925484248,-0.0012700336660557937,-0.005904077553823615,0.03783100451947149,-0.014413711818058958,-0.0074346023675316295,0.018175191628037046,0.013208181074060707,-0.01647748081602492,0.029926509010918898,0.05195612454354108,-0.02187238847953744,0.013080227656879153,-0.01577577641731441,0.052650661417194926,0.02485147435345551,-0.00011199815596231837,0.0786018190984945,0.0032420936780654507,-0.07941019614123963,0.06322625807493673,0.022115667300704286,-0.0590720959163488,-0.009418137695390193,0.06966731618258391,0.04826222764384607,-0.05114659329081111,-0.006285870966165258,0.08599751857080634,0.011902523593211353,-0.053213490804902994,-0.09251560761392616,0.061360746396337165,0.014026742725175694,0.012221619011509978,0.06217076455827272,-0.0723251962567446,-0.10036821071762347,-0.06961243007889889,-0.03300429557464303,-0.02008961469259333,0.0765020242801942,-0.04872837407930954,0.0035084368788404993,0.036957332326549595,0.03443191085455241,0.023519012035693263,-0.04037659817873541,-0.06191530273000311,0.023467476438565376,0.015153237649567967,-0.061106570425378245,-0.008748086206003834,0.04122507141640891,-0.04798709312193275,-0.03328708841575255,0.06861707480334685,-0.031879510380857096,0.042961796017077794,0.022018500288702055,-0.0009507483988596508,-0.015013885353648001,0.02778399416498683,-0.020541392574864623,-0.004780629174517282,0.057360686306408865,0.02168373661411859,-0.06508403755777496,-0.02336812207760669,-0.036394576652068696,0.045460084466255414,0.0576102015991776,0.022165492420376617,0.02553729103068377,0.0066166701277716785,-0.004970683515276507,-0.07566562231002365,-0.06013030119842086,0.03498475521470056,-0.0011742911897514973,-0.04092733027664851,0.04750521718152637,0.07528639483728305,0.04508576126572571,-0.03919184251534347,0.04259752671055954,-0.01047455858798677,0.05001764564786889,-0.04959958206960124,0.014589449764902056,0.016902528446219842,-0.05837518166503891,0.041374732821045396,-0.03773011419356804,0.04639788888993936,0.024827965598924705,0.040466386823476155,-0.02058732835573424,0.008280102406809745,0.04702582628300805,0.030358879002722765,-0.07390345983095867,0.049834839208787785,0.03837195416574445,-0.018836296996177723,0.04229804142017804,-0.0025991294950577547,-0.04806808175628207,-0.06041742760606494,-0.05068627111854332,-0.03751505045643421,-0.06436978749647863,-0.06687906577706379,0.021509772226451788,-0.027051129983232072,0.0029836478779822337,0.06926496689415244,0.030056759774865657,0.054653800650464754,-0.0005395397252067546,-0.030078117524133252,-0.053643414888899774,0.029123866225410414,0.05715507250240308,-0.0027435479589251292,-0.003945528112586239,-0.04629511980441701,-0.036212316541132626,-0.012815467709504378,-0.020635327650858248,-0.052273133216705264,0.04894052359075007,-0.010444668119693728,0.032292082484798576,0.00000177686666160923,0.026340822402644827,0.03365835240576822,-0.04195348206456875,0.002661113412664847,0.025267868502771088,-0.024062779634883978,0.030881876034331887,0.01961365246085067,-0.04512353966312376,-0.04358340021797942,0.06964545946244162,-0.05889766656385879,0.0558010004890147,-0.026968217679080305,-0.049442039064849945,0.05701791385470742,-0.021215520156249515,-0.035802583138653726,0.013721919112137155,-0.014518611490607618,-0.04463850416547057,0.022934622883606693,0.05161489787302965,0.01583843274221465,0.024248123216399083,0.006570940349943935,-0.012808598220391744,0.03899739422535695,0.030821276026713598,-0.01992521564449397,-0.06091106675087867,0.04906175896087786,-0.06539426938487465,-0.04223365573145779,0.04858588071685899,-0.04387801100073427,0.05429937994239142,-0.03726569945002097,0.06830163856081457,-0.00036983310906418837,-0.052743506715361134,0.011806012362844969,-0.027727425541839597,-0.00488814164204227,0.042635603455281876,0.018152477823894664,-0.028055370939108776,-0.07584416384459673,0.002416369362183166,-0.030824777960458866,0.046648961337626055,0.04450561468283927,0.029199686668228343,0.04385297533839059,-0.02092409224757094,-0.011525533505612319,0.05948253861844412,0.04612283187672053,0.060563705495755626,0.06388282000440818,0.007078248334820488,-0.0391421414199159,0.04974265266962141,-0.0003109441251294869,0.027214317099475718,-0.041755229124041005,-0.026303138574713017,-0.04676111651019225,-0.005673934346005923,0.0029452965528097112,0.05132037519010424,0.05731865104391212,0.03510876043763029,-0.0054262168361059295,0.02332361897773628,0.014675976842462635,-0.008180194009907969,0.016445646635545205,-0.03154206542908357,0.03858038357777702,0.05150625227878049,0.025298534568695692,-0.017654590962945953,-0.03287336927912789,0.039842489378321286,-0.04185550426092024,-0.05067247640969836,0.05349870247034861,0.008867460435839521,-0.0017999734885997846,-0.048275075885278365,-0.058551234333412513,-0.02940840910074935,0.014498285002692499,0.062304036851654206,0.008334907670736039,0.007367418718094708,-0.03305838586898181,0.04134585580564245,-0.05018030115460531,-0.02079368355196517,0.04949639564522689,-0.06053567948379697,0.038191203851804766,-0.033428290229474154,-0.03284315303645006,0.0007261426610868215,-0.049932089963727805,0.06715026738074924,-0.044754981269367264,-0.037689504257946434,0.054829634556390096,0.030184988632511237,0.050251229181586796,0.07642087374785515,0.0189522758940149,0.04571952584154523,-0.027787469195943184,-0.04158944240410007,-0.0326257212922045,0.02773771297851956,-0.029642673278033726,-0.029799701467226932,-0.026383558449960834,-0.002244613804347843,-0.05668782966691086,0.02734606302639976,0.060311978372618966,-0.07034333506657148,-0.04731777624136466,-0.027880951931313937,-0.05284961877714652,0.06543227118492571,-0.03496955067690158,-0.025264420326291795,0.06601770403689522,-0.04488082263457836,-0.034098986197795035,-0.01522688565484383,-0.03943216010392331,-0.04277707623568423,-0.02046086567771142,-0.06991466201189303,-0.004541483365011132,-0.049520983663923476,0.03610780208522428,0.030679651397324502,-0.015858171237483298,-0.037221580327615085,-0.05642146303357974,-0.015623182561551126,-0.040681959204026306,0.008988962995513567,0.04640973224153308,0.042852776392038196,0.0519513705297358,-0.06056829985660761,0.018851022424806827,-0.01397031867431554,-0.055853815379031786,0.007781924335965026,-0.03679248295473383,-0.07545079572670785,0.06706342413648614,-0.014775404383869995,0.005077201189539081,0.07789719004872106,0.03570590870676145,0.05772054315203064,-0.040950145848838826,0.055932190937260366,-0.06958593613759409,0.05252239456561275,-0.009724828692518984,-0.03452536075172125,-0.03451915557620672,0.029307346296481244,0.042078654427360127,0.0371932300094519,0.030623963051097734,0.032548975972234294,-0.06002294612428021,0.02878835490666549,0.009501456342171158,0.013445233640961245,-0.0023956989130349783,0.04409295827517784,-0.004621698807600121,-0.04685264074386575,-0.02571925074198855,0.010742070255487053,-0.06359333416614883,0.014682114354523894,-0.02501600382901346,0.014718773140126765,-0.07820087464524528,-0.042672897534151044,0.053874694577597845,-0.02486455401079866,0.029532745237628458,-0.03469324228427528,0.03404276948445218,0.04066359823718584,-0.046747413871702274,-0.003938402967619955,0.03495975740036622,-0.003208239615609803,-0.0016075670096863893,0.07331743431510333,-0.03952521259572591,0.052834081925530504,-0.03639613155603449,0.06211034817618792,-0.002454655717331552,-0.0027733991096396313,0.06602470082911693,-0.03706389748639595,0.034055509844466196,0.0024386546066532924,0.04330269482978538,0.05313372031529827,-0.04088145842485306,-0.001704703396035065,0.01210225738804207,-0.030045542422796043,0.01193913313206514,-0.028506697127782844,0.017921740130692844,0.028988431336487038,0.05630424526738667,0.014042076869836774,0.03482753791562658,0.0383528949274254,-0.06564823894337794,-0.004352543669071422,0.044821017762708484,0.00003401958194552182,0.023570844855401778,-0.029394100173213495,0.07309506467170285,-0.05621527469490375,-0.05582193743249857,0.020946128136591257,0.0010459353428819618,0.012145240895007084,-0.06066307217696121,0.032028529753697535,0.03853153362948758,0.012992302444584939,0.06578278417610292,-0.03957997721719736,-0.007054393949231215,0.015766235798439096,-0.0706613822923545,-0.04442656417240519,0.045754326219918484,0.022860731308939113,0.05306254622753246,0.0015320616382499313,-0.014177664668677379,-0.029627753473563414,-0.01154046760171192,0.03989465324715176,-0.012664201162873453,-0.02617505050854774,0.0013312156717125013,-0.004955988718249742,-0.06438656336382226,0.059241848767234505,0.02907388719075317,0.027665506380450587,0.03611360144211709,-0.06929322623557634,-0.004559839611621122,-0.005668540909664856,0.018960205553166493,-0.06031919584389803,0.020345980746480904,0.008915545951455555,-0.017851446014695783,0.00102860673223861,-0.03001110381549209,-0.0551400695533629,-0.029512656964973034,-0.03483353285804705,0.011366937794152559,-0.016777921508817215,0.026140768831923962,-0.014974065071531689,0.056557373234215,-0.06213844483189143,0.01773158339972104,0.06976043148057919,-0.00320995021362951,-0.03444964218260266,-0.02430301138872585,-0.04601899352950985,0.011609052055745974,-0.07156342524508273,-0.033048328058802985,0.047227919340681296,0.0603710365546671,-0.0767504192217336,-0.043625637860325195,-0.04080538453013927,0.0118287067203264,0.06793922556807203,-0.009157569534350428,-0.015881250990603155,0.022230274505818378,0.0539865762635178,0.036757024097813985,0.026201712918723242,-0.06422550024275564,-0.018314386379440068,-0.06045770081259222,-0.02948443965121959,-0.06049768487294545,-0.09665105851790476,0.05120332698911334,-0.03225131296665416,0.0186397556121721,0.03881165626329494,-0.04655930120690682,-0.03433686100116414,-0.06418178158966335,-0.02217129341612402,-0.04704607610364877,-0.009510663819167492,-0.04354639905568883,-0.02631237350879709,-0.04705347758636725,0.022928983734820094,0.04918505999368686,0.012006081719024161,-0.015637198594400867,-0.019023163944559475,0.03568550862179898,0.05327856763672688,0.014080260550615795,0.008542218355913553,-0.05498308640098589,0.05823329101146493,0.06419886937735182,0.05067554992651921,-0.06773967841973552,0.0660825086821949,0.02014051926743383,-0.013061657869858622,0.06161885467518949,-0.056927269123363294,-0.0061263869348698805,0.06691116787520973,-0.039006527976259975,-0.022540508331715628,0.05557153447788587,0.04322956125690056,-0.009203547111426128,-0.04614078682887775,0.05371390449697359,0.00454384981953944,-0.019027336238652718,-0.07026350770693611,0.04786769217413888,-0.016795197405715036,-0.042246763750849715,0.011254822261465553,-0.011054182125258282,0.002531208815624944,0.02487126405100719,-0.05508087050891568,0.0659714843497692,0.05706415783082813,0.04131341121494324,-0.0654014341117695,-0.02476120341524875,0.01535760355704182,0.024002413300052122,-0.026805023015245198,-0.021373742053743684,0.06325361568271826,0.040610620183629965,0.042151466273995304,0.0019394607552334386,-0.06142129030519415,-0.015890762613149166,0.007801834791425798,-0.033716798260528716,0.05946809203185044,0.03150520617783741,0.0029221980689311624,0.059454372912855234,-0.01606615652117509,-0.010273434186956252,-0.043657043500005,-0.0644098538483357,-0.038407728399166605,-0.040390888241113754,-0.034667172930494726,-0.054198460179214314,0.002181768460432445,-0.03908624074910095,-0.04519854068023417,0.04763063211495115,0.0438302102653941,0.06852139576928204,0.045079002604483914,-0.05133078644513403,0.012651344588208104,-0.014658579844247843,-0.05080616675265986,0.041996402933052526,-0.06599193629795021,-0.03944566798289271,0.042553235423641644,-0.03925605764489201,0.021696818343524927,-0.05149682481466134,-0.06294837918331675,-0.04140667719019902,-0.0506193349953354,0.03692238862450705,-0.0021471103496220633,0.05050879084126651,0.015423504712923638,-0.003035090218373474,-0.0693194779468114,-0.06441401175057536,0.025116115774500795,0.03929316562076062,-0.01965865426193323,-0.05648066001738306,0.016620481014814663,-0.019164862145956817,-0.015426729993441869,-0.051385670427619747,0.019713375369079866,0.037621994494368365,0.018313078103048344,0.020241056649147975,-0.05692861549180067,-0.04738241679659143,-0.04930934904699375,0.031880446733767734,-0.0010450751074839535,-0.035500495820726986,0.01104509988543819,-0.04842735367447476,-0.07186707777152332,0.06256144374107932,0.04370195654478071,-0.04883465013536711,0.02645184099267655,-0.0315340042914331,0.035708061644343723,-0.04658496416381594,-0.01374367471790108,-0.03292298922577382,-0.05441325758748525,-0.05173027751205435,-0.04474948212374429,0.027567515417708677,0.028769572134251586,0.009278371467736952,0.04677152955234713,-0.015230470347619594,0.05311523543467105,0.0057971522002517265,-0.017517433933601324,0.01254722678718922,-0.017566709752189002,-0.05372120155022133,0.06842748176829207,-0.07408932802675307,0.026637662304325696,-0.010136038982432061,-0.013413711212180482,0.02935807722757264,-0.01683023125261854,0.008328073364987577,0.0692777102631553,-0.07624596396844718,-0.05424943307212222,-0.0015581394501098453,-0.047300768146034296,0.06940237433212414,-0.043026693446810045,0.04728066530094028,-0.062375028140064626,-0.06976348334431483,-0.06564656327529853,0.005866008292274831,0.024549042520184635,0.003577626639913118,0.04261331875022221,0.023809804771375717,0.016116215303481608,0.022469670267548696,0.020858380025729442,-0.06479598031585294,-0.008608685236661383,0.02605707856683334,-0.0005501085953768659,-0.008995690840453556,-0.062414126546125326,-0.07479162360379767,0.050996129481670746,-0.057297036342837566,0.004720559481383455,-0.026223136032042058,0.0347708598525273,-0.05435280813524134,0.058509633719771595,-0.038284302616149915,0.0003509486919022493,0.062377974521804595,0.04478275908987273,0.025085878639671745,0.023406925223910854,-0.022652034313269197,-0.029817011861901582,-0.02353954617900553,-0.05401170135813304,0.025667427990508453,0.021424392722837016,-0.018176652074606007,0.022102146836130505,-0.04075662282329519,-0.01887709736507618,-0.0636941113299609,0.06377081639946479,-0.01894270036588023,0.05981143017651321,0.008998272436850592,-0.051818209865244,0.039681330478495404,0.056375270498487146,0.024482016668924442,0.013718234515695754,-0.04798632033117393,0.03736886150715151,-0.03859622810522702,0.06088426696217343,-0.03074027527879493,-0.05546447046397033,-0.031417693999628016,-0.055846949485700056,-0.005473240511341998,-0.06095886347605349,0.015007644592741707,0.04040793111805556,0.008054715365590992,-0.06218943948680525,0.05175738032555571,0.01771753402771018,0.034493886800230425,0.06751864314306726,0.005909813147567916,-0.015960848908163964,0.05447569496977033,0.06137677968478602,-0.016572401290927744,-0.033437146779152084,0.007294101273583369,-0.05004068405676811,-0.030925443582429983,0.002398883452731942,-0.021155928487370298,-0.020448660229042345,0.03008403471812849,0.0392968723378903,0.07971676991942055,-0.030797183263997198,-0.010026198918126217,-0.035750359452624406,-0.019480927696746895,0.032076188656205075,0.05343796002782926,0.05686057374662725,0.011007378215377242,-0.053604589994808285,-0.06304812754761992,0.027516778969210624,0.06056969305141418,0.005808248265911242,-0.02058417754234583,-0.021279809186464407,0.018025968148074195,-0.036781675846461484,-0.006039650392449599,0.051416943894935806,-0.008332703704236737,0.04561178756124269,0.007049099849827174,-0.05319278637216987,-0.012055528770665576,-0.002083200498351876,-0.0046317946298216235,-0.06356294501817437,-0.05382540669745607,-0.03900164791082222,0.029308499197027077,-0.041221431165632726,0.03230431749045633,-0.033321435502267564,-0.03776240326312978,-0.053471869309418996,0.055191136604778576,-0.07934963356461343,-0.04258131821274248,0.04208243477864751,0.012872406625633496,-0.036712764614603925,-0.011438610195803013,-0.03444770695406392,-0.010212039845946985,0.0005759540920763594,0.0383436899359782,0.06927920049286443,0.025504609798898754,0.016337997668626036,-0.0014965431881906412,0.07440395873448818,-0.022952636504532418,-0.03789032101332843,-0.0023749387518784706,0.009201994171814998,0.03243619467032999,-0.024002462023759136,-0.0026999367481172244,0.06998594075110921,-0.00801689899047182,-0.07398684846862086,0.0262132343962894,-0.047861617867978316,0.04941284451869522,-0.032178658328875176,0.011702712626008487,-0.0036821702301282643,-0.0077562288708731405,0.020981403836156945,-0.014619206911888968,-0.08151478402845452,0.0022857610572670187,0.04770140927116029,-0.0621826391644538,0.0415743509403985,-0.04293547543989259,-0.034726459254962795,-0.009790842631030198,0.05153733485468015,0.04410513429311412,-0.05285218344051354,0.046419883853281,-0.010316748110751402,-0.0359687926612436,0.043405226150225365,-0.019682873756623802,0.03727799430242966,-0.001167128279467257,-0.05544585930555602,0.03953459368080742,0.061438120184743074,-0.02731682790037643,-0.011556991759033942,-0.01400797597330022,-0.06010186114152414,0.040455215308912613,-0.008224405739722124,-0.02590629184217868,-0.02061337889337486,-0.0359031636699544,-0.030459957747591908,-0.07175851154213331,0.0023746663556836337,-0.02943755338056244,-0.020783776903244976,-0.03223910018801629,0.032709060026057266,0.02850609658943153,0.009467917275164616,-0.016293510151567013,0.04071930641724015,0.033068135276660436,-0.0022290333309329564,-0.06167283751497381,-0.03981137742245497,0.07120629644724828,-0.07142978677825147,-0.030292408552902095,0.06261232031979916,0.027889325838362906,-0.03918702145092844,-0.007862767114442532,0.05000721126326005,-0.02788398048257582,-0.07095457334634907,0.011858633902721719,-0.058410553036687775,0.06011030703007592,0.06401321737074446,-0.0595152956110057,-0.03582757673464075,0.061982522020123415,-0.020765209055484832,-0.018054011039440012,-0.06537850405936643,-0.05323778933806116,0.012633586090593545,-0.04787910785035444,-0.040532535787591126,-0.009176190031629377,-0.026639166767350054,-0.029648673530894475,-0.012337365987546933,-0.06892349488069052,0.054972714433178034,0.06014366023788601,0.001201878401252253,0.03443783158534526,-0.016772979892353924,-0.03510893338586081,-0.017808667899978283,-0.06359926824178869,-0.025122092221091675,-0.015276553587126806,-0.005594436532594755,0.02422110401323618,0.067302375806324,0.00233531868261602,-0.05907741703607797,0.01995806673005592,-0.05522826030522072,-0.05207439217147032,0.01690363467896321,-0.04670849371009617,0.031157181256823673,0.004356914215666618,0.03144171838287362,0.020503173814948625,-0.054848892413548594,-0.00863335188476893,-0.06368049947640744,-0.05291677979814621,-0.03769474953300897,0.013824101922882363,0.025751368224563576,-0.05032631687809771,0.04159889696682802,-0.06529312288395313,-0.02441580708165973,0.06368018721313914,0.01913193886391739,-0.031247705266714762,0.03529216004796778,-0.06158430988500723,0.019903861926061802,-0.05756636513499738,0.038383074642695046,-0.06429244002232413,0.009042423744074926,0.01665805955470056,0.051906148726603936,0.027046431502108798,-0.034386549825876925,0.010351381289583352,0.03857287376192729,-0.04707458743698226,-0.09089840445818544,0.014702112317749835,-0.05704706648723898,-0.019393878125944036,-0.05983023008707543,-0.07772386458903473,0.07813397498245708,0.08051027107780512,-0.004032929155813117,0.02366283672342383,-0.010872819845602202,0.009561743959897822,-0.009898188197687351,0.013689191918498947,-0.030204407861615455,0.04474512163311702,-0.03925899896489612,0.046996084968193616,0.06993034319355969,0.03485938445895975,0.051693164645970464,0.0027242476076088018,-0.07246525472980432,0.07416155219084057,0.025205816862086238,0.04428449635834323,-0.007033990336583477,-0.038719865745227254,0.006535749679639853,0.0052365947582170185,-0.07311791194653817,-0.033936353131951334,-0.05435737872969561,-0.03332011083801503,-0.027095023539765957,0.03866989576515076,-0.06753693299597972,-0.048893968670874206,-0.06269464232412299,0.04781848140710603,0.06789327177180422,-0.06525291837193536,0.010631242533248342,-0.007709195382933009,0.015633495427803224,0.054298131657528954,-0.026134394878181463,0.00902191432194613,-0.027334205719439893,-0.043257189083201156,-0.03256430509746296,-0.036901402939785,0.08601086068153614,0.07052007053275658,-0.015529879805944377,0.031118963298224465,0.03244043077169392,0.0325104294341182,-0.01628237284413896,-0.009180253250091721,-0.05516082374529375,0.03302638531779918,0.004651553478467069,0.043222865259209126,-0.06077536537307537,0.06844083109542351,-0.009817911109545588,0.05926838345736982,-0.07410543625165923,-0.007514478678579682,0.0019668687607937757,0.04147394798333996,0.013819982537020728,-0.011220169810005213,0.007880146316773263,0.04937266712698066,-0.0009206393568308647,0.04819177497936269,0.038878368665315355,-0.05494362300477658,0.022161474047729782,0.018958630671880968,-0.029609281007770653,-0.033682121298539966,-0.0407457354223121,0.0439896396183576,0.05036272184902755,0.005146121198129519,-0.0354424355714634,0.027471932790695566,0.057290251749022206,0.04057775360579996,-0.06893158748412653,0.05158511704575494,0.011844876810364356,0.017427867760071554,0.026580294001729572,0.04487134255464942,0.053700599954208325,-0.029871785856902148,-0.034481754225717885,0.06545819628871445,-0.021698241919063714,-0.02400843494889164,-0.056363835228189774,-0.0007772832982240304,0.03769801954034269,-0.07112452971738636,0.034673549735008816,-0.03849535960468016,-0.027801686145238102,-0.01157069642057104,-0.07282547495561816,0.03948497531727086,0.05015348308685979,-0.010142930297089093,-0.0002557459333565151,0.10343855065258514,-0.004937421217727806,-0.006560438857183534,-0.038836603214858864,-0.036609770671013765,-0.001611418279300503,-0.01421148470328883,0.029326462474436148,-0.014514962378712738,0.11041567938944727,0.02315267309700744,-0.05730082845615906,0.020595093244360936,0.04200365207251281,0.025072030033947867,-0.06628949482832089,-0.009311434474045008,-0.04112487641368545,-0.039344154228791596,0.01234937130132464,0.05537973434300983,0.015568686738911798,0.025716136634347863,0.05147608952904092,-0.06384659608968457,0.011916822539135454,0.01915831751503011,0.07869751479691904,0.06465907714457952,0.022154558398098517,-0.10566103520620805,-0.028673192653590317,0.02548458531031621,-0.08217607309748061,-0.03961824779399952,0.06575203419385199,-0.0346167468594522,0.051688291949232586,0.048539065928447075,0.052773842114322275,0.061301476034836044,-0.05808021610059194,-0.07820560459242727,0.013296717099172666,-0.03893861287814961,0.10165629725233265,0.0984850696903525,-0.06356205685121782,-0.04917204229861821,0.05706317463288286,-0.04067127414566708,-0.016176895373766004,-0.007611319317262298,0.07659377849665694,-0.02651191527347068,-0.047811210898927654,0.05977319021988686,-0.034082059671094095,-0.01742347329299086,-0.003803425427688201,0.0044450452593823514,0.008131096856247787,-0.08531966589232791,0.01782989949299245,-0.05286874754074681,-0.06988186412860439,-0.055197623894778454,0.02262971337764056,-0.06863974851685745,0.012003315383063063,0.024273442197695755,-0.05579338482665549,-0.08789749595626518,0.04046439531233569,0.03851030961794965,0.01174136313330599,-0.021591008584507916,0.016327588021482688,0.08490428281110235,0.05286322020457386,0.0013654781432816184,-0.0071682452265394905,0.004825786370493867,0.014238495109239111,0.013132167066799462,-0.047180103695786534,0.010709197549732246,0.09370913790890134,0.03345704860745034,-0.06959485283026934,0.014807681597894537,0.04746058007099637,0.044873486561192485,-0.05221494715489816,-0.03705741512973793,0.02829847863669336,0.02499355720690049,-0.02833244605432858,0.0816774679161569,0.007423148779862079,0.0301638100335338,-0.054568834521117014,-0.033945913006248774,0.06338008666274417,-0.03414629319402709,0.05356284634597308,0.024098389466071492,0.04896519912195194,-0.012288387303570443,-0.07762796810410005,0.00969184066900416,-0.09267772869167439,-0.10851191103866373,0.0394413268264924,-0.010413818620904415,-0.04726386827473956,0.010147197564326603,-0.009299511629143609,0.03446600216066087,0.021521983904940683,-0.034660004550376065,0.03343797099372954,0.04428032710283562,-0.07132533212462291,-0.024787796801449453,-0.05945853927236467,-0.05044959535685081,0.03485965111823009,-0.019072057686926887,-0.05883215244344284,-0.012958270230833666,0.027414655628040394,-0.04308754091490042,0.005497007346997568,0.06953871795213258,0.06536899473229883,-0.004719941516786015,-0.010165436163474368,-0.07168110597566119,0.0008404948341177073,-0.011186034539179417,0.010967421436728055,-0.016381846396633225,0.014712103692356728,-0.034754293698440894,-0.03968462861400519,0.02999934857316769,0.07506679455215114,-0.05525400274386854,0.0035587660287698304,0.0663108954816706,0.05250154245367945,0.09211663587895474,-0.01742942429892387,0.045692534630226066,-0.027089611240797198,0.014642792618203416,-0.05808948719828412,-0.0006858907310250338,0.06357164465147688,-0.03263642441607095,0.019251679061646612,0.08100576687405973,-0.036589435912121014,-0.05583261929391021,0.010428237839286085,-0.03645465490780287,-0.09077377812606437,0.08062448775521057,0.02762856042460695,-0.0578816720970774,0.04849322571705752,0.014411344174855099,-0.03632215816673021,0.005474448583537048,0.06731194870676016,0.022996417446620978,0.05500818702228393,0.07934207048018384,0.030272182415197572,-0.07471991135847535,0.04106455392339638,-0.035427275925831274,0.0025986022111420476,0.002163798973495539,0.0170428951541142,0.04129481730955091,0.060936160284132214,0.03240737401121014,-0.01903665770505223,0.05841462284893997,-0.07272696283700936,0.011883313736974703,0.0012297515694969906,-0.007661488664675492,0.02383856862229657,0.030605391733894566,0.047454589762116944,-0.02353890395435318,-0.06267427803856236,-0.01968324564214424,-0.035073966165357164,0.06891084758544974,-0.03925192392646629,-0.08563166900913266,0.022023103476373197,-0.022169436155198,-0.046432409955403084,0.09199410894069582,-0.019710751414254685,-0.014875858093223605,0.06176439579090294,0.007708314112682474,-0.014962217082840606,-0.004881522045206731,0.06607161457661255,-0.028194090281566976,0.033509169557725864,0.057969828666020635,-0.055884656975388906,0.026088891478114093,-0.10969064225093292,0.001368630894885198,0.0809546576157526,-0.030560218164051543,-0.016300720252092317,0.019078613474056802,0.07160251589217728,0.06562826323872707,0.05844738365771777,0.00988529535986602,-0.026290118173784904,-0.021545042321762704,-0.001284938425861556,-0.002297388008661794,-0.03959134187701588,0.01926394996950546,-0.007837729697859995,-0.050195818520388076,-0.0269449551208477,0.0020050624450298486,-0.04069116317046197,0.031334978058204246,0.056995475600832374,0.08562480376201106,-0.08765838000314306,0.06386786743117161,0.06329421653515743,-0.04925207357879323,-0.017900582327449798,-0.024435611054025242,-0.07804051557355585,0.047701706129949534,-0.014346371532716447,0.047964398043659755,-0.047998377709466106,-0.024086213024464898,-0.0128426184740937,0.05740446695719619,-0.027930412279484396,-0.024115169116758903,-0.021354064265638517,0.02471262034357128,-0.05420738798631679,0.05774857323681717,0.007298272940255276,-0.013793103728531321,0.0368442765313661,-0.08267126709451543,-0.002154204316335103,-0.04872093618670294,-0.022389649685475264,-0.04424893122573725,0.03942859669186594,0.01256636044162829,-0.043073171163848165,0.044861931182553744,0.031885321022559754,-0.029016584689765937,-0.07087069141150242,0.051857039916317973,0.04087535781132397,0.002349327887576878,-0.06877577638090696,0.058786604094309844,-0.01933741839017534,0.0011152691346169572,-0.04676022118046325,-0.0009056619975463398,-0.012410867401618349,0.010040655300739087,0.07770978215244326,0.05945565620388726,0.07434007139548832,0.02099141009482648,-0.08289178956771177,-0.05845576498245319,0.03122937700387106,-0.03875543734381585,0.06355742682683585,0.033529441424274345,-0.0074502629180839336,0.09479638066991666,0.023008270196472565,-0.04221165892729477,0.08478084128149693,0.054841173984027505,-0.052024491481588296,0.005089572677103129,0.01876208105704592,0.05596619880607889,0.01984016227095434,0.02909877842622254,0.10383566065951265,-0.07093597196008015,-0.03338272670377911,-0.10048986354121829,-0.022922527771780703,0.04779832302058309,-0.04250498037816808,0.049348978123053305,0.04338619591991457,0.03383501538828001,0.04271208702358115,0.04903376362023773,-0.003080583926605076,0.007413559940945876,-0.0027710973021892425,0.014083911743311773,-0.059762378695900314,-0.025098338286414744,-0.014119176321373831,-0.023498471233783257,0.0511325359303052,0.0670793075910072,0.028884021276380064,0.027331361757708925,0.025305969874379344,0.06825256884425115,-0.026731008946696274,-0.04957567356181736,0.05071056940777314,-0.03579798346460692,-0.08273701044738253,0.010851814202208309,-0.01461374518537771,-0.0543873033577027,-0.06686742144077329,0.027433861154972913,0.07669289121133775,0.03220370088636674,-0.013743691513465453,0.0836852016241249,0.008185844078624332,-0.07282568686390918,-0.0717641541046234,-0.07426682229164563,-0.028841503058806853,-0.007468827194511585,-0.04608874635035684,-0.07629825656647539,0.016173014137757544,0.04903482789770428,0.05064079031675625,0.04187074975708654,-0.0299309105031181,-0.014254538629202798,0.011909402003151864,0.033825686505951275,0.018329737072778737,0.015135861519124655,-0.06726619199492392,0.03726644776625827,0.03359439697619968,-0.047320466964043836,-0.037896767072631295,-0.04180617840387696,0.029770876004486975,0.038673873739877705,0.05171920666782342,-0.027872737794096984,0.02209277629984706,-0.05160508181449816,-0.04810174853380888,-0.002329270595490837,0.033543428017837114,-0.09198679138275027,-0.024768471476628844,-0.02553724080971245,-0.024769038820462896,0.0478067760818207,0.016380682451603512,0.02581557154470605,-0.006403041325709507,0.07743743586446535,0.058037073373596974,-0.026997716379234326,0.005001261627740305,-0.019114800315891734,0.00583555548269826,-0.0624143310670458,0.04652082695058468,-0.07911587944247381,-0.049177217881487725,0.0060624652196874015,0.046691409492955964,0.01942287461015561,-0.03921612202566827,0.023203408980305557,-0.0683010688721084,0.021787699062148676,-0.013367537771260207,0.04942454493216699,-0.03418361766389024,0.024511216185087843,-0.05431493549485324,0.03448728691653324,0.01867804264188111,0.01627396008489312,-0.03484651361234176,-0.01466816253594194,0.03825563319877557,0.030184424191423503,-0.06993264168370893,0.03486482714791967,0.016446900081058022,0.00584160978643344,-0.036725933094625685,0.026032418861391814,0.08273449479290451,-0.009385958253693689,0.022752021538903492,-0.015070914194700807,0.0009408142510358152,-0.0039108198162053085,-0.04294079623615111,-0.011020309613566235,0.08491917886448545,-0.05102405763363762,0.02919190209232192,-0.07383307770574125,-0.05030541094079921,0.04835549839797999,-0.058086015760411926,-0.05950642563673631,-0.029816236463838994,0.048829780792684914,-0.062499835596677364,-0.03626569090724321,0.015431987319873375,-0.035819749917249115,0.03571613582315062,0.021940624528312525,-0.05113028299691125,0.02695738074620805,-0.013390413206327844,-0.009675712674714492,-0.06804646904459177,-0.010818196970486858,0.04758767906336625,0.06479105231114995,0.05400646144552796,-0.0018624543923768503,0.03453871638146071,-0.012914193807081828,-0.017444329867118833,-0.02807837793467695,0.0045429742409761826,0.021313412656018906,-0.0064293470237934405,0.043619509851619505,-0.03113239229755337,0.042173472349774414,0.02138997495302544,0.005388142143612928,-0.022270738270070874,-0.04883740925794806,-0.06730303843948962,-0.05816812219867533,-0.0021810482754704747,0.05752641308425355,-0.06794171529927315,-0.02042088348224518,-0.02559015252493334,-0.06066241435141497,0.031179003519738145,-0.031410737081700155,-0.014451067489231386,-0.020742405911939557,-0.02075269217681084,0.06933219547643008,-0.03769893776010296,-0.005651597118564618,-0.0014173453438385503,0.0015610243625813686,-0.039823890873817706,0.04320557218811564,0.02816093877291837,-0.0009970048109512683,-0.03223839466148087,0.041780287589504354,0.06859935801848104,-0.05896678988149701,-0.025715783384988068,-0.0228692226145745,-0.0020344152047308338,0.009707086063913512,-0.02923480406165286,-0.06332089006557204,0.05430678756019491,-0.05212295748132555,-0.046247426121928274,-0.01882495215998658,0.049025247041899964,-0.038954159220774956,0.019384565733933448,0.06279170366939905,0.012886063485946602,-0.04883438288806359,-0.019452488259049612,-0.036399777716698105,-0.022536976124958346,-0.05733759206698465,-0.025461664157270004,0.011929077238595414,0.04430178681706746,0.04063648108047733,0.05023498900108936,-0.01937908925101421,0.017073467221340278,-0.046945403691851045,-0.008189711623599117,-0.04105597224947834,0.05789462242065084,0.022140066715193207,0.006733617511036955,0.03480176610353705,-0.04058950514455481,-0.012000494980046838,-0.03515906898238798,0.015575020971253161,0.03741282860308879,-0.0495250223791228,-0.04513044498788171,0.04372156720093545,0.055805203118159154,-0.047211003908508506,-0.020259880294682033,0.08224009202261381,-0.015060568608957355,-0.00284007309646357,-0.05296584607866065,0.04790674964941365,-0.053729448523719595,0.03936368477613447,0.04576702784423279,-0.0055959700341098725,0.07367881186215768,-0.021557446605088588,0.039462488972795515,-0.01457337969556082,0.05280820776904966,-0.0500036324721181,-0.05646652259667981,0.060548341896664255,0.059188262418979266,-0.03948977408514351,-0.013377362551191548,-0.036276525459432336,0.026001696204481138,0.06754267367935622,0.022631925390290877,-0.054801413654650646,-0.0612858007430085,-0.06733532102575841,0.07196597875178956,-0.025226205774010763,0.023249993625901636,-0.042588619665562946,-0.0593259754044439,0.016264587881048564,-0.06269724997147867,0.03734754469232896,-0.08200307632228744,0.023112496372917603,-0.05877778270564757,0.0549606032812239,-0.05938681790436159,-0.05227863283463967,0.053676587320463445,0.07174593780265143,0.02395031973340121,-0.008575156816805561,-0.037302661566648306,0.0016275982381910564,-0.02120855611766618,-0.0268261824453548,-0.07999818603770892,0.025882839681636197,-0.03977786838757953,-0.00224726040051345,-0.011674446400079091,-0.051829916839798616,-0.02239518515971577,0.0472997761138188,0.011416281462264748,0.06541488946510429,-0.06597609389402992,-0.06454388178368839,0.08053067809988845,-0.01602358510222481,-0.032113039536819044,-0.00001027241553721621,0.028210350622726435,-0.07303817447103753,0.03393071428706188,-0.03243887780850195,0.03907979749518426,0.03203918422514275,0.03818792524183063,0.058561996438120774,-0.06294885870651729,0.03047926978061332,-0.0327492122796636,0.02155699697625158,-0.053291195734322096,0.05151544628089808,-0.0434069912236373,-0.006097583864181369,0.03229537356827126,-0.013783903439520705,0.0029940355272093273,0.0838681942524901,0.01826016280101165,-0.06836589813950762,-0.06696013559091843,0.05105105012157095,-0.05328608590296072,0.03949550561689618,0.05050113974319913,-0.04910762274114709,-0.008718053712508503,0.08975087380950435,0.03168222825324674,-0.021033115529156318,-0.031163087868045686,0.05429035052149548,-0.032661593132814484,0.01790938816768954,-0.046602947366484834,-0.03445304035971063,-0.007473406177039763,-0.01655407595355301,-0.07972582754935818,-0.001501390075813278,-0.005283021022217223,-0.054521582598298375,-0.06392456948020889,0.06868486656746596,-0.06975097286936871,0.03896345448052008,-0.023187569372647317,0.019455290295152583,-0.029806455904780704,0.008664897777018196,0.06869127938882734,0.047892052110389376,0.06992109965141682,-0.015756985466313465,-0.03252105413777884,0.0238186006514344,0.004958904484709678,-0.039722271293429624,0.06496321353968798,0.09021538091458177,-0.039532016545294604,-0.08761485513820354,-0.00232691750142045,-0.041611390621840945,-0.056116241849611975,-0.03409026046691894,-0.04916299972300782,0.05870199412877684,0.004071791533019473,-0.030495501766078813,0.08143904458671236,0.05434929985175077,-0.014080359876526895,0.041420527194140744,0.05627943255885552,-0.03942828493408434,0.04339635746005506,-0.027751762828009122,-0.06930665036260296,0.00423358469117759,0.06465160471968913,-0.05716616882587386,0.046317074825423965,-0.054258264150380514,-0.00965168397587143,-0.05905921868840859,0.0018590980137029984,0.02748661712631852,-0.008769149832945555,-0.007763724029273915,-0.056830405992731065,-0.024309676333788124,-0.01726616301855686,-0.04007099496364505,0.049137267094278604,0.008500681434760363,0.05087733565868367,-0.018565662542725552,-0.01739377854298062,-0.027562111976713377,0.009084209101345227,0.008304407650637705,-0.06419454501759711,-0.02328448362303467,-0.0006822923408563204,0.08821012535719122,0.046837249598145406,-0.019838668105272808,-0.04962472968146173,0.06888888265791858,-0.026599534691241305,-0.014926426448131072,-0.021513310732068986,-0.043861806506943296,0.06303171316676355,-0.057356024317797426,0.001828194255587597,0.002161424767366623,-0.0889971171032314,0.030286074678704443,0.049697007256644214,-0.056320465938414395,0.009780255354109675,-0.05173712873259057,-0.03515683009930188,-0.06817246646266055,-0.05177405164283174,-0.06844171727068217,-0.029664573051019924,-0.033238836072521136,-0.004019406871660338,0.05377004028668205,-0.05181364436725745,-0.004960030589490639,-0.01530168799863255,0.02622170158563365,-0.01635807043531988,0.04290960139903266,-0.0208350025488065,0.03797119448686172,0.03515833388763372,0.009626892780031905,0.033383847203557165,0.005828993195594541,-0.015909976439382384,0.03160017791071687,-0.06957199860660776,0.03235301487943779,0.0033972363611710064,-0.03141206778530514,-0.023256991759923833,0.04339908882453932,0.036288787303357495,0.06596073532764501,0.0019172894988530413,-0.04607309848913528,-0.01804840113570408,0.050592513797138375,0.000661088537036269,-0.04337625580486112,-0.027316049560006033,0.008190520502059139,-0.06961788852626093,-0.06902128601454824,-0.01747420732265961,-0.09047635924802909,-0.05522978291686007,0.019361724898952035,-0.04445664942427108,0.07085510230530935,-0.07006026474648556,0.0008446944849490438,-0.013313351334489944,0.0811509350990651,0.019713314687042297,0.04272615098971017,-0.052313817960023344,0.009257927100884892,0.027602040852298965,-0.03308301971993197,-0.06104324319987438,0.043458098866619777,-0.06375417390110501,-0.000090678755416118,-0.02347127550576039,0.0013655323392625872,0.06256403746361376,-0.07150577484042563,-0.011286758066513723,-0.057355364884524446,-0.06621310577615785,-0.0020419056814924867,0.03083903459194635,-0.07646399237068781,0.00911127470564014,0.06251269635640903,-0.07668532612217577,-0.038204246268352136,-0.06688291715317499,-0.026405231563354628,-0.06940107295759097,0.039411931919237836,-0.06887208636688166,0.06114867958447366,-0.06076338685530998,0.026772787310621354,0.03981217560126573,-0.02113970161780098,-0.055349222630824806,-0.025080125212077566,-0.03726836335852274,0.061449737205239635,-0.02116686719021897,-0.04358787675730899,-0.06285518241248997,0.060508830884236364,0.056282651602149826,-0.05169829787670473,-0.028599648014306804,-0.06438075426860017,0.018343026479507675,-0.07562575652929653,-0.020223869845698423,-0.06530561212499714,-0.022176869378210035,-0.016594536658703776,-0.04482100417448537,0.008626404327100332,0.050929177545001626,-0.0403188424018213,-0.016756849288523005,0.06503027970236534,-0.05667474036493033,-0.0525929069967638,-0.050631833146495,-0.03377893975082086,-0.028255146162502274,0.0271058015062382,0.023981211839859514,-0.016404255143301995,0.004323138004499636,-0.05733878409418502,0.0045507491224322395,-0.025801131614276367,-0.06337110495276381,-0.02636632918212705,-0.0656056068225026,0.027968567305737203,-0.03994360591684868,-0.025267285906180426,-0.034302561164871195,-0.003432645243902571,0.05559617436724502,0.02407770303599179,0.0772918273013342,-0.07584274379869728,0.05353093391177616,-0.015602475321242947,0.04364813308047188,-0.05664088878342826,0.02249437818129961,0.038470621447397074,0.041778929035506854,0.002940315048915404,-0.06773748593794451,0.022488791406758496,0.0176311165145787,-0.003952715848993395,-0.011789243457618906,-0.03977374873053086,0.040413571315623,0.037391855241849424,0.0000172698804561359,-0.049482536958985336,-0.05417684395945228,0.015466883984607974,0.036209897838898775,-0.06845954858196214,-0.03447582260863253,-0.0233607024173954,0.04563207944381865,0.0463394187254951,-0.04242224612411857,-0.05222685094700538,0.03144850867601067,-0.0017608430956722603,0.055130285653705854,-0.0880680227420488,-0.02384662221170227,-0.09521345365148329,0.04086869112176742,0.013425162828300561,-0.036053440478834166,0.014348119054783694,-0.03359006705317375,-0.06754738890877812,-0.017834213317246356,-0.004630711889854592,0.03843331353240188,-0.005484729419344695,0.0742795361601775,0.05359270530985109,0.057246436334557074,-0.045565848767790657,-0.056495482315937956,0.005924030292358776,-0.07488878541524954,0.04212641293958921,-0.043216330325218814,0.015407390097487634,-0.02857357457459799,-0.051829395469100814,-0.027663695284485056,-0.0030758792965779147,0.0394538909812229,0.04170838599007597,-0.04689822952873128,-0.050820396589887344,-0.021943535499631784,-0.0006305299742485977,0.03189751246660097,0.050226162825027926,-0.053298972847976654,-0.0010998619624589985,-0.001004638765146094,0.016645937454365694,0.06286594819615728,-0.04377461789163689,0.0320018275099359,-0.027424452469335454,-0.04279325740199875,-0.019189811684974994,-0.041818348457543904,-0.012520429062462823,-0.08634005320927277,0.03747664508781063,0.0664215536797472,-0.016746816815061495,-0.0074807808379376076,-0.023461411618770325,-0.016751066195081696,0.004838352574283716,-0.03431849076403553,0.011503634823127077,-0.018745355823028297,0.040900797484459545,0.0220090380007959,0.05403652618856396,-0.06521485273345913,-0.05159066429827953,-0.0717297784545112,0.03263060474060729,0.0624417782292368,0.016944122408254342,-0.06760353577208349,-0.030014956250226467,0.031003200227990274,0.016141113532690723,-0.003586190223263221,-0.0034276360205692767,-0.03774386724765056,-0.07677042570240271,0.030545252369245848,-0.022098125112002816,-0.02491299477054371,0.02733938847666128,-0.011221529857527387,-0.014179892430131203,0.023563118895741014,0.026184609961414695,0.025274212615860443,-0.04047478338232246,0.06873150179520729,0.07324513972013996,-0.020925208755345395,-0.0563574931139487,0.03996409872718018,-0.012932632635604365,0.0033631863361279547,-0.07477690929741287,-0.011331627653705977,0.06555238623586422,-0.043174626471135014,-0.006348268735045346,0.03011082521103487,0.01412466445340073,0.023576999338497422,0.016148080807286996,0.04277017058085365,0.020958062168420857,0.009566123582507023,0.03998362479182606,-0.05372752967107449,-0.03236221766911073,-0.026173247937299967,-0.07998471110844112,-0.035905036098688975,0.06172044945640477,0.047287244677188894,0.05501255733496672,-0.030449521079441096,0.03873480062304884,0.030801574537018636,-0.03901918856315222,0.04277266104567051,0.03126274091247213,-0.036084923584353695,-0.0143040246581107,0.05032391238177646,0.026012797454281013,-0.054719480658395124,-0.04553170819312392,-0.02316937334727734,0.05710688781028289,-0.057282520821305916,-0.06739532265185445,0.023613466939462358,-0.04708822911702447,0.05740744720333145,-0.04783962385684619,-0.011967445625634267,0.05816205286987912,-0.02013030467345487,0.05712035337673587,-0.0031638145475056086,0.03276951157673266,0.023265908722332265,0.06608083450951298,-0.034600827401213,-0.038132254778275775,-0.024081495640013398,0.013341819021350685,-0.06378175265257727,0.04888549658706953,-0.002144664726503908,-0.024032045896366212,0.01441820620804013,-0.010479078702961999,-0.038046855554215206,0.060160837245916615,-0.005160835444591951,-0.0569512659327438,-0.013279805592646366,0.01367920900161724,0.006170420839933354,0.020425464039875357,-0.02015407645253059,0.012891838429148332,0.029939201860977635,-0.055959270432524424,-0.03978255121913834,0.04337016518312253,-0.0014771142773655041,-0.012383606166602768,0.015521959646965969,0.01860984702013858,0.05464190335821934,0.01029535027124329,0.03118702106992685,0.03422249896173592,-0.037833987193018906,-0.05094746320976167,0.028314491328048266,0.00002836158485873668,-0.029313004687639026,-0.02306287011640195,-0.05755398712004459,0.04636068696647925,0.07690807960936032,0.022877864056598186,-0.040540361544771725,0.03450247818998976,0.007003262541241605,0.04367598332258875,-0.055575279759649265,0.05944322999024229,0.07920315137425903,-0.0455231194165453,0.02398978987185752,-0.006908018089145141,0.02423232841790544,-0.03156657407866496,-0.025406098880396057,0.016490677848059333,-0.058492832523274675,0.09089218557392391,0.06078042449517807,-0.06983159622095297,0.06423598774757543,0.043857380160373854,-0.06770145884880358,-0.04217884828226233,-0.04580642727673144,-0.061543995495140044,0.010193846569404974,-0.041228081731647284,0.05822216124970545,0.05698130909134138,0.06259660754171942,0.03517445587313361,0.04431078683410976,0.03425180517057778,-0.027788113694909827,0.03494396275038645,0.025657974899960065,0.0630528849060012,-0.04014673591902844,0.006756618603129864,-0.055449594908212406,-0.03651808560897334,-0.02110213243839641,0.04512915633705096,-0.029312753644829704,-0.025343489827291753,0.01848152337639947,0.004506487447045775,0.012530328955122816,0.0529679155055077,0.01870501703113157,0.03660588589234642,0.057105882290269874,0.004599791570879897,0.01824051805595345,0.026326111010501103,-0.043660172453502726,-0.05589408227489718,-0.006990728767236486,0.01050007070899674,0.060906429634477746,0.003141067541214592,-0.0156382245793215,-0.0532807000287175,-0.04111442339472591,0.007411843260510827,0.04228936856851196,-0.02041697507837841,-0.02410514757838607,0.053009736311809344,0.034361458816807036,-0.032823563507584606,-0.005227636835776174,0.08774240281486165,-0.062382841889533525,-0.03550327852839153,-0.02887818156014514,0.004935978424484626,0.008606086310171256,0.04318370398716984,0.07362156367294882,-0.032968172520698634,0.01809106005874862,-0.06784499793525685,-0.05613621371172751,-0.00008889473276799089,-0.0452744847009183,-0.045285910320595014,0.030714948206076675,-0.013756102627238632,-0.02265920494174533,0.040824994243847876,-0.04622186015494714,0.07800842083574219,0.00681933047676984,0.043040915975540946,0.03515612341914149,-0.05549983358212958,0.03717763611746033,0.01535422710566469,-0.02460896673396804,-0.03284868135028825,-0.06743467302872884,0.018843724011078096,0.062273983473158136,0.05774202847748246,-0.012930326973674409,-0.00632199246267546,0.01786997585082231,0.02877051373974307,-0.01902233821784894,-0.023940443534109724,-0.052699447584134716,-0.03293099091556832,0.057679123614606476,0.04739617237200387,-0.001962018962623593,0.055032553541559115,0.05311373112101753,-0.0688839408490111,-0.028355323958487652,0.00963994243083943,-0.04532509329718999,-0.015073042024949919,0.0012802464111397569,0.07487171275847543,-0.04410644823097892,0.04603453219273222,0.040999689942425505,-0.054690874041155524,-0.01592454771034264,0.05551585392928574,0.011788766855347601,-0.006488684889350686,-0.05913631808044519,-0.020487374945492583,-0.0505740724604219,0.07358763981454566,-0.05556891825361303,-0.054028828587815624,0.0636761935099551,-0.07471764483200134,-0.013983549970410151,0.030771010080117612,-0.008718044023374848,0.02659399132799041,0.03788608402070801,0.01343101872705119,0.00467101894467265,-0.005814798656060493,-0.008729019298130405,-0.04739473766468556,-0.023026381212708117,0.009952276282629173,0.020582364969107505,-0.0401212171926015,0.0038126329558415837,0.04546118413379463,-0.03965967130225792,0.024351001857227546,-0.03996527884944504,0.04449229785191331,-0.023464495917533468,-0.01798285459441994,0.031102092012549577,0.048486867720757706,0.034562651480169716,-0.074100640422915,0.029282703499847677,0.0017536486822183083,0.021683793809561983,0.0001842624203968542,-0.00008575706163463766,0.029753206382398187,-0.0013889736313128468,0.036748948182868446,-0.050738631536610915,0.052370269886570495,-0.03806193440298738,-0.03588200373366139,0.024921143510637365,-0.11025054166865295,-0.020019988668540635,-0.024064981060425705,0.07517663467064599,0.027703183506950394,-0.014425368817686914,0.07006013659393744,0.015864113402196126,0.060056574463006066,0.014874776639568491,0.061811127652391905,0.03010701516880553,0.044783657191733314,0.015174727831484918,0.07085817323660001,-0.01149242663172916,0.011005324104287739,-0.054781016864516356,0.05255732896347177,0.03520225660001254,-0.001900150726204625,0.04186867278838035,-0.04930996570844072,-0.016058211246992176,-0.03510133958684468,-0.05114580015635247,-0.04402602747364637,-0.06429602182936295,-0.01242878654588283,-0.03990225864665486,0.015606030639145166,-0.004278792406935381,-0.06155916646052486,0.012728902518732092,0.0483878037740418,-0.028776238290105217,-0.015526539600048423,-0.045993173498507206,-0.016056715030477828,-0.013588167993267165,-0.02499405801290999,-0.009921050117414431,-0.031608890749843827,0.060839946814246475,0.006385820069543986,-0.032382294273274284,0.009326076956957344,-0.06799740532564243,0.033668420766784224,-0.05977309326637204,0.01485988550680845,0.014970493374468655,-0.06525994949226575,0.03675402972276141,-0.04665945726633589,0.04034033883278382,0.02940230020934717,0.05651845878232597,-0.0525075630771871,0.0066960533994792765,-0.01653531478963087,0.014991561836613097,0.04425226194769222,0.04938827482363232,0.05544272214952671,-0.0549310971441439,0.029783718114604566,0.06865609294945248,0.07807555870915377,0.004070605319183729,-0.0523028470567046,0.024402425720263587,-0.06160754598521568,0.0074983450815209705,0.009162189443065393,-0.018789044687379363,0.06123975699461281,0.05558769468678426,0.03719625742119278,0.009838615639803188,0.0035064629383786275,-0.07079356582635563,-0.07401957435252188,0.06586746447330277,0.04360530712371453,-0.05070923254989446,-0.042242700748110026,-0.011709245289000475,-0.000498587633697237,0.04256783068254508,0.03975058771291903,-0.04339859776554857,0.046983083966872105,0.05198688019985413,0.05159558593740024,-0.06275868808795133,0.05526764006654862,0.003061580179165065,-0.0050793996674327315,0.044557757236549915,-0.0334844452037086,0.04712809436315801,0.034081580016727946,0.01836014973194956,0.013518089403990022,-0.012673824890952397,0.008832942151136872,-0.059773884903307,-0.057624326131519125,-0.07693718844122159,-0.04939651384107093,0.008879388775769709,-0.018784110377024123,0.02962369964741166,0.03137906637864126,0.0009275691213754677,-0.03343030496557063,-0.0389463611958644,0.008011811885465483,-0.04218431400241563,-0.06335268906847921,0.0010770607763983548,-0.02614025260534895,-0.05780359320242406,0.019869229656221815,0.008668977917185416,-0.04562019206289369,0.06002430354407985,0.02605061494352781,0.009437068354182686,0.03471522257367724,-0.007394656206986334,0.012845917095725655,-0.012114577168483574,-0.03691045063762718,-0.006156136969336541,0.06633607340588306,-0.06511234934138196,0.014374911802078031,-0.052327921607625276,-0.0031775677589373523,0.05636250677312038,0.013384344112073086,-0.07353055188700229,-0.03485806351803862,0.03923778673238092,-0.020889430158319077,0.023196262804867928,-0.061318900883870375,-0.056204115663311065,-0.08143158237734471,-0.037030318030454736,0.04180088760056871,0.04077088628190713,-0.05317862891578367,0.04743970151480659,-0.019912281335913384,-0.06307562222411783,0.0542192308890225,0.060080447457997184,-0.0516949605373364,-0.06491814792813265,0.04251744187637706,-0.039034789831394995,-0.061267770988524324,-0.029210999766098943,0.017589577180051365,0.019748170928126606,0.004563810302429258,-0.03420928236395733,0.01995667543822183,0.005039776475909511,-0.0312562974297924,-0.00179308998733721,-0.059970002096131333,0.06479669807955775,0.0115636302444477,-0.030455764508409654,-0.0019923422894545188,-0.044706706606412815,-0.0689060701552599,0.025242105194581643,-0.019696371712647133,-0.048583370818633884,0.004482416581445217,0.0066147305029038974,-0.014422303290711739,0.05586060389602534,0.028974941116330984,-0.011499850217770578,0.06076250855726406,-0.053198728736088906,-0.04283130540266069,0.04055336389136613,0.022176418135598588,0.018517966314604523,0.03925335326344466,-0.009108744309179538,-0.00008313806361739349,0.036624386677087555,0.05027985752884858,0.030004643172621942,0.001943867655863531,-0.00410070053360645,-0.018371760498020643,0.06103285752449084,-0.0206342545813778,-0.019050524976620995,0.05363522029527845,-0.05928560115652402,-0.008336135505916614,-0.03706517374907999,0.055023236270996395,-0.040358336435912995,-0.03496880479649734,0.015504678475833712,0.016148748252613372,-0.003624699159211012,0.014454750262222123,-0.05510634607920337,-0.05850995730769428,-0.0026054573811119435,-0.017017732182345865,0.001607644342297623,0.04350951095664042,0.02761411701640467,0.006783565249225325,-0.015098607168364338,-0.06092732389484224,0.058697099595332335,0.03151581825630323,-0.025543920349119637,-0.022345642543407738,-0.030120246004572224,-0.04273294697702055,0.026314636425220056,0.025410311992187466,-0.020619272319638962,0.017149530325235432,-0.01929373833942969,-0.024574798769829306,0.03340803424138187,-0.05372407592408426,0.01704297777500345,-0.04440602124578507,0.014118034918646667,-0.019434149350973713,-0.06762969339449891,0.03925889564589118,0.03915149333089094,-0.07507611431590139,0.01179462573887401,-0.007524472882322647,0.028723138568700884,0.06641489435059479,-0.04979191591983229,-0.0073199140243401075,0.016972467461916965,-0.010371034460093121,0.05147081308853471,-0.042277679045796795,0.0636542996951369,0.03994571641178133,-0.05182171953559246,0.06239075676959685,-0.04819718728539049,-0.03627488171039852,-0.011706048746989365,-0.050040117410289256,0.0426436579927989,0.02413224452857016,0.06464538769657263,-0.04500331428074816,0.009438838305277293,-0.048140232332694086,0.04601170315556905,0.034186330103972554,-0.06350060940680542,-0.02134419224198345,-0.0663781323021013,0.0136576385056568,0.04031965520749143,-0.09316242938542109,-0.05618161905546617,0.06909850499737585,0.057995155285543366,0.046861071427763586,-0.01735307513616679,-0.05631189941342901,-0.023616883934296718,0.00922821300442661,0.015524501988845987,-0.03746148736423512,0.026591035842145776,0.0461265795769566,-0.017176794071809404,0.04494151363165401,0.06571388159340093,0.024763567465484883,0.03328072833547458,-0.050785968071490536,-0.0021880428848508023,0.029028535468712507,-0.04482154985427678,0.05756358000383803,-0.06145425155691877,0.03729511018428204,-0.012655712114848406,0.00561933762248464,0.037768191565426434,-0.06013256092715675,-0.03247385019653232,0.013577113739511822,0.06606721065525133,0.05647478051480638,-0.04999209269207168,0.02328514522151934,-0.008370786489233593,0.0406767852823239,-0.05365621989754604,0.03775325032384524,0.05792607148255479,0.05110009632916762,-0.01029558892227728,-0.0018640211091116832,-0.04049954856567783,0.07626144839135734,0.02939213534506168,-0.016926927263441378,0.009149718810529202,0.006643486986672759,0.03203401031150275,0.06408702279425528,-0.006322546836733723,0.020190058110567993,-0.04094449066532012,0.04791229039773771,-0.0077279519919264145,-0.05146845680912536,-0.04019512938178705,0.016123242013581493,0.007868449354667652,0.0059006758051452874,0.0021353982020000735,0.026022153907654725,-0.03426520429473073,0.03042339369506936,-0.006165263848266131,0.05407422327198552,0.06057708362170379,0.016402107563246126,0.020034433105963107,-0.019395513106682243,-0.07560210266079505,-0.07246330273575827,-0.03651172543942931,0.03433787155534866,-0.07027374688103225,-0.054767894607575064,-0.05177891065355362,-0.009035287577709312,0.009956144379357289,-0.03132461164665811,-0.018648758209846118,-0.04213642895445087,-0.060764622432235224,-0.014440624490598438,-0.012032167067023087,0.010601251456298179,0.011427129811989536,0.001610444205437265,0.05899007907463568,0.007365780175146929,-0.012379787052940407,-0.005113610777501965,0.012866974327016266,0.06534113606100235,-0.007474945745698557,0.0249424399655349,-0.03066610717043891,0.05168049281604385,0.016789215222276603,-0.048810044235610216,0.004289545894283969,-0.013315097060762088,0.007551669345972102,0.02895157722936073,0.030811657899071424,-0.008164848395013764,-0.07342802004826704,-0.028692888617646732,0.05713442353659158,0.03800808959850896,0.045866784281906915,-0.03344682927074221,-0.04785434754499963,-0.01656258702998173,0.051904471425565216,0.0249846065886443,0.008745457700492548,0.06479762312307664,-0.0424227694338998,-0.037434819278235595,0.04107160139188091,-0.051381208771985355,-0.021241534836553246,0.04009296730492137,0.01739162365823318,-0.057161546567070884,-0.015483631964438438,-0.020977339672910492,-0.011267197214200723,0.04196111060811743,0.019397464391537413,-0.03687761630760559,0.03360480826816008,0.023299231076601475,-0.004945605619638495,0.0705261194146063,-0.0726757553754367,-0.00338008610798894,0.03388758199127506,0.026818554498429296,-0.06955032839906028,0.04291089066729491,-0.0026092245297571733,0.018617648719023716,-0.0005950237950187447,0.007173289455341343,-0.0009264046674803565,0.05094389331588231,0.057538030495916916,-0.020429616878019665,-0.055852419327087725,-0.07424661500190884,0.06856676419324118,0.013871849024418445,-0.04048405709105851,0.03400954944657563,0.023259912822863067,-0.061143693186683216,0.057783381652436176,-0.08143777321073134,-0.016648428712297218,-0.005943933173207445,-0.034080343915612286,0.03396646703530787,-0.06601954033746607,-0.04087375047976551,0.03832608115915918,-0.032594119605965796,-0.0706422078618899,0.08244360973050806,-0.023312567059181142,0.0005135090572376451,0.007958666206919379,0.015648781441846768,-0.09734813514395944,-0.03164301303063936,0.05041575047973696,0.060501786535060255,-0.0003114331126462905,-0.037349692180195786,-0.02845991467753144,0.06955777074110572,0.057753406908048165,-0.014597085113172122,0.05030360190416559,-0.0463624473236677,0.003496508602707084,-0.04843278323155305,0.014544576371173864,-0.026757789761188373,0.05412115039956615,-0.002859383937242427,0.058729883121397854,0.05946485385296794,-0.001976704593655041,-0.009743191197596125,0.05872888934071303,0.022564560264448995,0.04385086234551061,-0.05761071381969421,0.06694352298446682,0.05928852963225361,0.018654392278749075,0.061365655088758,0.030785443214795247,-0.06381008122812548,0.030254828666932066,-0.002792231397861599,0.047090349150997655,-0.02312794559015818,0.041396262998142225,-0.005319437485901717,-0.024346266593671825,-0.045316815257742296,0.025087999806605685,-0.0007418725099118809,-0.027904769438129664,-0.004743746133208392,0.011277025315498151,-0.004876288702014633,0.06202056049701577,0.048895540217484254,-0.02650540880835167,-0.03654026147000131,0.0528714811814056,0.02933069693639214,0.03198401739949946,0.01321866638386318,0.012259530592140825,0.00624278665905951,-0.053390748501192825,0.07352958137206403,-0.05925763480344902,-0.05430224337606609,-0.04929121827654519,-0.045032239261858384,0.026861810179536514,-0.04607283334937727,-0.07431396544386756,0.025724744138193048,0.059888298191500225,-0.03747211565656437,-0.06396296352300283,0.026154870323188358,-0.030309072276456187,0.047018296728213296,0.03146323216794234,0.02356300221760931,0.020761651157279196,-0.01890733383336477,0.05769839734268469,0.017607253174920668,0.013850835426628521,-0.05643303079819919,-0.035537712712137105,-0.06735729158073293,-0.04600870699156503,-0.046916514971942484,0.03896833697206009,0.01383575401180472,-0.04336428236147492,-0.017177503241348296,-0.06327612448986385,0.011738328077080765,0.0471724743794224,0.013940444730006357,0.06202897013669492,-0.05461705762412866,-0.0358878101567989,-0.030556477088121294,0.0005355022148522238,0.08168471439650508,0.06833688703858609,-0.08300855823987598,0.01151683230766058,-0.04213094218362519,0.07901588682313718,0.029769783962971825,-0.07806588592627983,0.003976587043342542,0.027138984381649117,-0.005433550657241562,0.07127979301968569,0.05524498877224397,-0.04225161113248526,-0.005468338143431682,0.07018311106888278,0.041699144913911475,0.0647413564205612,-0.02995850325406454,-0.053880375713744426,-0.01957435824645772,0.014734550586344628,0.003184761467653859,-0.02116416542389726,0.04531530834761879,0.019193340724836434,-0.011291096996683405,0.017876405751608065,0.0015436537875269396,-0.003992859415445393,-0.013623797738231233,-0.048494783659716954,0.03082237454430484,0.07590984476673762,-0.0043302031185032995,-0.026640381971710425,0.00754161125602599,0.07794817851385234,-0.030975964600925138,0.06028848645844472,0.0027734725986660455,-0.025657913202558273,0.01613792687049234,-0.04833149817081221,-0.018912231954769113,0.010146106636386959,-0.05951675622058011,0.04314319389599219,-0.06392802961735686,0.03917342162913799,-0.04536884393918376,-0.011989205831319676,-0.059485791196351986,0.0586991840344465,-0.006347140770698448,0.007130319425820965,0.006932847912602704,-0.006066847926486013,-0.03432593801412157,0.06658596558077856,-0.07263405837314806,0.01738410533221172,0.001359377377603206,0.014613862497398539,0.05761328154928351,0.04677550634574876,0.06718183410014976,0.007344364361457447,-0.06939637771045146,0.0010935536365617089,-0.046526646607027086,0.023856491473770704,0.0018900986902781495,0.027311359417344798,-0.019736341469049967,0.008207776434179317,0.05915087410735452,-0.05132231633220661,-0.066242347839492,0.0011433555025961628,0.011440717179571406,-0.06834466042838117,-0.032144038642375396,-0.04099685471823324,0.06513428708603435,-0.008370846115272529,0.03263794699999729,-0.05985858408676246,-0.031870173263019184,0.009166310873535914,0.0934392636266971,0.045930765027934924,-0.03817972840131874,-0.05465501348892287,-0.0625532218451688,0.010614520512366082,-0.005917485353052076,-0.07785690328206242,-0.010964692524375552,0.0802542281867741,-0.013302990641540747,-0.06198450311471741,0.04227951072365096,0.07666227472131648,-0.01569241073370055,-0.02905288973262674,0.0018902426094932945,0.08019371252686784,0.056056910734258204,0.054454141893480676,0.03241805445067202,-0.05034858744514607,0.009440775884460986,0.0014481083160527166,-0.08716726168605599,-0.03227833525306282,-0.018818727783887264,0.010528181562701541,0.05458828010318544,0.05899011194859676,-0.09250971001338994,0.057635656937187536,-0.017042104367445392,-0.017377992977101984,-0.07252994805325744,0.019778084232480626,-0.07488473005140155,-0.0201983180730818,-0.014704254560196113,0.08706096758328857,-0.004891299528483141,-0.04370980708717786,-0.018455723609576778,-0.03509399753280096,0.08330580609685526,0.06755268046114378,0.10969535642947408,0.0644202250129488,-0.07966161946003175,0.0809387644262068,-0.051810048817404544,-0.04819231596494832,-0.06083886133231638,0.02660488772439217,-0.042436492537762965,-0.06268115689253008,0.023981209951722773,-0.03461006171498758,0.011598540509274337,0.0582752834846234,-0.10012397656296526,0.027011079616904632,0.031678628814127675,0.06907046732006068,0.07234986962148635,0.010102590135728451,0.014306453409990344,0.0024949619364686925,-0.028658957668496462,-0.039677940680954545,0.04013989273212452,-0.017223062360015536,-0.07764808338655974,0.02524091683404042,0.016829182468771783,-0.0879277993324751,-0.07805443111406085,0.044005183372260996,0.009845881171468828,-0.0548285112623925,-0.07468684552186951,0.08753791257586274,-0.012974206263387557,-0.08436419138744877,0.005359837164826074,-0.017815843700103612,-0.017353551365086615,0.13067208549269563,-0.005284113508684081,-0.09230750478049739,-0.10646993049675321,-0.03627101106387163,-0.026832534982720296,0.03213999175701661,0.052679972097929295,0.05301015589872454,-0.047055867296439326,0.10240529268090746,0.017120947161326942,-0.04703574726437716,0.026939479862641898,-0.0716391408917489,-0.0013876296961776726,-0.061380107910787816,-0.017881461472696567,-0.03851170314927249,0.022198599132769094,0.015391062148907748,0.08285649983039087,-0.06114215491768629,0.022523725564471554,-0.060918150036331914,0.048481942977753975,-0.04218759951904701,0.07115089521943373,-0.04253462904065185,-0.04459017841449264,-0.021423519535653638,0.030576227862277646,-0.011276264621039202,-0.04793520467110985,0.06914560723969329,-0.004828551829645316,0.03088223083120345,-0.11284055210649982,-0.06577795806193791,-0.05785791917794897,0.04635606785245885,0.03279121200179521,-0.12419865721528087,-0.028901003803967703,0.04224659286514004,0.017293321053375197,-0.036100186399949045,-0.017448816086195276,-0.09518261444962349,-0.056611938269898986,-0.01459278059314177,0.0793909543996538,0.04070928538841004,0.020381212937896083,0.048263789355306085,-0.03876345549029195,0.030198203898350186,0.011677132717178766,0.030066943287437663,0.008192974126341266,0.04781865230117692,0.0011705566113797549,0.04096695806519589,0.10654950567569367,0.027003376155925206,-0.011315699612171083,-0.029251936423254816,0.07542431693785778,-0.03808467676959297,0.08652928780258148,0.025358034475289434,0.02410776777547782,-0.008047571148437951,-0.005603469472332987,-0.033906861931940806,-0.01382327870339486,0.055486086162778815,-0.006863478547413866,0.08694705610437092,0.04069534810583554,-0.036382610595709186,0.047724542530202474,0.03198119099760969,0.056871317265825554,-0.05324853835553966,-0.05536493692202745,-0.0023151201261568046,-0.03038355453124706,0.004754401917881868,0.08438066165527884,-0.04192896125342472,0.062186628899060195,-0.033789329716393764,0.039677803126738354,0.003948292942173004,0.03733523748573479,-0.06658640272915406,-0.10893187863532494,-0.002181543506028431,0.03412136346373815,-0.020083271608855986,-0.04355412976390373,0.05289072541731381,-0.020700946528793188,-0.00863560606974998,-0.014890569925217763,0.0037816361607856913,-0.025712655511081324,0.04559583713819622,0.02311718121215502,0.018860939909230347,-0.17334814294530884,0.07074483537209625,0.005637119719877461,-0.05331468464231995,-0.061958809768890566,-0.009940664133162736,-0.035948574384079925,0.04815216093666551,0.05875313138822178,-0.0024762088573221253,0.0583652232165113,0.0071547925824724185,-0.0411958273761545,-0.05843094841423952,0.06575320628386386,-0.06548670615366775,0.014977876285583364,0.04925412261218707,-0.052991790525912914,-0.0671206148810445,-0.0367953400012558,0.01650870153073786,0.07501564595682088,0.015514719058444877,0.02681762677134626,0.09683656198247372,-0.03304601138223703,0.08352205946064487,0.08655654529755107,0.019755076100062267,-0.02653169660893288,0.030497241994039713,0.020829286032850072,0.07458366231850373,-0.14260917981123877,-0.06074795921332491,-0.04849713951475517,0.0173653583116674,-0.06906833295269799,-0.0562165979015806,-0.030438503780436735,0.011412393147913568,-0.047053714507606044,0.05960777514229043,-0.09090062284335487,-0.024356544694256146,-0.021637297406506287,0.0429443808288305,0.03566513537518115,-0.002430827973756774,0.06423864566873094,0.04441606932750493,0.06158304472008174,-0.07105774604132825,0.06239391845478534,-0.07727749426984812,-0.025503702583305126,0.025725719581245986,-0.047057125647223176,-0.060247823337035364,-0.1044619654750386,0.016978003266538623,-0.03970180322486929,0.03397634691209573,-0.006879697771124641,-0.05866992216186189,0.06573770771307207,0.05272729751844151,-0.005110063859362288,-0.034661557770693595,0.008134182784687775,-0.02178852940618855,-0.07634672421064208,-0.0003746063421497633,-0.030541867307628322,0.04455739738703683,-0.035261872530694176,-0.0562407221347102,0.005148000816866636,-0.08080493848984677,-0.049620024516533655,-0.04749132591873423,0.01691666298687648,-0.040443522630617984,0.09870869196513851,0.04481266940259286,0.04235484812873356,-0.04107387034425117,0.03586325732480031,0.03948696123771385,-0.00887867662459067,0.002173743235910288,-0.04097301540714662,-0.030280171225055146,0.0009605309216424685,0.0593115714321596,-0.0026417277915250998,-0.06715246616774395,-0.026024179255233933,-0.06439938067708963,0.0868702733610567,-0.07825936717134643,0.006897604004037745,-0.09280283552566836,-0.027983328821890953,0.02851634643165505,-0.055552919841932315,0.07753544873367858,0.01563887459729782,-0.08041008177120565,0.05297875392545161,0.10160048957863221,-0.011413916709058903,0.07366843467399377,0.021113435404373916,-0.05968409989728576,-0.017542760128195358,0.04385868829346847,-0.03283939112221348,0.03650657528829184,-0.0813769128639609,0.03305248818127951,0.02887714195627315,0.0529858969400506,0.05319413442647835,0.036890342938737115,-0.03408666376832202,-0.001857644352341956,0.04845703535986217,-0.008541007210127443,-0.038947014532554065,0.022847751553371744,-0.018461935531870352,-0.04030410818936198,0.06668521597756213,0.053564695420183286,0.004070779750752241,0.009943770103707604,0.06302309748597669,-0.05140542714834734,-0.0007376852451592723,-0.03774102499206928,0.03901701319093195,0.022713911624370267,-0.019018630688591557,-0.055765232923575186,0.008908850835620138,0.029568157928832356,-0.059650437090033176,0.0582147509808996,0.03334527902952494,0.013196886417803174,0.06364769179298214,-0.029029621144168585,-0.03362290812361778,-0.05700688829420266,-0.005258289267183687,0.017031521732106647,0.05622590702284991,0.039386008520581856,0.004905435960964198,-0.0025661037872556484,-0.018164985497586338,0.03290302269750962,-0.0038183529486213812,-0.008752440886082673,0.018911897426038705,-0.00430909968605154,-0.015133767528311743,-0.0030385468260298717,-0.0014207917875653283,0.023071840909796915,0.06508245280078372,0.07027416194589332,-0.08201255750981211,-0.06300966556498327,-0.01877582698440271,0.0421855985873855,0.003177603562873549,0.00586365449351228,-0.06960869399828652,0.06508639519339567,0.0018046121401875616,-0.05183689207538938,-0.05385597636310663,-0.03224554472288775,0.06192900115970952,-0.029850876844778156,-0.05613120176654005,0.005078681749842378,-0.015520811670751818,-0.027252504410378235,-0.03898721293158048,-0.02094084241234713,-0.030581486038427082,0.07118540524353949,0.04145940208372077,-0.0314421819280704,-0.04889992415954958,0.0184352913793849,-0.04888449460991039,0.07270608826775747,-0.022606392913546856,0.0050920222401999735,0.05956983215568754,-0.009979533351602222,-0.06965654540042283,0.07289354280880771,-0.034950642385719585,-0.002526334830535033,-0.06593472231925927,-0.06470520592988446,0.0680611106520643,0.05824035625876959,0.05391632866993414,-0.05379206393861701,-0.07616647384220517,-0.029533697934166134,-0.0296401171197768,0.055700260251418686,0.001178142848656664,-0.01547692071536828,-0.03467172168920845,0.04382886160858156,-0.05258841767588956,0.04404768304003742,0.0895492250120022,-0.01588171104007326,-0.05146912252921245,0.04528273414544786,-0.013766333204456182,-0.044795760208776854,-0.03440473979547314,-0.050695262169074974,0.05923830992680911,0.042813618051466565,-0.03260784146469931,-0.0645909925349433,0.012844660436105907,0.049934441434145736,0.034443684196897924,-0.025582367274659852,0.04959573878537592,-0.0329513570714503,0.03845019691691552,0.007021478185863587,-0.031649450405164065,0.024553343745667155,-0.001324823096401503,0.051950776521138754,0.008745384140953752,0.04550606410173277,-0.00017412681250733412,0.03762179161209823,0.06432081540030853,0.06303446855265464,-0.007959106380654309,-0.03391043515661089,0.056494616557283495,0.06612696064946007,-0.030139355155804844,-0.06104213115374875,-0.057838790142356745,-0.0071429909737290714,-0.010570426639210019,-0.058684980869649406,0.021617455571212668,-0.052160214591013686,0.014575037386018555,-0.02092889507117437,-0.053662190850678484,-0.07341949242738148,-0.04243191978606509,-0.012915625999905395,0.050697522221089746,0.0089368237393806,0.03369961483132762,-0.021751120641745576,-0.0195897286125542,0.05278683715564103,0.0531865267418597,-0.005783745978461608,-0.07033921831942451,0.05953203501176905,-0.03318902744457453,0.054405159212227786,-0.05954377618369695,0.03722380889883641,-0.009994120378636923,0.0439372915667171,-0.01971087999904189,0.03514800535133225,-0.04379606816976053,-0.010226489554531412,0.08262662981328256,-0.063467700060199,-0.002562392321991135,-0.023575100243784113,0.05441262888490088,-0.07619926179731926,-0.036683525878407036,-0.014438561514869462,0.031157544234063972,0.04487330152555523,-0.021294710535870242,-0.02659863845218149,-0.01515414090503574,-0.017549167439456094,0.05270871707245143,-0.03314483848542272,0.07796636806740359,0.06516186730628622,0.048125234001185485,-0.007467700437752921,-0.016159280618918286,-0.04418339333312317,-0.00123913417698419,-0.04449397974270137,0.03855043430197817,0.03449150437850021,-0.005956540600680445,0.05541229477207266,-0.012741012475147024,-0.017159250353740458,0.07243898055404327,0.005634274320812709,-0.0500283039305284,-0.0058555394031617955,-0.0033080188447877704,-0.04515110380688643,0.03808557640621861,-0.03040066603009572,0.02021132850894101,-0.0172909361099091,-0.06251712223797869,-0.02128530309799486,0.0004111293973801957,0.027482791481885163,0.03864029410760759,0.01743946992604751,0.04706348626416898,0.05983196613382889,-0.0634179081557738,-0.005699409243772006,-0.04079528393992827,0.06044513887847824,-0.04202683061451359,0.046987562435826274,-0.027904495552358303,-0.015797619231965754,-0.03872003618836115,0.01495457546031637,0.03561617235214036,0.03429457306502429,-0.0420357474722435,0.023149718298113325,-0.0587535944842113,-0.026902424012427924,-0.014090354643503446,0.04729721257087186,0.05513563072962525,0.07044241884626938,-0.04368933291857355,-0.062394862116703566,0.07478729966004538,-0.001942432917399117,0.03715327911859184,-0.019658329593875614,0.04193608738541764,0.00569388544875743,-0.05933974546178041,0.06452445232570174,-0.007281838724475839,-0.06453764886727258,-0.028690965094284017,-0.016936367627751543,0.048867512962570206,-0.05128958367282222,0.0014142124456595513,0.061997256083194376,0.04925677368418047,0.07851141523293198,0.02473804091811314,0.04211023658467363,0.02129508644992651,0.020100222589828826,-0.08252830425192997,0.060890193032651085,-0.024456733816406295,-0.014058401790325817,-0.012544207105636418,-0.013130760646226971,0.03279667794472263,-0.017460141729389318,-0.02024023449826008,0.04553806853182417,0.007987328665898,-0.029564550022766183,-0.06799255924619475,-0.059005494330083556,-0.012177662313337095,0.006904482483616596,0.0771807989535228,0.05009983820500044,-0.03974284239171937,0.011612248271471021,-0.0325437067828129,-0.03716627361037368,-0.07626961475504122,0.07668779146605754,0.02586424504178921,-0.004412114841687224,-0.041576986652759086,-0.07259888051768874,-0.039080750846778256,0.028494784543376714,-0.07034230306120548,-0.06265914462118966,-0.012487964422136552,-0.04240258262294095,-0.011975382579730414,0.00831413805516295,0.012656645840183486,0.00565431975940948,0.07931633959487534,0.032679358304042984,-0.04027410136948549,0.0011763913046841006,-0.04116850926958299,0.06309197276622697,-0.07098401133593861,-0.01307561963631869,-0.028660673037222417,-0.01511974837715993,-0.024951280581261535,0.012171213571667772,0.006409062808382136,0.06413913245200913,0.01427028770299497,-0.0037224964673672686,-0.0023830202966373913,-0.00549647557773837,0.0805857377322338,0.07765991398409203,0.011654159598444316,-0.04237698698958661,0.028380254472360953,-0.002630804493009328,0.058089745971716455,-0.037315211118464475,-0.04967141159435943,-0.03224562329435327,0.0006620368744678495,0.05583936772677533,0.044739387161715126,0.03873739877968219,0.05133291164546088,0.015321103652789533,-0.0584702257574366,-0.026284254821586254,-0.009390639562908448,-0.02967216534273073,0.0612813899773282,-0.038465576183028254,0.01873710934847632,-0.05978360435486291,0.04462723205841688,0.031839827368816145,-0.024520873071952564,0.009890437080613615,0.01600564911718208,0.04440332467382311,0.06118616913031353,-0.0031476607837267814,-0.06041818334563143,-0.03025566273530745,-0.05932046862257475,0.017073263951665727,0.06425951977336879,-0.03423927142821886,-0.05167779620311776,0.03822903457963237,-0.05312077128417736,0.04200948900467472,0.07055593910668702,0.02545800544831618,-0.06370951989824271,-0.023910381151894256,-0.05045333538968315,0.0549043304417866,-0.06574840569989794,-0.02408419586670995,-0.049731165155337965,-0.04188758202105295,-0.02607347105344432,-0.02567357283278046,-0.05630081950793287,0.022136515936373877,0.04419828571166605,-0.04762122154516946,0.05416420637590073,-0.005156981753579678,0.047603719299354336,0.001823424091443496,0.030238328286879848,0.00005855569560994928,0.02625972413788841,-0.06539309730134349,0.024911813230285615,0.0009904778104990204,0.01180616588517379,-0.007273382417011506,0.024523450160376405,0.02119844707882163,0.06382615430421897,0.03190998996185482,-0.02842317804301582,-0.038790044618927405,0.0657634682903564,0.05586517526608677,0.02616428060587116,-0.03316307574058181,0.05068255344871462,0.042149345514799395,-0.05595566634842195,0.008795512802214784,-0.008182941378666451,-0.01099670213787713,-0.01978539889126841,-0.01640263935605915,-0.010416814900363997,-0.056427071231937645,0.015906797718136325,0.01746636904381316,0.06139139366003899,-0.009350930840474002,-0.016470472360438353,-0.02767946203903032,-0.007203767124612976,-0.05961902167262087,-0.03850041288136964,-0.02795750020243532,-0.06616233247967618,0.0747184745066608,0.0116533016207671,-0.011399925809460405,-0.034626407718071,0.005072191427219744,0.03718083081221293,0.031066503393689052,-0.027795536495358333,-0.07122288379951817,-0.028261595929189715,0.013644793506988743,0.0076916764472378645,-0.005227075603124346,-0.01833888200568242,0.006736798233423066,0.05455366482076692,-0.008261223927044734,-0.0222268347718166,0.0013073385797853772,0.034974989874245105,0.020072349733755192,-0.0468085319320234,-0.06692100106316973,-0.04858710837836,-0.04241728676008065,-0.007732609646340143,0.05426232426510513,-0.056886006469627055,-0.01040740773583487,-0.04543519367544253,-0.021110577467385115,0.06096470811803012,0.04839968759260125,-0.010377160906386547,-0.016147107791593396,-0.06861701336886043,0.015495211904703668,0.02432361159249926,-0.013256373004076265,0.04078027143558433,0.022587498449115388,-0.01134456156135553,0.030175842573107035,-0.0037078102746618677,0.009306647555748802,-0.04228222708509075,0.06336704006954023,-0.03592118512586441,-0.021611892070905116,-0.05501705571474563,-0.04417994563475423,0.016830022148245413,-0.047859370878488634,0.05256425997361438,-0.058796565353269784,-0.05818830108322645,-0.04677150747555911,0.04393175045307509,0.0206373352009721,0.02434781937468565,0.033147737386986516,0.059182815562152595,-0.002053844835428672,-0.003897609887151343,-0.0011082233782181768,0.037572819699925326,0.06452261803638326,0.046956311306835356,0.014536042288286748,-0.003954257475891255,0.04735915996072167,0.053132865425842404,-0.047498141387009564,0.03341107149936095,0.043845856231438926,-0.002588175274489898,-0.022042600857040566,0.02194264581680348,-0.057684239856075244,-0.02074024310146144,0.04476133492279685,-0.033678319809637834,-0.02288115982864677,-0.01878415468721503,0.021916254044010073,0.041841696884535116,0.04024924956901277,-0.0724099996439118,-0.05401102605880609,-0.060524473667211705,-0.04990487756424692,-0.061634797867879995,-0.05641706270264208,-0.04749144823777155,-0.0025812782368951548,-0.051515200719573204,0.0218148829163005,-0.02016537143044165,-0.0005024499563095334,0.03982526775234568,0.015910409125650445,-0.014937786529026567,-0.029061180913670492,0.047677936083023065,0.037799020226444886,0.0023602163038303962,0.04303141082062904,-0.05350812001505057,0.034885322254719076,-0.017069798855007607,0.05818660011263956,0.005582787203926412,-0.06291983098637424,-0.04368275252737034,-0.020950662264759168,0.05273419445796255,-0.0035438224016278775,0.0614209595268327,-0.0023774886444231386,0.05561245194185981,-0.028462765514216008,-0.018709239909926373,-0.05625984568886725,-0.0319718380829613,-0.053235712143465556,-0.07023479040576118,0.0025119602898625356,-0.028119265588010794,0.0591835816271107,0.059746785583169294,-0.0026301645358767587,-0.01090307584874597,0.015140909899359227,0.06325844304337415,-0.00480961350166512,-0.05037785384641898,0.06167240714764227,0.028998579312522994,0.034621957133006524,-0.021703972857090716,0.050796164420784815,-0.049370078282736825,0.014759718649593804,0.037878196298398295,0.043102524770947184,-0.021598843965700533,-0.05319315203948828,-0.01099859612015391,0.047228585958228354,0.006768871977757326,-0.039089517692778616,0.04416429553842729,0.0053640146453367826,-0.04338695762449227,